nep4 15 Li B O Al Si P S Cl Ga Ge As Br Sn Sb I 
cutoff 7 5 199 74
n_max 6 4
basis_size 8 8
l_max 4 0 0
ANN 30 0
 -3.5388290e-03
  8.6338180e-01
  6.4071172e-01
  3.2864040e-01
  5.1851618e-01
 -5.3292817e-01
 -9.6870214e-01
 -2.2873774e-01
 -1.1051274e-03
 -1.7893462e-01
  1.1046570e-01
 -5.8410514e-02
  2.5082540e-03
  5.2761006e-01
  2.2230951e-01
  4.2587794e-02
 -5.3301466e-01
 -4.4610351e-01
  4.3436762e-02
  3.2481846e-01
 -1.0491630e-02
 -2.0880955e-01
 -3.3481643e-01
 -5.6721550e-01
  3.0951113e-01
  3.7737116e-02
 -2.0500476e-02
  2.2127916e-01
 -6.4986711e-04
  3.9233326e-04
  2.2792960e-02
 -2.3614530e-01
  1.2380521e+00
 -5.3658324e-01
  9.7892240e-02
  4.4494623e-01
 -1.6684598e-01
  3.6636403e-01
 -4.1262880e-02
  8.8277355e-02
  2.0145576e-03
  4.7337055e-01
  1.4896482e-03
 -8.2807540e-04
  6.0230559e-03
 -3.7367322e-04
  2.0149353e-01
 -4.0127346e-04
 -3.4095102e-03
 -1.2634536e-02
 -9.0699250e-05
  9.9660748e-01
  1.5619239e-03
  5.7620630e-03
  5.5372648e-02
  3.3158395e-01
  1.9374081e-04
  6.1955208e-01
  1.8416079e-02
  6.2492031e-01
 -4.5472929e-01
 -1.3616543e-01
 -9.5266879e-02
  1.5892451e-01
  1.0224354e-01
 -3.1162986e-01
 -1.7427020e-01
 -4.8073158e-01
 -2.3499438e-01
 -5.3338927e-01
  1.4904766e-01
 -1.6656010e-01
  6.2759236e-02
  3.9928321e-02
 -2.8630617e-01
  8.9629419e-02
 -1.4597940e-01
 -2.3638643e-01
  5.3172342e-02
 -8.2468688e-01
  9.3122534e-03
  5.4343742e-01
 -2.9707374e-03
 -1.5962534e-02
 -4.3513620e-01
 -2.5474536e-01
 -9.8368958e-02
  9.0836167e-02
  8.8798821e-02
  2.4499460e-01
  1.1302085e-01
  8.8861667e-02
 -6.4179204e-02
  2.9079163e-01
 -1.7440321e-01
  2.0850193e-02
  1.7975475e-01
 -4.8571825e-04
  2.3644294e-01
  2.5892130e-01
  2.4432187e-01
  3.2931927e-01
 -2.7579319e-01
  1.2009306e-01
 -5.2501578e-02
  8.4761558e-03
  6.7355423e-03
  4.4358130e-05
  6.6975200e-01
  6.5573886e-02
  5.0064856e-01
 -1.3606529e-01
  5.1918292e-01
  2.9344270e-01
 -2.4544454e-01
 -3.4536964e-01
 -1.1875892e-01
  2.0304121e-01
  1.9228874e-02
  1.9406783e-03
 -4.7854248e-02
  3.0186298e-01
 -1.9362618e-01
 -2.1761549e-03
 -4.0160891e-02
  1.4508668e-01
  6.6403253e-03
  3.2859895e-02
  5.5224681e-03
  3.6944926e-02
  3.8496390e-04
 -1.2212815e-01
  2.2647402e-01
  2.6142275e-02
 -2.3550466e-03
 -6.3682191e-02
 -2.1334619e-03
  9.4677869e-04
  1.6047835e-03
 -1.7203514e-03
  1.7857057e-01
  1.4787559e-01
 -4.0283281e-04
  9.4931159e-04
  3.8466325e-01
  1.2184308e-04
  7.4040075e-04
  1.1412513e-03
 -3.1629966e-03
  4.1410833e-04
  9.6665241e-02
  1.2174180e-03
 -2.1446107e-03
 -9.4424217e-04
  2.4740693e-01
 -1.5101368e-02
 -5.8470282e-04
  2.0050155e-03
 -1.9828461e-02
 -6.4658701e-01
 -5.8198575e-02
  6.7144218e-05
 -4.3697692e-03
  3.4007879e-03
 -1.8331864e+00
 -1.4285707e+00
 -5.2377932e-02
  1.3878974e+00
  3.8094698e-03
 -1.3874634e-01
 -1.4386159e-01
 -1.5652449e-01
  2.3279908e-01
  4.5940846e-01
 -4.1301191e-01
 -2.8667265e-01
 -1.1147313e-01
  2.3852228e-01
 -4.5287487e-01
 -5.2686584e-01
  1.4536712e-01
  5.2649360e-02
 -1.6329925e-01
 -3.9902708e-01
 -1.3050170e-01
 -1.4460428e-01
  9.2447944e-02
 -7.0573105e-03
 -2.8584789e-02
  9.2161335e-02
  9.1107609e-04
 -1.3249519e-02
 -3.3508465e-02
 -5.6808580e-02
 -5.1220730e-02
 -9.7740907e-03
  3.0320799e-01
  5.0909419e-02
 -2.0245636e-02
  5.4780353e-02
 -8.8847661e-03
  1.0626306e-01
 -1.7678570e-03
 -6.2566935e-03
 -1.8712094e-02
 -2.6579401e-03
  2.2396144e-04
 -4.0994291e-04
  6.4980492e-02
  3.1294562e-02
 -3.7357226e-02
  3.8180081e-03
  1.6780329e-03
 -8.2560681e-02
  8.0740801e-04
 -9.2689525e-03
 -3.6572951e-01
 -7.3662370e-05
 -1.6680585e-02
  3.8193793e-03
  7.9868531e-01
 -2.0371466e+00
 -4.8711095e-02
 -1.9674858e-01
 -6.4464800e-02
 -7.5202119e-01
 -4.7190407e-01
 -1.2055162e-03
 -6.5010227e-02
  5.1247398e-04
 -7.5762612e-01
 -2.1246302e-01
 -3.9992373e-02
 -3.2976419e-02
 -2.4034940e-03
 -8.2062405e-01
 -1.1657118e-01
 -1.5487770e-02
 -4.5810174e-03
 -2.2781321e-03
 -7.7823031e-01
 -7.0295930e-02
 -1.9004866e-03
  2.4650115e-01
  2.3472184e-02
 -1.0833088e-01
  1.3626695e-03
 -1.1797002e-01
 -7.5484395e-02
 -1.0070296e-01
 -3.4146720e-05
  5.4953694e-01
 -2.7440745e-01
  3.6090794e-01
 -1.3253605e-01
  8.0984151e-03
  6.7963619e-03
  3.2742849e-01
  2.5669469e-05
  5.4766167e-02
  6.1691500e-02
  2.3450211e-01
  2.7166797e-02
  7.6069208e-03
 -8.4554397e-02
 -8.8563625e-04
  8.0366060e-02
 -3.2148993e-01
  1.0098097e-03
 -9.6274289e-06
 -1.6866614e-01
  1.8569453e+00
  4.9858963e-01
  7.6467711e-01
  7.4761011e-02
  1.0649710e-01
 -2.9784901e+00
  3.9824177e-02
 -4.6987124e-02
  1.0957988e-03
 -6.8891175e-02
 -6.3729376e-02
  4.3061949e-02
  2.4735178e-01
  4.6275863e-01
  1.9915311e-02
  9.6794732e-02
  1.4020067e-01
  2.3671670e-01
  2.5391185e-01
 -6.0672625e-03
 -6.1285123e-02
 -3.8545724e-02
  4.1197848e-01
  5.2204683e-02
  1.1019696e-01
  3.0201066e-01
 -3.9472368e-01
  1.1069940e-01
  5.5822688e-01
  7.4957460e-01
  7.0648885e-01
  8.0137712e-01
 -5.6138468e-01
 -4.6598414e-01
  1.9401503e-04
 -1.0875309e-01
  1.1732148e-02
  2.4820317e-01
 -7.9409808e-01
 -2.4157876e-01
 -8.5648827e-02
 -1.8049415e-02
 -6.2878735e-02
 -1.1536840e-01
 -4.4327357e-01
 -7.0513766e-03
 -4.4427044e-03
  4.7677495e-02
 -1.3447891e-01
 -1.0566204e-01
  4.6321746e-02
  1.9522743e-01
 -6.6923335e-06
  3.3237740e-01
  2.5002071e-01
  2.1406764e-01
 -5.3212231e-01
  8.9617365e-04
  4.1902319e-01
 -2.3500626e-01
  1.5613998e-01
 -3.6364862e-01
 -2.6112121e-01
  5.9854656e-01
 -1.1821612e-02
  6.6403419e-02
  5.0230935e-04
 -1.2710796e-01
  6.5028548e-01
  9.8656781e-02
  8.4058635e-02
 -1.6244879e-01
 -2.2460561e-01
  1.2686437e-01
  1.0941073e-01
  9.8599069e-02
  4.7768597e-03
 -2.8384998e-01
 -8.1044853e-01
  1.3486552e-01
  5.8024758e-01
  3.7756586e-03
 -7.1836631e-03
  6.3088294e-03
  5.4120371e-04
 -7.3351093e-02
  6.2808529e-02
  2.5691397e-03
 -6.7482740e-01
 -2.0562107e-02
  9.3586095e-02
  1.5983107e-03
  2.6881101e-03
 -1.4400181e-03
  5.7911038e-02
  3.5438791e-01
 -3.1917600e-03
  3.8273532e-02
 -8.9649677e-02
  6.0517979e-01
 -1.5789782e-01
 -9.3686648e-02
  2.1584542e-01
 -1.3301454e-03
  7.0327514e-01
 -1.0229844e-01
  4.7022300e-03
 -2.7347019e-01
 -8.8455075e-01
 -3.2731396e-01
 -6.8315166e-01
 -2.6002896e-01
 -1.3880499e-01
  3.6207822e-01
  1.8000045e-01
  6.5015711e-02
 -2.4978848e-02
  3.2612592e-02
  3.2054132e-01
  4.2514905e-01
  3.7160122e-01
  1.2916332e-01
  1.6001277e-01
  5.5201930e-01
 -5.4723401e-02
  1.6390190e-01
 -6.9962591e-02
  1.6538304e-01
  6.3327914e-01
  3.9428993e-04
  1.0673587e-01
 -1.5606543e-02
  1.6060603e-01
  4.7544602e-01
  1.7233685e-03
  1.0358230e+00
 -3.7719347e-02
  4.0072793e-01
  6.7203239e-02
 -1.9635856e-01
 -1.0125624e+00
  2.2934861e-01
  1.7785577e-01
  1.0193977e-01
  3.1418703e-02
  4.5964369e-01
 -4.0683710e-05
  2.3693611e-01
 -2.8899014e-01
  2.0639201e-01
 -1.8758856e-01
 -5.0416119e-02
 -1.2323833e-02
  3.6041051e-01
 -2.7425112e-02
 -6.2817948e-05
 -1.8250168e-03
  8.5591985e-04
  2.0512505e-01
  2.2665377e-01
 -5.7616909e-03
  2.9746958e-04
 -4.4205558e-01
 -8.9301640e-01
 -1.6320389e-02
 -1.0543239e+00
  1.3399811e-01
  4.7043151e-01
  9.7327435e-04
 -2.6032111e-01
  2.3849006e-01
  3.3276267e-02
  2.2930728e-01
  4.1778076e-02
 -4.6276893e-02
  1.3106836e-01
  4.0742919e-01
  3.8709545e-01
  1.1976877e-01
 -2.0852226e-01
 -2.1749651e-01
  5.4114383e-01
  5.7065761e-01
  1.7935060e-01
  7.3687114e-02
 -1.1909222e-01
 -1.0119447e-02
  3.1135492e-02
 -5.9895557e-01
 -1.3587700e-01
  1.9566316e-02
 -3.2057622e-01
 -2.6830900e-01
  4.7764453e-01
 -1.2156971e-03
 -1.5436533e-02
 -4.7355320e-04
 -4.1196859e-01
  8.1536427e-02
 -6.2647855e-01
  1.0343721e-04
  8.6815253e-02
 -2.5659049e-01
 -1.9747129e-01
 -1.3622265e-01
 -1.8051717e-01
  3.9182532e-01
  1.8497068e-01
  8.6411536e-03
 -8.5823394e-02
 -1.4087695e-01
  5.5252835e-02
  5.7821852e-01
  1.6402725e-02
 -7.3634097e-03
 -2.3812297e-01
 -2.2284298e-01
 -9.7650498e-02
  3.4507564e-01
 -1.9847989e-01
  1.7472559e-01
  7.6216513e-01
 -4.0515340e-03
 -1.0280769e-04
  4.3584141e-01
 -8.1724778e-02
  1.8323843e-01
 -2.3816919e-03
 -2.3230889e-03
 -4.5794898e-01
 -4.0411165e-01
  3.8258794e-03
 -3.8920552e-03
 -1.1736541e-02
 -5.7256252e-01
 -3.4671414e-01
  7.0787355e-05
  5.7209097e-04
 -1.2073279e-02
 -2.3184858e-01
 -8.7733768e-02
 -1.6434994e-04
  3.9956698e-01
  1.2927607e+00
  8.4316504e-01
  3.2617250e-01
 -2.6940998e-01
 -2.4941206e-01
 -2.7875552e+00
 -1.1082774e-01
  1.6710973e-01
 -5.9996162e-02
  1.4668449e-02
 -5.6261533e-01
  3.6109325e-01
  6.4566083e-02
  2.1349594e-01
  1.2794046e-01
 -1.4508414e-01
  4.4159435e-02
 -5.6035511e-02
  4.9781299e-01
 -2.5014373e-02
  6.3772075e-02
 -1.7731661e-01
  1.6705665e-01
  3.5953233e-01
  5.3658201e-03
  9.8763414e-02
  3.4465945e-01
 -4.3006057e-01
 -5.8076656e-01
  1.3405463e-01
  3.8244236e-02
  4.7208160e-01
  5.0075120e-01
 -2.4516888e-01
  1.6808715e-03
  2.6279895e-02
  3.0796474e-01
 -1.8325321e-01
  1.5742484e-01
  1.9490836e-02
  3.3970203e-02
  2.3932967e-01
  6.6347127e-03
  1.3176285e-01
  4.0645880e-01
  9.9377707e-02
 -1.2292220e-01
 -1.6363849e-01
 -4.3015227e-02
  3.8409352e-02
  2.7905110e-01
 -1.4834839e-01
 -2.3946972e-01
  5.7506140e-02
  2.9893326e-02
  5.8221247e-04
 -1.4705357e-01
 -3.7237322e-03
  5.5226201e-01
 -3.3672067e-04
 -8.7103009e-02
 -1.4170563e-01
 -1.1638470e-01
 -6.7057960e-02
 -1.1839679e-01
 -2.1740496e-02
 -2.1479543e-01
  2.9888457e-01
  6.3821988e-04
  6.5545812e-03
 -2.5658017e-02
 -7.9249078e-01
  2.1843825e-02
  7.1269654e-02
 -7.4369095e-02
 -2.9091813e-02
 -6.9883578e-02
  3.4399053e-01
  2.4436347e-02
 -9.9219821e-02
 -1.1485408e-03
  1.9802269e-06
  2.5431919e-03
  7.3864625e-04
  2.6926145e-05
  4.4465911e-01
  3.2050642e-01
 -2.3704376e-03
 -1.5983562e-03
 -1.4335616e-03
  4.7898400e-03
  6.1202249e-03
 -1.2848879e-03
  5.3831497e-03
 -9.6959427e-02
  1.9786216e-03
 -3.4837970e-03
 -4.1918083e-05
 -6.7298904e-05
 -6.3032605e-02
  6.1284164e-03
  7.4175477e-04
 -1.8984119e-04
 -4.9258801e-03
 -2.3597572e-02
 -3.3019788e-03
  1.4822889e-04
 -3.6957884e-01
 -1.8128637e-03
 -1.2628037e-01
  3.4684443e-04
 -2.2476203e-04
 -8.0133021e-01
 -1.0054678e-01
  4.1250717e-03
 -3.0107778e-03
  3.6238153e-02
  1.9626644e-01
 -2.8148862e-03
  1.0289789e-01
  1.6204177e-01
  8.0511756e-03
  7.6093696e-02
  1.0503918e-02
 -8.1715820e-04
  6.1133295e-01
 -1.5607087e-01
 -6.3349746e-02
 -9.7342962e-03
  1.4979084e-03
  4.4191200e-03
  3.5804877e-01
 -8.1477530e-02
  6.9667841e-04
 -2.9297387e-03
 -2.3517039e-01
  1.6266459e-01
 -2.0969322e-02
  1.9317459e-01
 -1.0990003e-01
 -3.5025483e-01
 -2.9795912e-01
 -4.9209259e-03
  2.1738173e-02
 -5.3713828e-02
  1.3161064e-02
 -3.1223962e-01
  4.0472229e-03
  4.3101233e-01
 -3.7377068e-01
 -4.1141190e-02
 -3.6862788e-01
 -7.0235059e-02
  9.2333101e-02
  5.8430865e-02
 -1.3769218e-01
 -2.6052881e-02
 -2.3924531e-01
 -7.4016727e-03
 -4.2197123e-01
  1.7177168e-02
 -3.5321328e-01
  1.7310998e-01
  1.4185393e-01
 -2.0460540e-01
  6.7314690e-01
 -8.2853210e-01
  1.2419539e-01
  2.3098266e-01
  5.4900455e-01
 -5.8148545e-01
  3.4667635e-01
 -1.2569584e-02
  8.5173272e-02
 -2.6535850e-03
 -5.3264624e-01
  4.4981429e-01
 -1.1484821e-01
  5.1842075e-02
  1.3151048e-01
 -6.8997109e-01
  2.3319133e-01
  6.5311794e-03
  4.5577861e-02
  8.1448359e-03
 -3.6526784e-01
 -1.3067494e-03
 -2.3960363e-04
  4.2609686e-01
  2.9173424e-03
  2.6178363e-01
 -1.2830676e-03
  2.5642195e-01
 -1.9303577e-01
 -5.8777716e-02
  9.6698359e-02
  1.6310789e-01
 -2.5482655e-02
 -1.5024410e-01
 -6.9087688e-03
 -3.0735233e-03
 -1.2630719e-03
 -1.2278520e-01
 -8.4412403e-02
 -1.8946339e-03
  8.3072089e-02
  3.3713433e-01
  7.9966821e-02
  1.7915358e-01
  1.2239545e-02
  1.7807387e-01
 -3.7586773e-03
  4.2647943e-01
  7.3561599e-03
  6.7870371e-02
 -5.3577566e-01
 -9.2970341e-02
 -8.7653339e-01
  8.9498691e-02
 -8.4776044e-02
  5.8955193e-01
  2.7969119e-01
  2.9694513e-04
 -1.1618533e-01
 -2.5072243e-04
 -2.2937918e-02
  7.1647480e-02
  5.7146358e-01
 -2.0330857e-02
 -5.6567412e-02
  8.7926546e-03
  3.0554116e-02
  4.7891888e-01
  1.5401681e-02
 -2.0809455e-01
  2.8792733e-01
  4.2076030e-01
  5.6523079e-04
  2.6416343e-01
 -1.5877847e-01
  1.7317948e-01
 -2.1108520e-01
  4.8134901e-02
  8.6038774e-01
  3.3162993e-01
  9.3171686e-02
  3.5571161e-01
  9.5367864e-02
 -6.5998048e-02
 -1.4477691e-01
  5.7083715e-02
  9.0170376e-02
  2.4543027e-03
 -3.8513917e-02
 -2.0637718e-01
 -6.7587189e-02
  3.0973348e-01
 -2.3901328e-02
 -1.2512115e-01
 -9.1075741e-02
  1.9367051e-01
  3.7447684e-02
 -5.2873980e-02
 -1.5679318e-01
  3.8360618e-02
 -2.5521154e-02
  4.9871288e-02
 -4.0308657e-01
 -2.4547747e-01
 -2.7022013e-03
 -4.1322067e-04
 -4.3188658e-05
 -1.0495499e-03
  4.2855293e-03
  1.9490879e-03
 -7.9793221e-04
 -1.3431400e-03
 -1.0985759e-04
 -3.2795806e-04
  2.8325468e-03
 -2.8767018e-03
 -4.4112964e-04
  2.1119772e-04
  4.4560325e-03
  2.9301343e-03
 -2.8957482e-05
  1.1740380e-03
 -1.0541854e-03
 -7.4308723e-02
 -2.1179295e-03
  1.2175794e-03
  9.8427839e-04
 -5.0909206e-04
  8.5002914e-02
 -5.1519829e-03
  5.8864849e-04
  1.8370488e-01
  3.5906711e-01
  5.7736552e-01
  3.2620361e-01
 -1.5461937e+00
 -1.7116177e-01
 -1.1320444e+00
  1.3751329e-01
 -3.2638624e-01
  1.6279499e-01
  1.2966870e+00
  4.0207252e-01
  4.3404958e-01
  6.1548489e-01
  1.1070660e+00
  6.3589448e-01
  1.1954887e-01
  1.4995588e-01
  3.4240341e-01
  5.9843880e-01
 -1.3831080e+00
 -6.0208619e-02
 -3.1637654e-02
  2.8799983e-02
 -9.0378410e-01
  2.6853867e-02
  3.0666627e-02
 -4.5086446e-01
  1.2291600e+00
  8.1681146e-04
 -2.3575811e-01
 -4.2461026e-01
 -1.0111549e-01
  1.1382774e-01
  2.1670997e+00
 -2.3188472e-02
  1.8622155e+00
  1.3194755e-01
  8.6571139e-01
  6.9001190e-02
 -2.9492757e-01
 -1.9447534e-01
  7.6436996e-02
  7.4272119e-02
  3.3383340e-01
 -1.1610942e-01
  1.0880034e-01
 -1.0911689e-01
 -1.5743710e-01
 -4.5320320e-01
  1.8718455e+00
 -1.0131624e-01
 -5.9094217e-02
  6.0238563e-02
 -1.1614154e-01
  3.2044029e-01
  1.0752669e-01
  1.3458525e-01
 -4.8391825e-01
 -1.1435796e-02
  6.5413153e-01
 -1.3412262e-01
  1.3433018e+00
 -7.0605218e-01
 -4.5714474e-01
 -6.3785797e-01
  6.7475504e-01
 -2.8897257e+00
 -9.7738242e-01
  1.3394469e-01
  7.0301473e-01
 -1.0460965e-04
 -2.2510654e-01
  2.2444366e-01
  2.0756760e-01
 -7.1477652e-01
 -1.3973306e+00
  8.2482425e-03
  5.3303885e-01
 -5.2841604e-01
  2.9035091e-01
 -6.1703843e-01
  1.7884068e+00
 -9.9470347e-01
  8.7716001e-01
  2.0766209e-03
 -5.2436775e-01
 -4.1632488e-01
  1.2139068e+00
 -1.5517223e-01
  7.4441701e-02
  4.1099489e-01
 -1.7964157e-01
  2.7682480e-01
 -6.2344193e-01
  1.1613231e-02
 -3.7232113e-01
 -1.1733439e+00
 -1.7968106e-01
 -2.2678901e-01
 -2.1769533e-02
  1.3441207e-01
  9.4633555e-01
  5.2649778e-01
 -5.9505332e-01
  1.2153216e-01
  3.8848615e-01
 -6.7391109e-01
 -2.9868329e-01
  6.0664260e-01
  1.9154474e-01
  7.7955788e-01
 -9.3618602e-01
 -5.8978295e-01
 -1.1897791e-01
 -5.3655964e-01
 -6.9380730e-02
 -6.9841397e-01
  5.1594186e-01
 -1.4685298e+00
  4.4297901e-01
 -5.4441994e-01
  1.7671731e+00
 -7.9010963e-02
  9.8015791e-01
 -4.5553938e-01
 -9.1589046e-01
  9.9401253e-01
 -1.3916419e+00
 -8.2555419e-01
 -1.4681139e+00
  1.6465095e-01
  2.4286632e-01
 -6.2718511e-01
  2.6938355e-01
  1.6077207e-01
 -9.3273707e-02
  8.9877295e-01
 -6.7865914e-01
 -4.5615250e-01
  9.9910063e-01
  2.8830013e-01
  2.5266868e-01
  4.6711606e-01
 -2.4385488e-01
 -1.0492979e+00
 -6.3690299e-01
 -1.3156843e+00
 -1.0997161e+00
  2.7083054e-01
  4.8667211e-03
  5.3556973e-01
  6.2892747e-01
 -8.9603227e-01
  1.0240387e+00
  1.3188501e-01
 -3.7855193e-01
  1.9697491e-03
  1.0252470e+00
 -8.7388080e-01
  8.8142353e-01
 -9.1010803e-01
 -2.9891107e+00
 -7.5397837e-01
 -5.0028032e-01
  8.7175322e-01
  5.3242248e-02
  4.9719852e-01
 -5.3543037e-01
 -9.5989865e-01
  3.3558434e-01
 -5.4085988e-01
  3.3981785e-01
  1.0725875e+00
  1.0985709e-01
  1.1383133e+00
 -6.0670245e-02
  8.4678012e-01
  1.5151781e+00
  4.9364507e-01
  8.5281730e-01
  6.8095541e-01
 -3.8568145e-01
 -1.3559246e+00
 -1.8019907e-01
  1.2220376e+00
 -2.4124953e-01
  2.8282836e-01
 -3.1870356e-01
 -4.1124201e-01
 -5.8625889e-01
  5.0803833e-02
 -1.1721072e-01
  3.3985028e-01
 -2.1037607e-01
  1.5121687e-03
 -3.0559134e-01
 -1.4063253e+00
 -2.4277510e-03
  1.1088977e-03
  3.0682817e-01
  7.3453158e-01
 -1.1619431e-01
 -2.1070664e+00
  1.1805543e-03
 -5.3244537e-01
 -6.1650264e-01
  2.8226140e-01
 -8.0577236e-01
 -3.1123507e-01
  6.3913459e-01
  2.9442927e-01
  1.5464166e+00
 -7.0418042e-01
  4.7638601e-01
 -1.6071796e-02
  2.7447201e-02
  9.9729216e-01
 -1.3966261e-01
  1.3319512e-01
 -5.1274747e-03
  2.7147937e-01
 -2.9623294e-01
  1.2361079e+00
  8.8292927e-01
 -1.1991365e+00
  7.4438208e-01
  8.3037429e-02
  1.7770411e-01
 -2.1182494e-03
  6.3858289e-01
 -9.4701350e-02
 -1.2086394e-01
  3.1522399e-01
  8.1811297e-01
  2.1638758e-01
 -5.0067955e-01
 -1.0801351e+00
  8.5585439e-01
  4.8384893e-01
 -9.2748529e-01
  4.5971528e-01
 -2.1171664e-01
 -4.1592976e-01
 -3.1743560e-03
  1.0824822e-01
 -8.4106922e-01
 -1.5803948e-01
  1.8609153e-01
 -6.6515923e-01
 -8.7671261e-04
 -1.3879277e-01
  9.8193777e-01
 -5.2647483e-01
  1.9387160e-01
  8.4465617e-01
  2.4746217e-01
  1.1034104e+00
  1.2727883e-01
  8.5975301e-01
 -6.3035971e-01
  7.1107566e-01
  1.3527496e-02
 -4.0862751e-01
 -9.8921800e-01
 -6.1518662e-02
  1.4394467e+00
 -2.5852364e-01
 -2.6640201e-01
  5.1951311e-03
 -7.8131223e-01
  1.4218338e-01
 -3.1105388e-02
  2.3974109e-01
 -1.7683178e-01
  9.7272635e-01
 -5.2744037e-01
  1.5462984e+00
 -7.3738998e-01
  9.3061179e-01
 -3.5254940e-01
  1.9960675e-01
  1.1307880e+00
  9.0169865e-01
 -4.3704277e-01
 -6.1912835e-01
  3.6378101e-02
  6.7790717e-01
 -3.6164561e-01
  6.4516503e-01
 -3.5961723e-01
  2.1957006e-01
 -1.1695933e-01
 -1.0776432e-01
 -2.6624691e-01
 -2.0370217e-01
 -2.7344683e-01
 -8.1067151e-01
 -6.9097382e-01
  8.1013298e-01
 -7.6903654e-03
 -6.4605743e-01
 -4.5588917e-01
  4.3745819e-01
 -2.1123302e+00
 -9.2057389e-01
  4.2693731e-01
 -3.5444148e-02
 -8.5964429e-01
  1.4028743e-01
 -3.7219128e-01
  4.5995989e-01
 -4.5759413e-01
 -8.0992800e-01
  1.0646346e+00
 -2.1530347e-01
  7.6384103e-01
 -1.4747732e+00
  6.7593143e-03
  8.8616151e-01
 -5.1538312e-01
 -1.4967072e-02
 -4.6451685e-01
  1.6980387e+00
 -3.8835611e-02
  3.7318441e-01
 -4.1858360e-01
 -2.7939293e-01
  2.1686606e-01
 -2.1811281e-01
 -2.2785398e-01
  1.2029715e+00
  2.4966329e-01
 -1.4840871e+00
 -2.2758467e+00
  4.4810528e-01
  4.0369543e-01
  6.8645591e-01
  5.1225626e-01
  4.1691062e-01
  2.1993403e-01
  2.1772933e+00
  1.2577829e+00
 -1.6517545e+00
  1.1903685e+00
 -5.6084413e-02
  2.0639078e-01
 -4.8353974e-02
 -7.5100845e-01
 -1.5964489e+00
  8.1734920e-01
  1.7097908e+00
 -3.5515866e-01
 -7.7370340e-01
 -4.8526675e-01
  4.5615450e-01
 -2.0823184e-01
 -4.6237264e-02
 -6.9474554e-01
 -2.0064344e+00
  6.5618426e-01
 -5.8900660e-01
 -2.5487692e+00
  5.0504369e-01
  6.4393997e-01
 -4.1081570e-02
 -3.3787641e-01
  6.8551844e-01
 -3.5263032e-01
 -9.4078684e-01
  4.9048084e-01
  9.1486657e-01
 -5.5745816e-01
 -2.0257370e-01
 -4.5773563e-01
  1.4056914e+00
  2.1779921e-02
  3.6264998e-01
 -1.3248248e+00
 -5.5049205e-01
  1.1239189e+00
  2.9796475e-01
  4.1718295e-01
  1.7103738e-01
 -3.4562600e-01
  7.5512087e-01
  4.2421094e-01
  1.9147243e+00
 -1.5032923e+00
 -4.5027259e-01
  1.1955378e+00
  4.7354087e-01
  1.4512186e-01
  3.6865419e-01
  7.3839867e-01
  2.2340070e-01
 -5.0300792e-02
  4.3479554e-02
  3.7498337e-01
 -2.0921937e-01
 -1.3222356e-01
 -7.9623997e-01
  4.6405512e-01
  9.2701755e-02
 -1.0591128e+00
  1.2354726e+00
 -1.6917493e+00
 -4.1093862e-01
 -7.2359842e-01
  6.8648756e-02
  3.2741469e-01
  1.4678922e+00
  1.8380009e+00
 -1.1195852e+00
 -2.5464669e-01
  1.6627228e-01
 -1.2779187e-01
 -3.1096670e-01
 -5.5780566e-01
  3.8690880e-01
  1.0829210e+00
  9.9591988e-01
 -2.0182607e-01
 -4.7998202e-01
 -2.2658937e-01
  2.9860896e-01
  2.3804022e-01
 -7.9649353e-01
  4.1093028e-01
 -5.1840687e-01
 -3.5485837e-01
 -3.3344406e-01
  1.7041877e-01
 -8.0184259e-02
  1.4174845e+00
 -2.3809036e-02
  1.5935928e-01
  1.2672366e-01
 -1.2750030e-01
  3.0503571e-01
 -1.2369744e-01
  7.1149170e-01
 -3.5282869e+00
  1.2816846e+00
 -7.2524375e-01
  8.4286344e-01
  1.5805984e-01
 -6.2549597e-01
 -1.0142822e+00
  2.9274786e-01
 -2.6900086e-01
  1.1117066e+00
  7.1869594e-01
 -1.4641520e+00
  5.9305513e-01
  7.4590124e-02
 -5.5549309e-02
  2.7521947e-01
  9.8925233e-01
 -9.1404527e-01
  4.8885576e-02
  7.5242692e-01
  4.7249469e-01
 -1.2403057e-01
  1.4015880e+00
 -5.2236873e-01
  8.3230197e-02
 -2.9370660e-01
  1.3387161e+00
  2.1761318e-01
 -2.0656784e-01
 -4.8004100e-01
 -9.3464941e-01
 -9.6579242e-01
  5.0338167e-01
  1.1404388e+00
 -7.5017856e-03
 -8.6835742e-01
  7.9696941e-01
  5.8141249e-01
  1.4650258e+00
  2.8534597e-01
  2.4621893e-01
 -6.8755245e-01
  1.3851663e+00
  3.6434218e-01
 -9.7136557e-01
  3.4218189e-01
  7.1177334e-01
 -1.2358106e-04
  2.6998803e-01
  4.1905519e-01
 -1.1046381e+00
  5.2490503e-01
 -3.3537942e-01
  1.0447780e+00
 -3.1199679e-01
  5.2791178e-01
 -4.0146357e-01
 -1.6671151e-01
 -1.3330294e-01
 -8.1707293e-01
  8.3799982e-01
 -7.0252043e-01
  4.4558603e-01
  3.3727705e-01
  1.3184294e-01
 -8.1745678e-01
 -4.5980796e-02
  5.1721877e-01
 -9.7184485e-01
 -1.2219881e-01
  3.8664833e-01
  1.0099313e-01
 -3.5109657e-01
  5.9761435e-02
  2.8169653e-01
  3.3438519e-01
  4.7165486e-01
  5.4447943e-01
 -3.5132292e-01
  7.3260254e-01
  6.0646808e-01
 -9.9159354e-01
 -2.7954847e-01
 -3.7568989e-01
 -4.6526272e-02
  2.2043155e-01
  1.1525035e+00
 -1.1397908e-01
 -5.4551822e-01
 -9.3407452e-01
  3.3459600e-02
  5.4107052e-01
  4.2774975e-01
 -8.1983596e-01
  4.6426158e-02
 -6.3621449e-01
 -1.7310557e+00
  2.3259613e-01
  3.6970621e-01
 -1.2463092e+00
  3.7103808e-01
  1.2305017e-01
 -8.7907828e-02
 -1.4973921e-01
 -1.5860785e-02
  1.7644306e-01
 -2.6073989e-01
  8.6120635e-01
  1.7905157e-02
 -4.9509846e-02
 -3.6973676e-01
 -6.3788867e-01
 -1.0048512e+00
  8.2367688e-01
  2.1190278e-01
 -2.2771780e-01
 -8.8041836e-01
  3.3353961e-01
 -1.8514445e-01
  6.9797114e-02
 -8.4472555e-01
 -2.2617756e-01
  7.3682618e-01
 -4.8239592e-01
  6.5257043e-02
  1.4427549e-01
 -1.1983024e-01
 -2.9474881e-01
  2.2983433e-01
  8.9653218e-03
  8.8227302e-01
 -5.5406338e-01
  2.8769198e-01
 -7.4254483e-01
  7.7010089e-01
  8.8675129e-01
  4.3740115e-01
 -3.4445712e-01
 -1.9526580e-01
  3.0229589e-01
 -7.8307790e-01
 -3.1115600e-01
 -3.2847229e-01
  1.8030450e-02
 -1.0443991e-01
 -2.2527318e-01
  1.8594800e-02
 -5.4731220e-01
  7.7475232e-01
  3.5414904e-01
 -1.3837810e-01
 -2.0892334e-01
 -9.7445065e-01
  7.4629569e-01
  6.0274523e-02
  9.2156410e-01
 -6.9876909e-01
  3.5698700e-01
 -2.4268156e-02
  3.5387207e-02
 -1.1046385e+00
  6.7667091e-01
  1.5414129e+00
 -9.1579705e-01
 -2.3810636e-01
  1.7365826e+00
 -1.8840008e+00
 -5.6202286e-01
  2.5596052e-01
 -1.4876422e+00
 -4.5122033e-01
  8.5592055e-01
  1.0294766e+00
  4.6501580e-01
  5.4391545e-01
  4.5293701e-01
 -5.3608215e-01
 -2.6427713e-01
 -1.0526570e+00
 -5.2689004e-01
 -4.9720001e-01
 -2.3148593e-01
 -3.5269034e-01
 -9.6072179e-01
  3.1450653e-01
  5.2394485e-03
 -5.1604295e-01
 -4.8770374e-01
 -6.1789054e-01
  2.4523069e-01
 -1.5171357e+00
  6.8865252e-01
  5.9498107e-01
  3.4133452e-01
 -5.9440243e-01
 -9.5046753e-01
 -7.8897744e-01
  1.0446355e+00
  1.7111490e+00
 -2.4546310e-01
 -1.4518681e-01
  1.4986529e+00
 -1.8917900e-01
  1.8355936e-01
  8.8525385e-02
 -7.1414396e-02
 -1.1696756e+00
  1.1232455e-01
 -1.3151665e-03
 -1.4122518e+00
  3.4115037e-01
  7.8811407e-01
  1.8551708e+00
  5.1022655e-01
  7.8478843e-01
 -2.0233574e+00
  3.1760257e-01
  1.1144065e+00
  1.7012742e+00
  7.2136176e-01
  1.9126831e-01
  1.5413824e+00
  2.5330213e-01
 -1.1494540e+00
  6.3607149e-02
  3.2502896e-01
 -9.7151250e-02
 -1.7716870e-01
  5.0239271e-01
 -8.7085627e-03
 -7.7553797e-01
 -3.5075407e-02
 -1.6998627e+00
  4.3711376e-01
 -1.1037070e+00
  8.1980020e-01
 -1.3014144e+00
  4.2718565e-01
  3.4487817e-02
 -4.8564789e-01
  6.9204348e-01
 -3.0857110e-01
  1.7910497e+00
  7.7710688e-01
 -1.2926079e-01
  1.7802943e-01
  1.1102206e+00
 -8.6013389e-01
 -1.6677462e-01
 -2.6023708e-02
 -6.4930654e-01
  2.2552122e-01
  3.6988604e-01
  1.3213164e+00
  7.8577811e-01
 -7.3880138e-04
  2.5550774e-01
  4.3591136e-01
 -5.5177492e-01
  1.2835107e+00
  1.7385023e-02
 -9.0450156e-01
  3.2108697e-01
  5.5845952e-01
  2.1268454e-01
  8.3340770e-01
  1.5712775e-01
 -1.8102007e-01
  6.5948457e-02
 -4.1066238e-01
 -1.6733038e-01
 -1.8305796e-01
 -1.0692232e+00
  1.8394179e+00
  4.1290814e-01
  9.1425143e-02
 -2.1862868e-02
 -1.0470421e+00
 -1.3203703e-01
  1.8160149e+00
 -3.1292558e-01
 -9.9821907e-01
 -5.6113356e-01
 -4.9633625e-01
  3.0832338e-01
 -3.0350214e-01
 -1.7276275e-01
 -4.6440023e-01
 -6.4226490e-01
  8.9620155e-01
 -7.3725110e-01
 -3.8509730e-01
  4.7465664e-01
  8.6589932e-01
  1.4270097e+00
 -2.1351324e-01
 -1.3000090e+00
 -2.7179244e-01
  8.3689284e-01
  4.8695073e-01
 -9.9433744e-01
 -1.7380409e-02
  1.2957938e+00
  3.2451624e-01
 -2.9355010e-01
 -7.9193783e-01
 -3.3122666e-02
  5.9063417e-01
 -7.0014864e-01
  8.2161170e-01
 -6.4832413e-01
  5.1289600e-01
  5.0599772e-01
  6.9389030e-02
  9.4003427e-01
 -9.4638789e-01
 -3.7639678e-01
 -4.0213242e-01
  8.1970936e-01
  6.0035515e-01
  5.8536544e-02
  1.3318430e-02
  4.5530728e-01
  1.2720925e-01
  7.7592738e-02
 -9.1060042e-02
 -2.7867231e-01
  5.0640378e-02
 -1.7891125e-01
 -4.7910810e-02
  6.8365085e-01
  2.7750513e-01
  7.8942262e-02
 -2.6077700e-01
 -4.5441708e-01
  1.8675509e-01
  8.8092506e-02
 -1.6609509e-01
 -2.8278613e-01
  2.2132180e+00
 -5.0348407e-01
  2.2682305e-01
  9.4880891e-01
 -9.3120016e-02
 -5.5583668e-01
  1.8753773e-01
 -5.7229853e-01
 -3.3962697e-01
  8.7009788e-01
 -4.5004141e-01
  4.0915951e-01
 -8.3619905e-01
  1.9977381e-02
  1.2788184e+00
 -9.6144326e-02
 -6.4833832e-01
  6.4743686e-01
  1.3053079e+00
 -2.3317000e-01
 -1.3764119e-01
  1.4437081e+00
 -1.0911579e+00
  5.9273744e-01
 -7.0471042e-01
  2.2066475e-01
  4.7286549e-01
  4.6145654e-01
 -1.9856833e-01
  1.4400958e-01
  5.7090175e-01
  2.5982758e-01
 -4.2514157e-01
  2.8802385e-03
  4.1548839e-01
 -2.2662984e-01
  6.7273349e-01
 -3.3843750e-01
  1.6091388e+00
 -5.2892452e-01
  4.6649247e-01
  5.9359884e-03
 -5.3526086e-01
 -5.6085736e-01
  5.3201246e-01
  1.4815203e+00
 -2.2810350e-01
  5.2767313e-01
 -6.5764385e-01
 -5.9427038e-02
  2.7447563e-01
 -7.7551335e-01
  7.9860687e-01
  9.8326528e-01
  3.1057554e-01
  9.5771171e-02
 -5.9097278e-01
  8.8638294e-01
 -5.7825184e-01
 -6.8540806e-01
 -1.6145863e-01
 -1.1269983e-01
  9.5710945e-01
 -2.9788211e-01
 -1.5433559e-01
 -1.7575881e-02
  1.1339477e+00
  8.0128238e-02
 -8.2266313e-01
 -2.2326867e-01
  1.8390204e-01
  4.6804604e-01
  3.4215972e-01
  1.6399864e+00
 -1.0276558e+00
 -1.6756564e-01
 -6.4141773e-02
  3.8640475e-01
 -6.1543316e-01
 -1.1252053e-01
  1.1414165e+00
 -3.9106897e-01
  3.1258410e-01
 -3.9188164e-01
  7.2875857e-01
 -4.5185219e-02
  1.9174980e-01
 -7.0256317e-01
 -3.2603401e-01
  5.7298880e-02
  1.9756757e+00
 -8.0827081e-01
 -1.1454028e-01
 -2.1631598e-01
 -4.0096445e-03
 -1.1625093e-01
 -9.0015866e-03
 -1.9327210e+00
 -4.7820079e-01
 -4.8384911e-01
 -8.6134517e-01
 -9.5314246e-01
  7.2248870e-01
  1.8040619e+00
  1.2023417e+00
  7.4605149e-01
 -1.5632266e+00
  3.3407030e-01
  2.4446946e-01
  1.5945309e+00
 -8.4530807e-01
 -4.6652067e-02
 -3.2672852e-01
 -1.1537031e+00
  7.9725258e-02
 -4.7166237e-01
 -1.6048859e+00
  5.3667027e-01
 -1.3213009e+00
  1.2433996e-01
 -8.5303336e-01
  1.6907586e-01
  1.5419133e-01
 -4.3038097e-01
 -1.4988956e-01
 -3.3841899e-01
  4.3080339e-01
  3.0581331e-01
  2.8449106e-01
 -1.2761085e-01
  1.4314148e-01
 -3.1407198e-01
 -1.9776006e-01
 -1.0001584e-01
 -4.1624680e-01
 -3.3908576e-01
  6.7562801e-01
 -7.4529392e-01
 -9.5264393e-01
 -1.0864446e-01
  1.0789584e-01
 -5.4378951e-01
  1.8724744e-01
  2.0342493e-01
  1.4999731e-01
  1.2965293e+00
  3.0161923e-01
 -8.6802953e-01
  2.2578323e-01
 -1.0585353e+00
 -2.3247263e+00
 -2.0211722e-01
  3.7420554e+00
  5.8823168e-01
  1.5700253e-02
 -2.3296180e+00
 -1.5133173e+00
  1.2381336e-01
 -3.0097809e+00
 -8.2267541e-01
  6.2087822e-01
 -7.4753605e-02
 -2.4492977e-02
  2.2866926e+00
 -6.3909447e-01
 -2.4918553e-01
  3.0526853e-01
  4.5430213e-01
  1.0340070e+00
  3.5993388e-01
 -9.1875631e-01
 -1.9672407e+00
 -1.6726863e-01
  5.9642112e-01
  5.1558810e-01
 -4.6772018e-01
 -1.3027859e-01
  2.6245487e+00
 -1.0781113e+00
 -1.0597354e+00
 -1.1814944e+00
  1.1870534e+00
  5.6836945e-01
 -2.8667593e-01
  3.7435603e-01
 -3.5198161e-01
  2.2993205e-01
  8.2595366e-01
  7.4746025e-01
 -2.3941641e+00
  1.3619152e+00
  7.1391690e-01
 -1.3856636e+00
 -5.5443066e-01
 -8.1133622e-01
  1.6363548e+00
 -4.8685437e-01
  6.6735739e-01
  1.5015899e-01
  2.1814188e-01
 -7.7492923e-01
 -1.8323940e-01
 -1.2615141e+00
  8.4442014e-01
  4.4076589e-01
  6.3978010e-01
 -5.5928928e-01
 -2.4552555e-01
 -1.4397420e+00
  8.3806831e-01
  7.1228422e-02
 -1.6747235e-01
 -1.0804429e-01
 -9.1896498e-01
  5.7449770e-01
  8.2623786e-01
 -6.6800052e-01
  4.9090639e-02
 -2.4212003e-02
 -2.9868746e-01
  5.6090051e-01
 -3.9091092e-02
 -6.0511917e-01
  1.7428231e-01
 -1.0369269e+00
  4.2585975e-01
  4.8710924e-01
  2.8555092e-01
 -4.6010372e-01
  8.9171886e-01
  2.5841600e-01
  1.2400248e+00
 -1.3865139e+00
 -1.1016922e+00
  2.1757584e+00
  1.6247548e+00
  4.5858002e-01
  1.3849159e-01
 -1.0089881e+00
  6.6982609e-01
 -7.0831060e-01
 -6.7162675e-01
 -5.7692438e-01
 -1.0971095e-01
  8.2688969e-01
 -1.9035789e+00
  2.0649168e-01
 -1.9687414e-02
 -1.4308407e+00
 -1.3521481e-01
 -8.1925607e-01
 -5.8357406e-01
 -1.7588492e-01
 -3.2367632e-01
 -1.5601698e+00
 -1.5881542e-02
  1.4396683e+00
  2.6686421e-01
 -1.5299264e+00
 -5.8394563e-01
  1.3737228e+00
 -2.0536914e+00
 -2.2856592e-01
 -1.1748044e+00
  6.0294956e-01
 -1.7798194e+00
 -6.3897288e-01
  1.5747118e+00
 -4.6482779e-02
  3.4380937e-01
 -1.2730375e-01
  4.9703751e-02
  1.5449530e+00
 -4.7075234e-02
  3.5712519e-01
  2.4875574e+00
  2.9378501e-01
 -1.5767289e+00
 -5.6057715e-01
  4.6685789e-02
 -7.0498541e-02
  9.1135734e-01
 -3.1772587e-01
  3.0631378e-01
 -1.8014391e-01
  2.4842975e+00
  8.9897501e-01
 -7.1917826e-01
  3.8407308e-01
  1.5355108e+00
  2.5561088e-01
 -6.2889806e-03
 -3.5211402e-01
  5.9600961e-03
  1.8811126e+00
  1.2234058e+00
  1.5494686e+00
 -6.2384433e-01
 -4.9859643e-01
  1.1174504e+00
 -1.1724718e+00
 -1.0075359e+00
  5.7122093e-01
  2.0445445e-01
  1.6432631e+00
  2.0535815e-01
 -1.3306040e+00
  7.3524809e-01
  4.6446687e-01
 -5.2976966e-01
  1.1062527e+00
 -1.1966135e-01
  5.3212821e-01
  1.7972548e-01
 -6.3624400e-01
  2.2262826e+00
  5.4678088e-01
 -3.0124015e-01
 -4.3434405e-01
  4.1374528e-01
  3.8773227e-01
  2.4287374e-01
 -1.5091494e-02
 -7.2568464e-03
  3.6631832e-01
 -1.0533596e+00
  2.0054650e+00
  4.1874096e-01
  5.3782058e-01
 -1.1476135e+00
  2.0651373e-01
  6.8429655e-01
 -1.1638595e+00
 -9.1501224e-01
  8.1616831e-01
  1.1428515e-01
  2.1744536e-01
  5.2742326e-01
  6.3816279e-01
  1.2585008e+00
 -3.3258051e-01
 -3.9604810e-01
  5.7350707e-01
 -6.5154874e-01
  5.6608719e-01
 -3.8107333e-01
 -3.8826427e-01
 -2.2488822e-01
 -4.5874876e-01
  1.5625373e-01
  7.1356133e-02
 -2.2357790e-01
  7.9546165e-01
 -3.3907595e-01
 -2.7046287e-01
  6.1750972e-01
 -5.9284902e-01
  4.7230151e-01
 -8.0112630e-01
 -1.3425828e+00
  1.1154991e-01
 -1.1588299e-01
 -1.8584042e+00
 -3.7897184e-01
  1.0067850e+00
  4.0861908e-01
  8.0639087e-03
 -1.3772756e-01
  2.7341789e-01
  5.8874172e-01
 -3.4032097e-01
 -7.5608909e-02
 -4.8014276e-02
 -7.0582367e-02
  7.8676456e-01
 -1.9829902e-01
  1.1721391e-02
  1.2208295e-01
 -5.7550550e-01
 -5.0854884e-02
 -4.4946882e-01
 -1.6747983e-01
 -1.0093403e+00
 -9.6536493e-01
  7.6795287e-02
  4.2300820e-01
  6.5804534e-02
 -4.0635008e-01
  9.4824925e-02
 -4.3193236e-01
  5.3271890e-02
  8.3835900e-02
 -1.4906048e+00
  1.1198604e+00
  4.8587573e-01
 -1.0580261e-01
 -5.3281820e-01
 -1.6313659e-01
  5.0449524e-02
 -4.0924346e-01
  1.7405905e+00
 -1.1684271e+00
  2.4103087e-01
  1.0724679e+00
 -2.2626017e-01
 -4.9075666e-01
  1.2365023e+00
 -6.6305059e-01
  2.3993635e-01
  1.9149312e-01
 -9.0806119e-02
  1.9660995e+00
  5.0129420e-01
 -7.0537001e-01
  3.8050303e-01
 -4.8873931e-02
 -1.5247930e+00
  4.2048726e+00
 -4.0230092e-01
  1.4104550e-01
 -2.6914129e+00
  8.9803153e-01
  1.7882174e-01
  1.5933511e-01
  7.1735698e-01
 -8.7251437e-01
 -4.7687078e-01
  4.9157995e-03
  4.4075814e-01
 -1.0295554e+00
  1.2231599e+00
  5.4511424e-02
 -4.4953632e-01
 -2.6375340e-02
 -1.1383051e-01
 -1.7968030e-01
 -9.0929770e-01
  4.3440646e-01
 -3.7130687e-01
 -7.2990335e-03
 -2.9377082e-01
 -1.3048680e+00
  1.3682532e+00
 -1.0451907e-01
 -2.1016343e+00
  2.2367523e+00
  4.3306881e-01
 -1.0468074e+00
  2.9219589e-01
  9.9828653e-02
  1.1020504e+00
 -7.6279193e-01
  7.3793328e-01
 -7.5312805e-01
 -3.9856327e-01
  5.1718694e-01
 -2.6366076e+00
 -4.9372956e-02
  1.2786250e-01
  6.3269007e-01
 -6.0158473e-01
 -6.8582201e-01
 -2.2394550e-01
  1.2559105e+00
  1.3156246e+00
  3.4680626e-01
  1.3187362e+00
  4.1505970e-02
 -6.1876464e-01
  2.2024896e+00
 -7.0205992e-01
 -2.5162950e-01
  2.2694890e+00
  8.5508162e-01
 -2.4968863e-02
  2.0092037e+00
 -5.0217606e-02
 -7.6713458e-02
  1.0910170e+00
  3.7217066e-01
  1.4510989e+00
  1.6542292e+00
 -1.3470523e+00
  2.4551649e-01
  4.1268188e-01
  3.2397881e-01
  1.2803019e+00
  2.2517568e-02
  1.8808825e-02
  1.5398716e+00
  7.8802830e-01
 -2.6737206e+00
  6.1038202e-01
 -3.5656270e-01
  1.0611656e+00
 -1.0003986e+00
 -5.4828066e-02
  3.1850180e-01
 -1.3174518e+00
  1.7183812e+00
  5.2396500e-01
  2.6464801e+00
 -8.0685729e-01
  1.5633786e+00
 -1.2602279e+00
 -2.2205295e-01
  2.3153776e-01
  1.6782981e-01
 -2.3326565e-01
 -8.0462348e-01
 -2.0801209e-02
  1.7080161e-01
  8.4861094e-01
  4.5519498e-01
 -9.6732366e-01
  5.0344867e-01
 -2.3866189e+00
  3.5654044e-01
  4.6260318e-01
 -1.8909590e+00
 -6.4957333e-01
  3.3980030e-01
  5.8464974e-01
 -3.1232125e-01
 -5.2243650e-01
  3.6548162e-01
  1.3901631e+00
 -5.4148102e-01
 -3.7550801e-01
 -7.0323062e-01
 -6.7321634e-01
  4.2088124e-01
  5.2417314e-01
  1.8106997e-01
  1.3911291e+00
  1.3937638e+00
 -7.8817151e-02
  7.5304705e-01
 -1.8690310e-01
  9.0366915e-02
 -1.1829569e-02
  1.1006033e-01
 -1.5063592e-02
 -1.6761453e-01
 -4.8179406e-01
 -6.4755380e-01
 -3.3142897e-01
  1.0138311e+00
 -8.3781737e-01
 -2.2028513e+00
  3.4244648e-01
  2.0462434e-01
  2.4489036e+00
 -1.4875649e-01
 -9.2895514e-01
 -1.0760775e+00
  1.4812380e-01
  1.1219311e+00
  2.0626030e+00
  4.9928583e-02
 -3.6324355e-01
  1.1842802e+00
  2.0621840e-02
  8.9648551e-01
  2.2135554e-01
  2.6402218e-02
 -2.0829244e-01
 -7.6688558e-02
 -1.7032304e+00
  2.9811573e-01
 -1.6165062e+00
 -2.1358238e-01
  1.0993012e-01
  1.2030864e+00
 -9.2333800e-01
  2.8887904e-01
 -3.0435312e-01
 -1.1678195e+00
  6.3965338e-01
 -3.1328073e-01
 -1.9351520e-01
 -1.1706113e+00
  8.2812005e-01
  1.4040424e+00
  1.0276290e-01
  1.0978955e+00
  1.2895797e+00
 -3.1076172e-01
 -1.8272409e-02
 -9.1599000e-01
 -1.5815418e+00
 -1.3494231e+00
 -9.5378840e-01
 -7.4116129e-01
  7.5522864e-01
  1.9856599e-01
  4.0782154e-01
 -7.2044738e-02
  9.4715439e-02
 -2.3431829e-01
  6.1318851e-01
 -2.9153192e+00
 -8.7922245e-02
 -3.8513053e-02
  1.2052221e-01
  1.2639509e+00
 -4.5394775e-01
  6.8333340e-01
 -2.0772226e-01
 -2.1286559e+00
 -9.4609165e-01
  2.5355470e-01
  3.9062579e+00
 -4.2899055e+00
  5.1008070e-01
 -3.9940599e-01
  3.4922231e-02
  6.2813330e-01
 -1.0945502e-01
  2.4085188e-01
  1.9095262e+00
  1.9497104e+00
  3.9353240e-01
 -7.5986606e-01
 -2.0311441e+00
  3.1918359e-01
 -4.1394502e-01
 -7.3204994e-01
 -5.7267046e-01
 -7.9903769e-01
 -1.1229591e-01
  6.1453581e-01
 -6.3150603e-04
 -2.4553940e+00
 -8.1737643e-01
  6.1537516e-01
 -2.4110775e-02
  1.9611278e-01
  1.1394347e+00
 -3.0902430e-01
  1.8569265e-01
  2.5794557e-01
 -4.0861890e-01
  6.7368561e-01
  4.8972028e-01
  1.9639574e-01
 -7.4715924e-01
 -5.8595026e-01
 -6.3757271e-01
 -3.0830644e-02
  2.8309810e-01
 -3.2125172e-01
  3.1025761e-03
  5.4811905e-03
 -5.4855561e-01
 -2.2682051e-01
 -1.4687681e-01
  1.2111842e-02
  1.1473165e-01
 -6.1520766e-02
 -7.1067132e-02
 -2.1501970e+00
  3.2877645e-01
  6.4674497e-01
  2.5796175e-01
  3.1814918e-01
 -2.2510482e-01
 -1.4771637e-01
  3.1767502e-01
  1.8159746e+00
 -4.1690835e-01
  1.7432152e-01
  4.8204426e-02
  1.1822946e+00
  8.2057709e-01
 -3.3876088e-01
  1.0126810e+00
  7.9716182e-01
  7.2952414e-01
 -6.1501367e-03
  3.8824633e-02
  2.6893938e-01
 -6.0026324e-01
  2.0020092e-02
 -6.4226681e-01
  3.4655526e-01
  6.4515695e-02
  1.1398228e-01
  2.8971970e-01
  6.5419561e-01
 -1.2368987e+00
  1.4187520e+00
 -1.3123689e+00
  5.2536070e-01
  1.3098160e+00
 -4.3691763e-01
  1.2307253e-01
  3.3776176e-01
 -1.0402552e+00
  2.8722000e-01
 -6.5426327e-02
  9.8918295e-01
 -1.0523852e-01
  2.4726801e+00
  1.8387081e-01
  7.8002197e-01
  1.3660026e+00
 -1.3007630e-02
  8.1730381e-02
 -5.2323643e-02
 -2.1711320e-01
  4.0861717e-01
  9.9255471e-03
  9.0658766e-01
  1.1585076e+00
  1.3575593e-01
  1.5847462e+00
 -5.5888897e-01
 -2.4608941e-01
 -7.3917574e-01
 -8.5642374e-01
 -4.2645454e-01
  2.5023976e-01
 -4.0950763e-01
  6.4556909e-01
  6.2235755e-01
  1.8309467e+00
  1.1463923e-01
  1.5207297e+00
  2.0485904e+00
  1.6382780e+00
  1.1779872e+00
  3.0451875e+00
 -1.7880374e+00
 -1.4456148e+00
  2.3231285e+00
  3.2809141e-01
  1.8044318e+00
 -6.0048306e-01
 -1.7496123e+00
  4.3516672e-01
 -6.5390331e-01
  3.8859317e-01
 -9.1662359e-01
 -1.3519648e+00
 -9.8764592e-01
 -1.1861420e-01
 -6.9692338e-01
 -6.0359597e-01
  1.1083084e+00
  6.0937458e-01
 -1.0439851e+00
 -3.4548190e-01
  5.8896148e-01
 -7.2884536e-01
 -7.2959077e-01
  8.5128468e-01
  3.1378824e-01
  8.7334400e-01
  1.3982891e-01
 -3.3175191e-01
  7.6596689e-01
 -3.5486439e-01
 -1.5869642e+00
  1.1006165e+00
  1.4279004e+00
 -8.2600546e-01
  1.2965927e-01
 -9.1836536e-01
  1.3411002e+00
 -7.9309005e-01
  3.1237063e-01
  1.2485172e+00
 -1.3124020e-01
  2.9165233e-02
  9.9116683e-01
  8.8681495e-01
 -5.0503576e-01
 -7.6593274e-01
 -2.7078667e+00
 -2.0460687e+00
 -3.0248657e-02
 -1.6923784e+00
 -8.0713737e-01
 -1.5621598e+00
  2.9280925e-01
  1.4870613e-02
  8.0776727e-01
 -2.2956066e+00
  7.6500766e-02
  4.3356791e-01
  6.9447227e-02
  4.3102372e-01
 -2.1701120e-01
  2.3990369e+00
 -1.0364017e+00
  1.0718368e-01
 -1.2280346e+00
  6.5584713e-01
 -1.4714164e-01
  6.1289382e-01
 -7.2481930e-01
  3.9169895e-03
  2.9775545e-02
  1.0118224e-01
 -1.3454050e+00
 -4.9516502e-01
 -1.4083210e+00
 -1.1725165e+00
 -1.7244989e+00
 -2.4336015e-01
  2.6933265e-01
 -4.4345167e-02
  1.2220253e+00
 -3.2622245e-01
  7.8288399e-02
 -3.1052694e-01
 -1.1019347e+00
  1.4149569e-02
 -4.3519920e-01
  6.4716852e-01
  1.3668278e-01
 -1.2899458e+00
  1.5071478e+00
 -4.6622309e-01
  2.0400839e-01
 -1.1045187e+00
  7.5716221e-01
  9.4971880e-02
 -4.0511664e-02
  9.5627308e-01
  2.2969577e-01
  8.2417911e-01
  5.1817298e-01
 -6.8889284e-01
  6.7568511e-01
 -1.5612417e-01
 -1.6294838e+00
  4.3638554e-01
 -6.6447407e-01
 -1.7197886e-01
 -1.3462267e+00
  6.2356186e-01
 -7.7060819e-01
 -7.2985882e-01
 -2.6865250e-01
 -8.2537377e-01
 -2.3340355e-01
 -6.3785428e-01
 -1.9758170e+00
  2.8131983e-01
 -1.3337085e+00
  8.2349449e-02
  9.5740110e-01
 -6.3046741e-01
  1.2032140e+00
  3.1312335e-01
  6.8272516e-02
 -2.3397340e-01
 -3.3918804e-01
  2.6804143e-01
  3.0394906e-02
  6.6134110e-02
 -4.5617968e-02
 -1.3092211e-01
 -7.2467789e-02
 -4.8786446e-01
 -6.9967121e-01
 -1.1411104e-01
  2.3503369e-02
  8.8484921e-02
 -1.1400623e+00
 -1.1890998e-01
 -2.4308738e-01
 -2.6238361e-01
  1.1618927e+00
 -4.9097082e-01
 -5.9623647e-01
 -1.7325273e+00
 -2.5865526e+00
 -9.9426740e-01
 -2.7267569e-01
  2.5955474e+00
  2.2623128e-01
 -1.3043498e+00
 -2.3234268e-01
 -4.2487833e-01
 -4.7189328e-01
  3.2132560e-01
 -5.4587261e-03
 -4.5154071e-01
 -7.6203418e-01
  5.4757118e-01
  3.4508699e-01
 -2.9480553e-01
 -1.4107089e-01
 -3.0839419e-01
  7.4990518e-02
 -1.2185207e-01
 -2.5885451e-01
  3.6865523e-01
 -6.9492787e-01
  5.0130498e-01
 -4.2871594e-01
 -4.0930080e-01
 -1.4343598e+00
  1.4778037e+00
  2.3388426e+00
  1.3292056e-01
 -9.7015905e-01
  1.6271313e+00
 -1.8301303e+00
  2.6740737e+00
  9.7337168e-01
 -2.0764599e+00
 -5.6216794e-01
  4.3419275e-01
 -1.3502475e-02
  4.6859034e-03
  6.4968944e-01
 -6.4592415e-01
 -1.0850744e-01
  2.2622228e+00
 -8.8140804e-01
 -2.1592760e-02
 -1.4539753e+00
 -1.9414933e-01
 -3.5735643e-01
  3.3549051e+00
 -1.8458496e-01
 -6.6701978e-02
  1.3012512e-01
  2.6397645e-01
  1.0689065e+00
  1.6015071e-01
 -8.8100588e-01
 -6.1842698e-01
  1.9708405e+00
 -1.2319269e+00
 -1.2461016e+00
 -1.0665537e+00
 -9.2668891e-01
 -2.1286523e+00
  7.9206419e-01
  1.0474042e+00
 -9.4707441e-03
  1.4346116e+00
  1.7677808e+00
  8.6037563e-03
  4.8666384e-02
  1.8439387e-01
  5.7506639e-01
 -8.3977425e-01
  1.6573329e+00
 -5.4276830e-01
  1.1272831e+00
 -6.6032398e-01
  3.5418853e-01
  1.1437191e-02
  1.2982849e+00
 -1.6259887e+00
 -1.6910622e-01
 -5.4010570e-01
  5.6691688e-01
  1.7924312e-01
  5.5905032e-01
  2.9188475e-01
 -1.2465371e+00
 -9.2116529e-01
 -2.3985279e+00
 -9.0353541e-02
 -1.3424358e+00
  8.3086818e-01
 -8.3471894e-01
 -3.6697325e-01
  1.3283962e+00
 -1.7178541e+00
  5.5185694e-01
 -1.6826533e-01
  6.7317343e-01
  3.7484981e-02
 -2.5434375e-01
 -1.3619766e+00
  1.7183442e-01
  5.0281301e-02
 -1.5472735e+00
 -1.6301949e-01
  4.5501089e-01
 -1.2912726e+00
 -2.2569697e-01
 -1.7123483e+00
 -8.3766168e-01
 -7.7413857e-01
  2.8653049e-01
 -1.6947933e-01
  3.5052830e-01
 -7.3733532e-01
  8.6071080e-01
  1.3443613e-01
 -1.2070742e-01
  2.3239525e-01
  4.6687278e-01
 -1.3758823e+00
 -4.1691872e-01
 -1.0477390e+00
 -1.9360349e-01
  3.6874136e-01
 -4.0501720e-01
  4.5793959e-01
  5.3540248e-01
 -1.2632750e-01
  4.5506603e-01
 -4.5724565e-01
 -2.6850957e-01
  9.1338068e-01
 -7.0972145e-01
  1.2958946e+00
  4.7854966e-01
  7.6585904e-02
  8.2922781e-01
  7.9460996e-01
  1.5568436e+00
  1.0444055e+00
 -1.9918494e-01
 -7.7102166e-01
 -1.1262186e-01
 -1.9056331e-01
 -6.7514658e-01
  8.1192631e-01
  9.7297490e-01
 -1.4553772e-01
  2.6152578e-01
 -7.9117805e-01
 -5.5067158e-01
 -1.4054083e+00
  8.4507540e-03
 -2.0684428e+00
  4.7266582e-01
  4.2143166e-01
 -1.4937204e+00
 -1.1412338e-01
 -9.7095805e-01
 -8.9693469e-01
  1.9746554e-01
 -7.0317155e-01
  3.9074007e-01
  6.3003562e-02
 -1.3788797e+00
 -1.4280698e-01
 -2.7876258e-01
 -1.1345462e-01
 -3.2587409e-02
  8.0328196e-01
  5.8848840e-01
 -4.8100582e-01
  4.7185573e-01
  1.5174747e-02
 -4.3440557e-01
 -5.8962220e-01
  2.3859486e-03
  1.4098559e-01
 -8.6298800e-01
 -1.0804826e+00
  6.0315326e-02
  8.1744838e-01
 -1.2407796e+00
  1.5673207e+00
 -6.6193986e-01
 -7.2079170e-01
 -1.5824126e-01
  4.0472028e-01
  8.0269152e-01
  9.7582281e-02
 -3.6610466e-01
 -4.6000995e-02
  5.6562579e-01
 -1.1244498e+00
 -2.0717785e-01
  8.8125682e-01
  3.4955195e-01
  7.5749308e-01
  6.8488902e-01
 -2.0347395e+00
  3.6120234e+00
  4.1348018e-02
  3.0824885e+00
 -4.3031624e-01
 -3.4051880e-01
 -9.1944152e-01
  7.9153523e-02
 -6.9545221e-01
  1.2919343e+00
  9.7468549e-01
 -5.6402200e-01
 -1.2502445e-01
 -1.5786093e+00
  5.7687932e-01
  1.9356813e-02
  3.4706585e-02
  8.9485824e-02
  1.4521656e+00
 -4.7826150e-01
 -1.7285670e+00
  1.6023234e+00
 -8.0889618e-01
  2.6705742e-01
 -1.8353008e-01
  7.2566307e-01
  3.3205035e-01
 -2.8252569e-01
 -1.9760592e-02
  1.2454472e-01
  2.0993489e-01
 -5.0765294e-01
  4.5298463e-01
 -1.3915968e+00
 -2.7876368e-01
  2.9282054e-01
 -2.9965663e-01
 -1.2342294e-02
  1.3520041e+00
 -1.8461893e+00
 -3.6800960e-01
  8.1727099e-01
 -6.9341257e-02
  2.2707504e-01
  1.1870220e+00
 -3.2664633e-01
 -9.4443661e-01
 -2.4983829e-01
 -4.0212777e-01
  1.3317044e+00
  2.1045989e-01
  2.2612734e+00
  9.3717802e-01
 -2.8550906e-02
 -1.0444603e-01
  2.2388887e-01
 -1.1457361e+00
  3.8836858e-01
 -1.7682185e+00
 -1.0996033e-02
  5.8635473e-01
 -1.0298647e+00
 -2.0326635e-01
  6.9945157e-02
 -1.8779612e-01
 -6.7123175e-01
 -5.5612993e-01
 -2.1379577e-02
  3.7654608e-01
  2.1209276e-01
 -5.9531158e-01
  5.0433379e-01
 -3.9193445e-01
  1.0876008e+00
  7.1861511e-01
 -2.5283988e-03
 -1.8326132e+00
  3.8602325e-01
  8.9232260e-01
 -2.7401365e-02
  8.6773372e-01
  9.9919593e-01
 -1.2187164e+00
 -1.7993668e-01
  1.6920213e+00
  3.4472287e-02
  3.6714965e-01
 -1.0491405e+00
 -4.6646780e-01
  1.0639440e+00
 -8.3838683e-01
 -6.8586600e-01
 -1.2629434e-01
 -1.1522879e-01
 -7.5531286e-01
 -1.4720076e+00
 -7.1814448e-01
 -3.9024314e-01
 -4.6466905e-01
  4.5256823e-01
 -9.1066770e-02
 -1.7147254e+00
  1.2387682e+00
 -1.1376644e+00
 -9.7754985e-01
  4.3844947e-01
 -2.9790798e-02
 -4.3038104e-02
  8.7354493e-01
 -4.2885661e-02
 -2.5356406e-01
  6.0428306e-04
 -1.9526657e+00
  2.6839538e-03
 -2.4903445e+00
 -3.1294277e-01
  5.7663864e-01
 -1.0351615e+00
  4.2579198e-01
 -1.6368977e+00
  1.5968409e+00
 -1.8567168e+00
 -4.2565575e-01
  6.1242485e-01
  2.8833777e-01
 -5.8224064e-01
  1.1490298e-02
 -1.0382383e-01
  4.4133341e-01
  1.1556836e+00
  9.3383700e-02
 -1.7479338e-01
  6.1882722e-01
  1.6666481e-01
 -3.7452596e-01
 -7.1576869e-01
  1.5190200e+00
 -4.8673746e-01
 -9.2694187e-01
  3.3690708e-03
 -1.9799284e+00
  5.4250475e-02
  1.0956473e+00
 -1.0084727e+00
  6.5894186e-01
 -5.2474153e-01
 -3.9118960e-01
  9.7117656e-01
  6.1032110e-01
 -4.5438960e-01
 -2.3495002e-01
  4.7966245e-01
 -2.5510591e-01
 -5.7779912e-02
  1.3248284e+00
 -1.2286220e-02
  8.3611786e-01
  7.9338825e-01
  8.4000699e-02
 -8.1142046e-02
  7.1322280e-01
  3.6437376e-03
  6.7551887e-01
 -4.8724418e-03
  2.0801051e+00
  4.7203138e-01
  8.8074231e-01
  4.3466407e-01
 -7.6248461e-01
 -4.6892887e-01
 -5.6625581e-01
  1.4482971e+00
  9.5482528e-02
  1.3000964e-01
  2.5884038e-01
  5.3375632e-01
 -4.6743399e-01
  8.9870477e-01
 -6.9812578e-01
  2.8196022e-01
  1.2182559e+00
 -8.7473065e-01
 -1.1148567e+00
  2.7937633e-01
 -2.5030929e-01
 -4.4690824e-01
 -3.2820718e-03
 -1.3835373e+00
 -1.5280566e+00
 -1.9351879e+00
 -1.6611357e+00
  1.5381172e+00
  9.7494489e-01
 -1.8590007e+00
 -1.7256278e+00
  1.9918844e+00
  1.2021500e+00
  1.6515881e+00
 -5.3258759e-01
 -8.0997521e-01
  4.3471536e-01
  2.0843662e-01
  5.2162981e-01
 -8.7714839e-01
  5.3512789e-02
 -4.9728033e-01
 -2.5302905e-01
 -2.2498927e+00
 -8.1578702e-02
  5.0446220e-02
  1.4033386e-01
  2.2057570e-03
  4.2945132e-01
 -3.8917327e-01
  6.5509081e-01
  7.5820881e-01
  5.2809519e-01
 -2.0391247e+00
 -5.9650540e-01
  1.1738472e+00
  1.3029438e-02
 -2.3808007e-01
 -1.7810237e-01
 -1.5100965e-02
 -1.1728364e+00
 -2.8569300e+00
  1.1596677e+00
  4.8372638e-01
 -1.7930844e-01
  1.2657411e+00
 -1.0584639e+00
  1.1114997e+00
  1.7843568e+00
  3.8709518e-01
  1.8118100e+00
  8.9043331e-01
 -5.7728201e-01
 -3.9438161e-01
  1.0735255e-01
  5.8309454e-01
 -7.8245932e-01
 -1.2383904e-01
 -1.1434865e+00
  2.7917616e+00
 -6.4234453e-01
 -8.6099552e-03
  1.0162863e+00
  1.4737964e-01
  6.1608589e-01
 -6.7521518e-01
 -1.8361888e+00
  3.4632135e-02
  1.5007803e-02
  8.4197491e-01
 -1.5603219e-01
  2.5872815e-01
 -4.7959691e-01
 -2.6796106e-01
  3.8049692e-01
  3.8499960e-01
  3.3715171e-01
  2.3069165e+00
 -1.2058082e-01
 -1.2858166e+00
  8.6996144e-01
  1.0884793e-01
 -1.6881882e+00
  9.7658181e-01
  1.3010064e-02
  5.1044858e-01
 -1.3110137e-01
 -7.2529435e-02
 -6.3329518e-01
  7.3056303e-02
  1.4429310e-01
  8.6972994e-01
  2.7789354e-01
 -1.0357037e+00
  2.9575709e-01
  2.6078147e-01
 -2.4949113e-01
 -5.3375080e-02
 -7.2342527e-01
  1.1967432e-01
 -4.6491629e-01
 -9.3963128e-01
  8.3615556e-02
 -1.4671837e-01
  2.9921459e-04
 -5.7054102e-01
  4.9381742e-01
 -4.8443186e-03
 -2.0640504e+00
 -4.4343833e-02
 -5.3497714e-01
 -7.8906327e-01
 -1.2406863e-01
  8.5309017e-01
 -9.3960362e-03
 -1.1118288e-01
 -1.4421332e+00
  6.4092809e-01
 -2.1752450e+00
 -1.4335939e+00
  2.5416962e-03
  1.4940171e-01
 -4.7771382e-01
  4.3056396e-01
  6.9053447e-01
  1.7551006e+00
 -1.1061653e+00
  6.6784418e-01
 -5.8687997e-01
  8.4844851e-01
 -1.1850243e-01
 -1.6732167e-01
  1.5665350e+00
 -2.9201949e-01
  1.0121864e+00
  1.1270413e-01
 -2.0671901e-01
  1.7992634e+00
 -2.0462821e-01
 -8.1126794e-02
  4.5562193e-01
  1.5518247e-01
 -3.5443640e-01
  4.1817051e-01
  7.0860577e-03
  8.3371112e-03
 -2.6536143e-01
 -9.3198001e-01
 -4.1274422e-01
  2.5214252e-01
 -2.9446247e-01
  5.9426224e-01
 -4.8301764e-02
  1.0975400e+00
  1.6870360e-01
  3.0641982e-01
  1.3273509e-01
  1.8281243e+00
 -4.5168407e-02
 -4.6755936e-02
 -5.7145101e-01
  2.0489393e-01
  5.9272099e-01
  2.5891417e-01
  6.4444488e-01
 -1.0018934e+00
  1.9866826e-01
  4.7769478e-01
 -8.5525876e-01
  8.0924606e-01
 -5.0734937e-01
  2.3046281e+00
  1.1525403e+00
  1.2454038e-01
 -1.1413150e-01
 -5.6198585e-01
 -3.4816349e-01
 -5.4973024e-01
  8.9583677e-01
 -2.7394829e-02
 -6.2558111e-03
 -4.6189290e-01
 -6.5911822e-02
  2.4650326e-01
  1.7392074e-01
  9.1417921e-01
 -1.5823941e+00
 -4.7688800e-01
  1.8165454e-01
  1.1547607e+00
  3.7583464e-01
  1.5710483e+00
  2.9224563e-01
  1.7060967e-02
  4.4598401e-01
  5.3511685e-01
  5.5649358e-01
  4.7410332e-02
  2.5147653e-01
 -1.5133402e+00
  1.9517420e-01
 -9.2737442e-01
  3.9654073e-01
  7.7499914e-01
 -3.2148767e-01
 -5.8772676e-02
  1.1647733e-01
  3.6753806e-01
  8.7813878e-01
  1.1452825e+00
 -6.5431195e-01
  5.2003402e-01
 -1.0294687e+00
  6.9343728e-01
  4.5301437e-02
 -5.5031431e-01
  1.3532607e-01
 -1.8017976e-01
 -4.7463846e-01
 -1.2505807e-01
  2.0754090e-01
 -7.4437726e-01
  3.0769250e-01
 -6.8379980e-01
 -4.1183516e-01
 -1.5410246e+00
  8.7938213e-01
 -7.5506765e-01
 -1.5733258e-01
  9.2910737e-02
  6.6975236e-01
 -4.5921227e-01
  6.5444551e-02
  5.6089818e-01
 -4.1415268e-01
 -4.4174606e-01
  1.9164460e+00
  9.2470884e-02
 -3.3353138e-01
  3.0681264e+00
 -4.9330184e-01
 -1.1059922e+00
 -1.9225253e+00
 -6.6329956e-01
 -2.5667930e-01
 -1.2442986e+00
  7.5739288e-01
  1.1550790e+00
 -1.5110700e+00
  9.1615033e-01
 -9.5650023e-01
  6.1032474e-02
 -7.1813178e-01
  9.4395459e-01
  1.9641343e+00
 -3.0887589e-01
  5.5784643e-01
  2.6043620e+00
 -7.9649562e-01
  1.4083972e-03
  3.7998286e-01
 -7.2474349e-01
  3.6018643e-01
  8.2933992e-01
  1.2381786e+00
 -7.6223719e-01
  6.9497371e-01
 -5.0872016e-01
 -8.8274825e-01
  9.5980012e-01
 -5.2885342e-01
 -6.1515790e-01
  2.3883526e+00
 -6.8170422e-01
 -1.6236578e+00
 -7.7632397e-01
 -1.3299915e-02
  7.0104247e-01
  2.2592688e-01
  4.2113987e-01
 -1.8634341e+00
  6.5531927e-01
  4.6384761e-01
  2.4495006e-01
 -6.7941034e-01
 -6.7864108e-01
 -5.7249421e-01
  1.0879794e+00
  6.6935164e-01
 -1.2953187e+00
  8.0478534e-02
 -1.2884966e-01
 -1.1907630e+00
  8.2839805e-01
 -8.1611447e-02
 -2.7054051e-01
 -4.8792344e-01
 -1.3735875e+00
  1.9899923e-01
 -5.5183476e-01
  3.9823461e-01
 -3.8776067e-01
 -1.6342311e-01
  1.3999978e-01
 -1.2078982e-01
  6.2756765e-01
  1.0645183e+00
 -2.7850625e-01
 -1.6460414e-01
  1.5094643e+00
 -1.6419399e-01
  5.0422847e-01
 -2.5521985e-01
 -6.0349852e-01
  1.2064213e+00
  3.3659491e-01
  1.4437294e+00
 -3.2410410e-01
 -5.8368015e-01
  1.5063914e+00
 -5.7511378e-02
  3.4100476e-01
  5.4978770e-01
 -8.6944413e-01
 -1.7326045e+00
  7.5721943e-01
 -1.2719972e+00
 -1.6479012e-02
  2.1301441e+00
  6.7878252e-01
 -7.4492151e-01
  9.9361688e-01
 -4.7873604e-01
 -3.3615211e-01
 -6.4043993e-01
  1.5522807e+00
  3.6801487e-01
  6.3046686e-02
  1.8687710e+00
  1.3763881e+00
 -1.0264540e+00
  9.8477578e-01
 -8.6334568e-01
 -8.7202132e-01
 -7.4685775e-02
  1.0966097e+00
 -2.4177073e-01
  4.0636361e-01
  1.3895135e+00
  2.6002559e-01
  4.3759605e-01
 -1.0506757e+00
 -7.7431816e-01
  1.1489668e-01
 -8.3087915e-01
 -4.8034030e-01
 -8.1931293e-02
 -2.4192177e-01
 -4.6348819e-01
  8.9714773e-02
  6.8164879e-04
  7.6208472e-01
 -1.3634776e+00
 -1.0143379e+00
 -1.4870267e-02
  9.7713107e-01
 -1.2670550e+00
  1.5271200e+00
  9.9341273e-02
 -7.8094691e-01
 -3.8618284e-01
  2.5793764e-01
  7.6095462e-01
 -2.2665276e-01
 -2.4793598e-01
 -4.4316608e-02
  4.0758461e-01
 -5.6007552e-01
 -1.5320637e-02
  1.6973808e+00
 -1.2125626e+00
 -1.5135095e-01
 -6.3967890e-01
 -4.8372951e-01
  7.7058822e-01
 -6.6438639e-01
  3.0692840e-01
  2.0159771e+00
 -3.2061133e-01
  1.1633128e+00
 -1.2074836e-01
 -4.9080449e-01
  1.9320066e+00
  1.1596848e+00
  1.1825439e+00
  7.2991778e-03
 -8.0609417e-01
 -1.3160866e-01
  2.8084993e-01
 -5.5879168e-02
  3.4423140e-01
  1.4536015e+00
  2.3654003e-01
 -9.5848602e-01
 -6.5494978e-01
  4.7109857e-01
 -1.2188972e+00
  2.2769971e+00
  8.2562745e-02
 -5.4163134e-01
  1.5229617e-01
  3.3799714e-01
 -8.5811085e-01
  4.2241919e-01
 -8.1897461e-01
  1.0383237e-01
  1.3381037e-01
 -5.8266103e-01
 -7.6098435e-02
 -2.5768858e-01
 -3.7133675e-03
  2.7016380e-01
 -1.3157336e+00
  7.8046513e-01
 -1.2545356e+00
 -1.4900193e-01
 -9.8315740e-01
  1.3774653e-01
  2.4946263e-01
  3.8782102e-01
  1.6390538e-01
 -3.0866072e-01
 -5.0703382e-01
  2.0298576e+00
 -5.1760828e-01
 -5.9236187e-01
 -1.0163236e+00
 -8.2588300e-02
  1.1960962e+00
 -3.3992854e-01
  1.3057426e+00
 -1.7536783e-03
  9.9687964e-02
 -3.0536795e-01
 -2.0229684e-01
  2.3593931e-01
  6.5107524e-02
  1.3034606e-01
  7.1054101e-01
  3.1234872e-02
  1.5038640e+00
  3.3558667e-01
  3.2638156e-01
  2.3237151e-01
  5.7894975e-01
  9.1476882e-01
  8.7070996e-01
 -2.5401938e+00
  7.4408609e-01
  1.2067423e-01
 -1.3282996e-01
  2.0523627e-01
  1.0248014e+00
 -1.1028396e+00
  4.2788349e-02
 -4.2307922e-01
  1.0343763e+00
 -1.4078825e+00
 -9.3053627e-01
  1.5608015e+00
  4.8531361e-02
  6.2276453e-02
 -4.4845736e-01
  6.7321754e-01
 -1.4502149e-03
  1.2030648e-01
 -1.9644171e+00
 -4.5165646e-01
  1.4378402e-01
  4.5323789e-01
 -3.4304321e-01
 -8.5273486e-01
 -1.4252049e-01
 -7.9491395e-01
 -1.1104024e-01
 -1.2341322e+00
 -2.5404563e+00
  1.8063809e+00
 -2.0643780e+00
 -1.9210622e-02
  8.2337272e-01
 -1.4491001e+00
  1.0345602e+00
 -7.5181842e-01
  6.4250909e-02
 -4.3521139e-01
  7.0418990e-01
 -1.3703319e+00
  1.6443257e+00
 -1.4044344e-01
  9.9422127e-01
  4.2311695e-01
 -7.2263531e-02
  1.2196914e+00
 -1.4153998e-01
  2.6300609e-01
  9.6722126e-01
 -7.7031136e-01
  1.0332061e+00
  5.1764464e-01
  8.1957483e-01
  2.0718078e-01
 -9.4149727e-01
 -1.2043599e+00
  2.6284788e+00
 -7.4928540e-01
  1.0585493e+00
  7.1264029e-01
  2.1280625e+00
  6.6274035e-01
  8.6792272e-01
 -6.2880784e-01
  7.4402153e-01
  1.9316181e+00
 -7.8527862e-01
 -7.9352580e-02
 -7.9625249e-01
  4.5210221e-01
  2.0407660e-01
 -6.9817227e-01
  1.4772748e+00
  2.4341172e-01
  1.1775043e+00
 -1.3909743e+00
  1.6000998e+00
 -2.3851187e+00
  5.0941104e-01
 -2.5273740e+00
  1.4737906e-01
 -1.2514622e+00
  9.2273809e-02
 -2.3000751e+00
 -9.9846730e-03
  2.7685958e-01
 -8.4685370e-02
  2.2953560e-03
 -4.2989418e-02
  8.0976588e-01
 -2.1257108e-01
  5.6439948e-01
  4.3431249e-01
 -8.1699513e-02
 -1.2585771e+00
  1.1601516e-01
  1.7764799e-01
 -6.8444121e-01
  2.1205935e-01
 -3.1312924e-02
  4.2196354e-01
 -1.4643941e-02
 -2.7768052e-01
 -2.4620275e-01
  1.4868450e-01
 -6.7182297e-01
 -3.0153230e-01
 -2.4309160e-01
 -5.4475266e-01
 -5.8698756e-01
 -1.5223491e-01
 -1.1845683e+00
 -2.2737926e-02
 -7.7070212e-01
  2.3593056e-01
 -5.5916846e-01
  8.3141893e-01
 -1.0608429e-01
  1.3120164e-01
  6.3816589e-01
  3.1871989e-02
  1.1345774e+00
  1.7000499e+00
 -1.4967616e+00
  2.5728105e-02
 -3.2869679e-01
 -5.7883114e-01
  6.0448980e-01
 -1.5252912e-01
 -1.6612453e+00
  1.4232342e-01
 -2.5229049e+00
  4.8036090e-01
 -6.8527198e-01
 -1.1756723e+00
 -6.9939768e-01
 -1.2773018e+00
  1.9081689e-01
  1.8914605e+00
  9.1457152e-01
  1.2033589e-01
  9.0476251e-01
  6.7879543e-02
  2.1798575e-01
  1.1379265e-01
  8.9856738e-01
 -4.9570492e-01
  6.6400760e-01
  3.8743156e-01
 -2.9905805e-01
  3.2952446e-01
  4.7799405e-01
 -7.6420319e-01
  2.4082454e-01
  1.9478618e-01
  2.7632973e-01
  9.6518487e-02
 -2.0070072e-01
  3.9424562e-01
  7.7248174e-01
  4.0774399e-01
  1.2341454e-01
  4.5074603e-01
  1.8386248e-01
  7.5481892e-01
  9.0266824e-02
  3.3106995e-03
  1.5417862e-01
  1.4006719e-01
  5.3987920e-01
  6.7456499e-02
  2.5013482e-02
 -1.1725273e-01
 -1.2732778e+00
 -1.5053437e+00
  6.5245479e-01
 -4.4890320e-01
 -6.6215515e-01
 -5.9111983e-01
  3.2083318e-02
 -3.0624363e-01
 -8.6759090e-01
  7.6909858e-01
  2.5315890e-01
  6.7833912e-01
  1.2822093e+00
  1.4647033e-02
  9.0009385e-01
  7.7677183e-02
  2.0570850e-01
  4.5791756e-02
 -4.0805328e-01
  1.5762763e-01
  1.3418458e+00
 -9.5214576e-01
 -5.9268236e-01
  3.8983989e-01
  2.3888178e+00
 -6.9110835e-01
 -8.9301184e-02
  2.3226243e-01
 -4.6776387e-01
  2.6686335e-02
  9.1410071e-01
 -2.5626665e-01
 -1.5253572e+00
  3.8228625e-01
  1.6627625e-02
  1.0738558e+00
  1.7163482e-01
 -7.6571636e-02
 -4.6627724e-01
 -3.6687455e-01
 -2.1633887e-01
  9.2013121e-01
 -1.9798459e+00
 -5.3591710e-01
  1.4157593e+00
  1.1439980e-01
  1.1156619e-01
 -1.1871918e+00
 -2.0969366e-01
 -5.2098757e-01
  2.6879117e-01
 -1.0115758e+00
 -2.6258575e-02
 -5.5944830e-01
 -1.5061990e+00
 -6.0115635e-01
  7.1865445e-01
  1.4233348e-01
  1.0446595e+00
  1.2384614e-01
  1.4011422e+00
  1.0468969e-03
 -1.6715121e-01
 -7.7689266e-01
 -6.6787976e-01
  3.6428311e-01
 -6.6385232e-02
  6.0924250e-01
  1.7637793e+00
  5.4159278e-01
  1.9034797e+00
 -2.5628477e-01
 -1.2440181e-01
 -6.6121447e-01
  1.1755537e+00
 -1.1169919e+00
  9.9443036e-01
  1.3655083e+00
  4.6264085e-01
  2.2230646e-02
 -1.0592654e+00
  1.9753762e-01
 -8.6692119e-01
  7.7848688e-02
  1.9968159e-01
 -7.6990759e-01
  1.1914263e+00
 -8.0081576e-01
 -2.1599941e+00
 -5.9371483e-01
 -3.4410086e-01
  7.2259086e-01
 -7.7483112e-01
  1.0582100e+00
  2.3320322e-01
  7.0846325e-01
 -1.5176070e+00
 -1.6153932e-01
 -7.1618430e-02
 -4.8970420e-02
 -1.1911346e+00
  5.6363797e-01
  1.8153022e-01
  6.1650103e-01
 -9.9378717e-01
 -1.6949571e+00
 -5.0870949e-01
  9.4955432e-01
  1.4489242e+00
  1.1376203e+00
 -1.3865153e+00
 -1.4458596e+00
  4.7636935e-01
  2.2673721e-03
  1.5051473e+00
  2.1536256e-01
 -2.1294043e+00
 -4.5468700e-01
  7.3679584e-01
 -4.5578384e-01
 -1.6437161e-01
  1.2648955e-01
  1.5013057e+00
 -9.3821371e-01
 -3.1262603e-01
 -1.4280545e+00
 -1.6780321e-01
  7.5067991e-01
  1.2121803e+00
  3.1214029e-01
  1.3285571e+00
  1.0054471e-01
  8.1173325e-01
 -9.9399799e-01
  1.0266951e-01
  2.1235664e+00
  6.7460948e-01
  2.2985560e-01
 -3.0435219e-02
 -6.4648277e-01
  5.6438446e-01
 -6.5516359e-01
 -4.9084708e-01
 -8.4962809e-01
 -8.8877700e-02
 -1.2140079e+00
  9.4758058e-01
  7.3467022e-01
 -4.7373402e-01
 -1.0785913e+00
  1.4422642e-01
  2.0100603e-01
 -8.1492972e-01
  9.8452000e-03
 -1.4184156e-01
  5.5257827e-01
  1.2914158e+00
 -1.2832154e+00
 -1.5691653e+00
 -5.9482758e-03
  4.7840458e-01
 -1.8933797e-02
  6.3365310e-01
 -1.9809066e+00
 -2.5116080e-01
 -7.5378919e-01
 -3.8070849e-01
 -8.0255044e-01
  9.7023129e-01
 -9.3166143e-01
 -6.8079686e-01
 -4.6452123e-01
  1.9294289e-01
  2.1626759e+00
  4.4938165e-01
  3.4795418e-01
 -7.4478251e-01
 -8.9515746e-01
  6.0229129e-01
 -5.3372741e-04
  1.4042366e+00
  2.4566606e-01
  2.3557410e+00
  3.8117266e-01
 -8.2432956e-01
 -3.3636665e-01
 -7.4127859e-01
  3.0529140e-03
  8.1675428e-01
 -4.5727459e-01
 -1.7119569e+00
  3.6093418e-03
  4.4562462e-01
 -8.6026317e-01
  5.2706659e-01
 -3.0811262e-01
 -2.1306653e-01
  7.5209126e-02
  1.3948934e-01
  1.1531014e+00
  4.4318870e-02
  4.4796848e-01
  8.6312395e-01
  2.1340191e-01
  6.3034140e-02
 -7.1786308e-01
  3.7924707e-01
 -1.3411364e-01
  1.2397548e+00
 -4.0392618e+00
 -3.4973243e-01
 -5.3765887e-01
 -4.5255625e-01
  5.6669253e-01
 -7.9852921e-01
 -4.4113454e-01
  6.8357706e-02
  2.6929918e-01
 -1.5454111e+00
 -1.6389254e-01
  1.3315470e+00
  3.2187864e-02
  7.6679337e-01
 -9.3447439e-02
  4.5997864e-01
  1.9450621e-01
 -8.0106938e-01
  3.2148898e-01
 -8.3367256e-03
 -2.2076687e-01
  1.0035002e+00
  3.9687985e-01
 -6.0046995e-01
 -1.9909331e+00
 -5.3607100e-01
  9.5365345e-01
 -2.6154011e-01
 -2.7120772e-01
  2.1306941e-01
 -1.0625823e+00
 -2.9605314e-01
  3.0896169e-01
 -7.1733201e-01
 -3.8172904e-01
  1.8578683e-01
  1.9181450e-01
  4.5863610e-02
  1.4018828e-01
  2.5352584e-02
  2.0490676e-01
  1.0652964e+00
 -1.2825602e+00
  3.0302519e-01
 -3.0701873e-01
 -1.5810601e-01
  1.0043881e-01
 -5.1241487e-01
  6.5208369e-01
  1.6856264e-01
 -1.4302398e-01
  1.0160828e-01
 -3.7038237e-01
  1.0160832e+00
 -2.8464699e-01
 -2.2580990e-01
  1.4830250e-01
 -9.0917021e-01
  7.2680742e-01
 -4.9415994e-01
 -1.0814037e+00
  8.1692946e-01
  7.9301929e-01
  2.7758932e-01
 -2.3792765e+00
  7.1560478e-01
  6.5368348e-01
  7.1091428e-02
  2.3397991e-01
 -3.0053130e-01
  6.2768501e-01
 -9.9944480e-02
 -1.1902442e+00
 -1.4167096e-02
  5.1434350e-01
  1.7083922e-01
 -8.9528851e-02
  6.8518096e-01
  4.4590279e-01
 -6.7333555e-01
 -3.0451745e-01
  2.8060246e-01
 -7.7373171e-01
  2.3412738e-04
  1.1374059e+00
 -5.5531957e-03
 -1.2789223e+00
  9.0609342e-01
  6.1404026e-01
  7.1760766e-02
  3.2455757e-01
  9.3868524e-01
 -7.5188452e-01
  1.4248918e+00
  1.0982229e+00
 -9.2859733e-01
 -3.7943235e-01
 -4.6205226e-01
  1.2146256e+00
  9.2742127e-01
  3.2919851e-01
 -6.9756579e-01
 -8.8871610e-01
 -1.3132118e-01
  1.6942413e-01
  1.1787940e+00
 -2.4387674e-01
 -4.7127804e-01
  9.1883667e-02
  5.3065097e-01
  5.0339039e-02
 -1.1631993e+00
 -1.1595041e+00
  2.1124645e-01
 -1.8835379e-01
  1.0351555e+00
  3.7304679e-01
  1.6077619e+00
  1.8457265e-01
 -1.6046808e+00
  3.2653892e-01
 -9.9162388e-01
  4.6677241e-01
 -2.7519560e-01
 -6.1681277e-01
  5.5526072e-01
  2.4243596e-01
  4.8778948e-01
 -1.1123178e+00
 -6.8692303e-01
  2.2497866e+00
  1.1813281e-01
 -2.0092509e+00
  5.8566582e-01
  9.3800008e-02
 -8.3404826e-03
 -8.7148380e-01
  2.3326194e-01
 -5.2259988e-01
 -1.4854738e-01
 -4.6733539e-03
 -8.8543302e-01
  1.1013635e-02
 -9.0728588e-02
  2.1278587e-01
 -2.6372606e-01
  1.3762540e+00
 -1.1285390e-03
  3.7153950e-01
  8.8365591e-01
 -3.7163806e-01
  7.5189668e-01
  1.2475319e+00
 -1.9618461e-02
 -6.1550367e-01
 -8.8332707e-01
  4.1802031e-01
  7.5666505e-01
  1.9674544e-01
 -3.8149065e-01
 -3.0337282e-02
 -1.1101428e+00
 -1.8922952e-01
 -1.4595467e+00
 -1.2931516e+00
 -8.5994005e-01
 -2.4690227e-01
  1.0793758e-01
  1.7630100e+00
 -6.4503378e-01
 -1.3682030e+00
 -3.1170743e-02
  9.5515704e-01
  9.3975812e-01
  2.2807878e-01
 -4.2089340e-01
 -2.1391189e-01
 -5.5528623e-01
  8.6994655e-02
 -1.1965411e+00
  4.7847089e-01
  1.2632844e+00
  4.2145622e-01
  4.5280233e-02
  3.2989728e-01
  6.3177705e-01
 -7.5406063e-01
 -4.1867313e-01
  1.7125984e-01
 -2.6394066e-01
 -3.3574244e-01
  6.5987206e-01
  1.2569866e-01
 -9.6814036e-03
  3.1929383e-01
 -2.3733482e-01
 -6.3679188e-02
 -1.1516094e+00
  1.6269466e+00
 -3.7324393e-01
 -4.4448915e-01
 -1.6983092e-01
 -7.0615345e-01
  4.6926281e-01
  2.6702094e-03
  1.6215542e-02
 -5.2865660e-01
  7.5715750e-02
  9.7473466e-01
  1.8508339e+00
 -9.2107975e-01
 -3.2127523e-01
 -9.2084564e-02
 -6.7844409e-01
 -2.9709947e-01
  7.6606637e-01
 -7.1169533e-02
  1.0638485e+00
  9.4793963e-01
  1.9934678e-01
 -4.8959592e-01
  1.6776651e-02
  2.0059482e-03
 -1.0063318e+00
  1.7152960e+00
  2.0525280e-02
 -1.2131976e+00
  9.9722558e-01
 -6.4482772e-01
 -9.4119626e-01
 -1.4186970e+00
  2.0237677e-01
 -3.7655368e-01
  4.5995590e-01
 -9.5799601e-01
  5.5937576e-01
  1.4748532e-02
 -2.0732024e+00
  1.0371107e+00
 -7.4364439e-02
 -6.7578816e-01
  1.7622408e-01
 -5.0312333e-02
  2.4240547e-01
 -5.1396370e-01
  6.0143650e-01
 -1.4939107e+00
  3.1892839e-01
  4.8975018e-03
 -3.1391028e-01
 -7.3812805e-02
 -1.2660651e+00
 -8.6939293e-01
  1.3383933e+00
 -1.8125319e+00
  7.0122176e-01
 -2.9082176e-01
  1.9690229e-01
 -4.8205554e-01
 -4.7415230e-01
  4.6016604e-01
 -3.3814320e-01
  6.0251093e-01
 -2.9074791e-01
  8.9085692e-01
 -2.9248855e-01
  1.5282743e+00
  8.8469386e-02
 -1.3199145e+00
  9.3473673e-01
 -1.1619529e-01
 -4.5289267e-02
  8.2822776e-01
 -7.6750410e-01
  9.8135597e-01
 -7.0283949e-01
  4.3876174e-01
 -3.8788489e-01
  2.3466881e-01
  7.2363965e-02
  5.7574540e-01
  3.9652497e-01
 -5.3577286e-01
  1.0161602e-01
 -7.2009757e-02
  4.2428473e-01
 -4.3206241e-02
  1.5870747e-01
 -2.7694533e-02
  6.5506417e-01
 -4.3686691e-01
  8.8863552e-02
  9.1601527e-01
  5.1618201e-01
  1.7007522e-01
 -1.0177510e+00
 -7.9209507e-01
 -2.3085127e+00
 -1.6580670e+00
  6.9362924e-02
  9.9557394e-04
 -5.2156204e-01
 -2.1272154e+00
  8.6703330e-01
 -7.7234417e-01
  9.3091869e-01
 -1.5634985e+00
  1.0848269e+00
  7.0491135e-01
 -6.3235348e-01
  2.8377581e-01
  1.3182312e+00
  1.5877850e+00
 -1.0540234e+00
 -2.0950428e-01
  1.5715669e+00
 -8.0884713e-01
  1.3030889e+00
 -2.1954229e-02
  7.8704995e-01
  2.9594108e-01
  2.1264668e-01
  1.3397250e-03
  6.6184843e-01
  7.7403903e-01
 -5.3478366e-01
 -1.1174492e+00
  5.1708525e-01
 -8.4006883e-02
 -1.3547045e+00
 -4.2760861e-01
  6.6453981e-01
 -2.9965060e-02
 -6.8749875e-01
 -3.8194174e-03
 -2.0979745e+00
 -9.0705973e-01
 -1.9662958e-01
 -1.1441278e+00
  1.5423011e+00
  1.6213329e-01
 -4.0122665e-02
  5.3303945e-01
 -1.1886147e-01
 -4.4089735e-01
  1.2101432e+00
 -1.3200536e+00
  1.2109210e+00
  3.2560122e-01
 -1.9829762e-01
 -3.5889617e-01
 -1.3516878e+00
 -3.6091983e-01
  4.6998378e-02
 -6.1429298e-01
  1.0222887e+00
 -7.4111726e-03
 -1.6378528e+00
 -7.9611003e-01
 -1.3726828e+00
  3.2929012e-01
  3.0449510e-01
 -2.8979000e-01
  4.0783831e-01
 -1.8911141e+00
  2.0752628e+00
  6.6090316e-02
 -9.2174402e-03
 -1.3230597e+00
  1.1723381e+00
 -2.6160327e-01
  1.5243751e+00
  7.2234258e-02
 -8.8492364e-01
  4.0402603e-01
  2.3153268e-01
 -1.7301852e-01
  4.0931585e-01
 -1.6813295e-02
  3.4342024e-01
  1.7826149e-01
  3.0542420e-02
  1.4816552e-02
 -2.0702608e-01
 -4.4064859e-01
  5.4157317e-01
 -3.9069742e-02
  1.5211278e+00
 -4.8414562e-02
  1.2886633e-01
 -3.4339821e-01
  8.6951768e-01
 -1.7905842e+00
  1.7096092e-01
  1.1031500e-01
 -2.0497088e-01
 -3.4495068e-01
  2.9799983e-01
 -1.6963811e-01
 -2.2817558e-01
 -1.3541472e-01
  4.0636760e-01
  6.6815549e-01
 -3.8185723e-02
 -2.5442085e-01
  2.6044682e-01
  6.9449788e-01
 -3.2172608e-01
  1.4640098e+00
 -7.7361643e-01
 -7.6655424e-01
 -6.7160183e-01
  1.1431994e+00
 -8.2011813e-01
 -8.0777466e-01
 -5.0056860e-02
  9.8074730e-03
 -6.6295958e-01
  1.4410850e+00
 -2.3764727e-01
  1.8332933e+00
  6.6774851e-01
 -7.3959851e-01
 -3.1516861e-02
  2.8664488e-01
  3.6434982e-02
 -6.5528885e-02
  4.1575307e-01
  2.0534350e-01
  1.2499311e-01
 -5.5983162e-01
 -1.5898082e-01
 -2.6006970e-01
  3.5640505e-01
  4.6127054e-01
 -1.2690774e+00
  4.8843575e-01
  1.6146491e+00
  4.1519988e-01
 -1.3743548e-02
 -8.9200348e-02
 -1.0800292e+00
 -1.0374840e-01
 -6.3586891e-01
 -1.0039169e+00
  4.8545122e-01
  1.4885705e+00
  4.7880417e-01
  7.7398425e-01
 -3.7702277e-01
 -1.1756157e+00
 -1.2354000e+00
  2.6996830e-01
 -3.9900500e-01
  9.7341686e-01
  7.3744136e-01
  1.5925883e-01
  7.6170439e-01
  1.0889750e+00
  1.6433844e-01
  4.2220628e-01
  1.8521859e-01
  3.5636154e-01
 -2.4583550e-01
  2.9108753e-02
  2.5357136e-01
  8.5694268e-02
 -8.8909096e-01
  1.0162437e-01
  1.9006832e+00
 -1.3985135e-01
  1.8793291e-01
 -3.1219491e-01
 -3.8488884e-02
  2.2298625e+00
 -3.3217824e-01
  3.8645095e-01
  1.9982937e-01
 -1.3152613e-01
  2.8424576e-01
 -1.1305239e+00
 -4.1346672e-01
 -6.3009006e-01
  4.2742717e-01
  9.3294322e-01
 -6.1310405e-01
  1.7214019e-04
  3.3169168e-01
 -5.4138672e-01
 -9.3907043e-02
 -8.9645054e-04
 -1.4173216e+00
  9.1749722e-01
  5.6530938e-02
  1.7923182e+00
 -4.5721099e-04
  4.5811504e-02
 -1.6657367e+00
  4.3279973e-01
 -1.3669470e-01
  8.1319517e-01
  2.2351556e-01
  5.8353829e-01
 -8.3128609e-02
  4.8901162e-01
  1.9469023e-01
 -3.9849764e-01
 -1.0123129e+00
 -2.6857157e+00
 -1.3706138e+00
 -1.0700593e-01
 -4.7316420e-01
 -9.2177786e-02
 -5.7136565e-02
  9.4650519e-01
  5.4721224e-01
  1.4617569e+00
  2.7172580e-01
  3.0370066e-01
  5.9116811e-01
  7.2279298e-01
 -2.0836742e+00
 -1.3437719e-02
  2.4941896e-01
  2.7177134e-01
  7.8395176e-01
 -3.6068919e-01
 -5.1630861e-01
 -7.6734114e-01
 -4.8841366e-01
  1.3149347e+00
 -3.1334892e-01
 -1.2804268e-01
  1.9872019e-01
  5.4171622e-01
  7.0151609e-01
  9.6724719e-01
  8.3750576e-01
  1.3248308e+00
  3.6675939e-01
 -8.5466534e-01
 -2.7575114e-01
  8.9979345e-01
 -2.6306093e-02
 -4.1744694e-01
  1.6750158e+00
  1.7268032e-02
  5.9473771e-01
  1.1958016e+00
  2.2648799e-01
 -1.5714533e+00
 -2.4018595e+00
  4.3731546e-03
 -5.2332109e-01
  1.8452864e+00
  8.6683959e-01
 -5.4606434e-02
 -5.5373836e-01
  2.0636204e-01
 -8.3044553e-03
  4.0225601e-01
 -1.3780569e+00
  1.2155832e+00
 -2.2047989e+00
  1.5793245e-01
  1.0592670e+00
 -2.2468255e+00
  5.2266316e+00
 -3.3439380e-01
  1.8833494e-01
 -1.2333341e+00
 -1.9539580e-01
 -9.2760861e-01
  1.3571148e+00
  1.3312021e-01
 -1.1761386e+00
 -1.8402824e+00
  3.7359330e-01
  3.3304107e-01
 -7.5855896e-02
 -2.8769213e-01
 -8.2415484e-02
 -9.3414793e-03
 -7.1350938e-01
  1.5433948e-01
  1.5491586e+00
 -6.9115728e-01
 -5.4927975e-01
 -2.6389357e-01
 -1.3225902e+00
  1.0759554e+00
  1.8864721e-01
  8.0897413e-02
  2.0639077e-01
 -1.8548691e+00
  4.5699835e-01
  6.6969538e-01
 -3.1163219e-01
  4.6259537e-01
  1.1934695e+00
 -1.0922728e-02
 -1.0849814e-01
 -1.0300373e-01
 -1.4342222e+00
 -5.8128428e-01
  6.4617932e-01
 -4.5420632e-01
  2.3187412e-01
  3.0471739e-01
 -1.7909032e-01
 -3.5046962e-01
 -1.9605730e-01
  9.1339785e-01
 -1.5621716e+00
 -1.1334932e+00
  1.1181812e+00
 -4.7911677e-01
  1.9345631e-01
  1.8635812e+00
  2.4804093e-01
  1.1781547e-01
 -2.6451924e-01
  1.4533558e+00
  5.3545105e-01
  2.8677583e-01
 -2.6870227e-01
 -6.1794704e-01
  9.1431117e-01
 -3.3425325e-01
 -4.3606526e-01
 -4.8917386e-01
  9.9898465e-02
  8.9190686e-01
  1.3010212e+00
  3.2065859e-01
  2.8845832e-01
 -1.3931990e-01
  1.4743102e-01
  1.2891932e-01
 -1.1772079e-01
 -1.1568092e-01
  9.6767873e-01
 -2.2351526e-01
  1.3292810e-01
 -2.4846108e-01
 -2.9233047e-01
  1.7210519e-01
 -3.1053206e-01
  7.3342252e-01
 -1.8389067e-01
 -1.7534776e-01
  1.1053958e-01
  4.2318165e-01
  1.1871104e+00
  1.0488291e+00
 -5.7486665e-01
 -1.6673283e-01
 -1.9006045e+00
  6.1355627e-01
  2.5137120e-01
  5.7796729e-01
  7.3748404e-01
  6.7986506e-01
 -6.4956337e-01
  7.3764965e-02
  1.7286899e+00
 -7.5965151e-02
  2.9916254e-01
 -8.6794955e-01
  1.7338561e-01
 -2.5498155e-01
 -1.9810654e-01
  3.1965312e-01
 -2.4740115e-01
 -7.4795538e-01
 -2.1021335e-01
 -1.0338041e-01
 -9.9402863e-01
  5.8291280e-01
  6.7009985e-01
  5.1967937e-01
  1.1676701e+00
  1.9198388e-01
 -6.6727203e-01
  8.4560412e-01
  5.4016536e-01
 -8.8207930e-01
  3.1816491e-01
  3.0155617e-01
  4.8215982e-02
 -1.2094605e+00
 -2.5435725e-01
 -7.9813558e-01
 -1.2197551e-01
 -7.8273624e-01
 -6.4302701e-01
  3.1367484e-01
 -1.4898272e+00
  4.1884130e-01
 -3.5412344e-01
  1.4025387e-01
 -9.4055586e-02
 -1.9290347e-01
 -1.0179807e-02
 -8.0589676e-01
 -9.1902815e-02
  5.5879664e-01
 -2.8024419e-04
  1.3616374e-03
 -3.4646146e-04
 -5.9440715e-04
  6.8924882e-02
 -6.9399889e-06
  1.6972979e-03
 -8.5413101e-04
  3.5999287e-03
 -1.3967122e-04
  1.4846443e-03
  1.1484711e-03
 -6.0766996e-03
 -8.0969641e-03
  7.7039714e-04
 -5.1631901e-04
 -1.0943749e-03
  8.8349795e-03
 -6.2394571e-01
 -6.4563528e-03
  3.6269906e-03
 -6.6471298e-04
  4.9146726e-03
 -2.8583670e-01
 -7.1337185e-04
  7.4869487e-05
  1.8768010e-03
  5.4638195e-01
  1.1952746e-01
 -5.5280459e-01
 -4.9733841e-01
 -1.0939554e+00
 -1.0565976e+00
 -8.7173986e-01
 -9.2622072e-01
 -5.9739894e-01
  1.3849164e+00
  2.9704306e-02
 -6.9028729e-01
  1.1692588e+00
 -5.8983892e-01
  9.0182775e-01
  3.8931203e-01
 -2.2397026e-02
  4.9265587e-01
 -2.3637949e-01
 -8.7065023e-01
 -2.4409707e-01
 -5.8874577e-01
 -6.8218595e-01
  3.2057293e-02
 -2.1922269e-01
 -2.1371394e-01
 -3.0231169e-01
  7.9167429e-03
  9.5379397e-02
 -1.6930038e-03
 -1.1183404e-02
  2.3751114e-01
 -2.0811188e-03
  8.9734494e-05
 -1.5429963e-01
 -6.4673723e-04
  1.8895844e-02
 -8.6577773e-02
  6.6608503e-03
 -4.4940212e-03
  5.1945519e-02
 -2.8943005e-01
  9.3840607e-02
 -4.1543599e-02
  4.3255715e-03
  1.1118594e+00
 -1.4150686e-03
 -3.0110413e-01
  7.4068755e-01
  2.7115960e-03
 -7.5711215e-01
 -3.2527322e-01
  8.4492210e-03
 -4.6247598e-02
  4.7013307e-01
  1.0614365e+00
 -1.2038622e+00
  5.8620557e-02
 -3.6083010e-01
  9.4108701e-01
  7.2446901e-01
  2.0494416e-02
 -5.8206356e-01
  3.6156613e-01
  6.0681894e-02
  1.1271053e-01
 -5.6412037e-02
 -2.4878070e-01
  6.0496575e-01
 -4.0147740e-01
 -2.2612943e-01
 -1.9761485e-01
 -4.2755798e-01
  2.2666164e-01
  3.2910991e-01
  1.6256611e-01
  2.4422090e-01
 -5.6479476e-02
  5.6064233e-02
  3.0805343e-01
  3.0669433e-01
  3.5137483e-01
  2.8496206e-01
  1.2515391e-01
 -5.8394644e-02
  6.6106662e-04
 -3.7068352e-02
  4.8716515e-01
  3.2661960e-01
 -7.0107871e-01
 -3.7292644e-01
 -3.6626264e-01
  2.2592591e-01
  1.8635456e-01
 -2.3233013e-01
 -1.1785501e+00
 -1.6157286e-01
  3.4906557e-01
 -4.0077165e-01
  2.4597445e-01
 -3.9476298e-02
 -3.0501280e-02
 -3.6102459e-01
  7.9605889e-01
 -1.6875042e-01
 -7.3559515e-02
 -4.1886261e-01
  2.4694795e-02
 -8.0792427e-01
  3.1349775e-01
  3.5642367e-02
  2.8259736e-01
  1.9512951e-01
 -6.4999670e-01
  1.5550116e-01
  1.7822005e-01
  3.3741036e-01
  5.6671172e-02
  1.6606038e-02
  6.6028810e-01
  5.2921814e-03
  1.1580735e+00
 -1.2097019e+00
  2.3457612e-01
 -6.4642054e-01
 -1.5958243e-04
  7.4075800e-01
 -8.1404698e-01
 -3.1177181e-01
 -1.1107814e+00
  2.5333622e-01
  6.2701017e-01
 -1.2021281e+00
 -9.1876036e-01
  1.5414985e+00
  1.7586066e-01
  1.0708183e+00
  6.1259216e-01
 -4.5267302e-01
  1.3755022e+00
 -4.8846533e-03
  3.9033064e-01
  5.8726454e-01
 -7.5358272e-01
  5.1116633e-01
  5.2112054e-02
 -5.4647052e-03
  2.2338842e-01
 -3.3909869e-01
 -8.8130748e-01
  3.1242907e-01
 -9.7632605e-01
  1.9737405e-01
 -8.2535960e-02
  4.7258991e-01
  7.6237899e-01
  2.8328428e-01
  5.6406513e-02
 -6.4859164e-01
  1.2442946e-02
 -7.8102487e-01
  8.9856613e-01
 -5.7309771e-01
  1.2127779e-01
 -1.8822703e-01
 -1.0323000e+00
  8.6369812e-02
  2.6149663e-01
  4.8790404e-01
 -2.3096664e-01
  2.1938697e-02
  8.6158449e-03
 -9.1852164e-01
  2.2817332e-01
 -1.0977745e+00
 -4.3593043e-01
 -1.1516990e-01
  8.3624512e-02
  1.8287596e+00
 -3.7475061e-01
  3.8428870e-01
  3.5238821e-02
 -8.9462943e-02
 -1.2539328e+00
 -6.8001795e-01
  7.9873991e-01
 -2.4038334e-01
 -1.8595719e-01
 -7.7183092e-01
  2.6715672e-01
  6.8135077e-01
  1.0850050e+00
 -4.2010713e-01
 -5.3641999e-01
 -9.6596664e-01
  9.2822868e-01
  3.3207616e-01
 -2.6441664e-01
 -2.3107497e-01
  7.1662955e-02
 -1.2190975e-01
  3.0352035e-01
  2.9618058e-02
 -2.5553164e-01
 -3.5658047e-01
 -1.1178217e+00
  1.3509825e-01
  1.8368737e-01
 -3.1622231e-01
 -4.0852040e-01
 -7.4308395e-01
  2.0569982e-01
  5.0977450e-02
 -1.1518857e-02
 -4.5916495e-01
  4.1229840e-02
  7.2660926e-04
 -7.8126341e-01
  1.0429353e+00
 -5.7332057e-01
  2.1585401e-03
 -7.1209562e-01
 -2.9459983e-02
  1.1782739e-01
  1.6483381e-01
  2.0221382e-01
  6.3570403e-02
  4.5157358e-02
  1.0009886e+00
  2.5056006e-02
 -1.7987313e+00
 -2.4988413e-01
 -1.0192308e+00
  7.2309500e-01
  2.7545519e-02
  8.8107353e-01
 -3.6494830e-01
 -1.1652226e+00
  2.8501755e-01
 -5.4469109e-01
  7.9196864e-01
 -4.1240528e-01
  1.5026248e-01
 -5.5746961e-01
  2.4289918e-01
  4.6527883e-04
  9.4171900e-01
  1.6579674e-01
 -2.7563673e-01
 -6.0519272e-01
 -1.9773518e-01
 -6.4222860e-01
  2.8800589e-01
  9.5247924e-02
  1.3140962e-01
 -2.8737062e-01
  8.4192473e-03
  3.7231860e-01
  2.3727760e-01
 -2.5979921e-01
 -1.3170679e-01
  6.1681831e-01
 -5.4583019e-01
 -6.0204645e-03
 -9.5989190e-02
 -1.0555346e-01
  1.5843737e-01
  1.9535878e-01
 -2.0143071e-02
  1.4095634e-01
  1.1733119e+00
  1.3283823e+00
  1.9443138e+00
  2.6247939e-01
 -3.2573670e-02
 -6.0416663e-01
  1.1005344e+00
 -1.0596770e+00
  3.3863291e-01
  1.9056161e-03
  3.6282772e-01
 -1.9408423e-04
  7.8817117e-01
 -2.2690681e-01
 -8.7674773e-01
 -1.0646792e-02
 -5.1716906e-01
 -1.1263330e+00
  2.1781632e-01
 -1.2926083e+00
  8.6520207e-01
  1.5392737e-01
 -1.3370712e-01
  2.6562201e-02
 -8.2285422e-01
 -2.9702300e-01
  1.8328751e-02
  1.2923977e-01
  3.3470751e-03
  3.2546854e-01
 -4.1977903e-01
  3.3008525e-01
 -1.2425334e+00
  3.7401542e-01
  7.2489016e-02
  2.0656905e-01
  6.5096247e-01
 -6.0494167e-01
 -1.3545243e-01
  1.5117873e-01
  1.4588898e+00
  1.3213340e-03
  3.2339075e-01
 -5.3709984e-01
 -5.7541066e-01
 -3.4710535e-01
  6.9786388e-01
  1.2664274e+00
 -3.9546755e-01
 -1.9891834e-02
 -6.6467738e-01
 -6.0813624e-01
  4.7996891e-01
  7.7954847e-01
  1.6906410e+00
  4.0126881e-01
  1.1198316e+00
  3.1579949e-02
 -1.1201149e-01
 -3.1028998e-01
  6.2395334e-01
  2.6674354e-01
 -6.2055415e-01
 -1.0483912e+00
 -5.0387436e-01
 -7.5202096e-01
  9.6573615e-01
  8.1722796e-02
 -2.1460041e-01
 -3.8858053e-01
 -1.0804468e-01
  9.2859602e-01
  5.6524146e-01
 -9.5754796e-01
  8.9043635e-01
 -1.1333935e+00
 -1.4629194e-01
  7.7123314e-01
  2.8232473e-01
 -4.3242380e-01
  3.7439414e-03
  1.4060575e-01
  3.1622919e-01
 -7.8546304e-01
 -2.9111630e-01
 -9.3018109e-01
  2.1108896e-01
  8.2656008e-01
  1.2278802e-01
  1.2269048e-01
 -2.9315868e-01
  3.5488304e-01
  9.4987679e-01
  1.4598972e+00
  2.5020230e-01
  2.0841099e-01
 -6.6701025e-01
 -1.0361274e+00
 -2.1335343e-02
 -3.8358179e-01
 -9.3142912e-02
  1.8880990e-01
  3.0192432e-01
 -1.3213971e+00
 -9.4702458e-01
  3.2008210e-01
  2.1775940e-02
 -3.1431559e-01
 -7.9747838e-01
 -2.2259201e-01
 -7.1028054e-01
  8.7516814e-01
  4.7906691e-01
 -8.6664535e-02
 -2.2080174e-01
  1.0438142e-01
 -2.2758399e-01
  8.1655550e-01
 -4.7901854e-02
  9.0552308e-02
  2.7348211e-01
 -3.1339130e-01
 -7.9857701e-01
 -1.4351124e-01
 -5.9335753e-02
 -1.6217540e-01
 -1.1055702e-01
  3.0963972e-01
  1.7682903e-01
 -4.1161751e-05
 -4.4849180e-02
 -4.5320758e-01
  1.7091873e-01
 -4.6801925e-01
  6.9167233e-01
  7.3163415e-04
 -5.6516898e-01
 -2.0314361e-01
  1.1577480e-01
 -3.3808807e-01
  1.1558702e-01
 -4.7606039e-01
 -2.0088619e-01
 -1.4349015e-01
  1.9899926e-01
 -1.0375761e-03
  1.3972551e-01
 -5.3977082e-03
  4.9446370e-02
 -4.3706059e-01
 -2.7456686e-01
  1.5444033e-01
 -3.1316173e-01
  5.9267402e-01
 -1.2793946e-01
 -2.0748615e-01
 -4.2566594e-01
 -1.3758178e-03
 -5.4684550e-02
 -7.5785404e-01
 -5.5187207e-01
 -5.7936721e-02
  8.8107538e-01
 -1.5694497e-03
  7.3223867e-02
 -6.9866699e-01
  1.9549526e-01
  7.2758123e-02
 -5.2610564e-01
 -2.8908858e-01
  2.1611291e-01
 -1.1771338e+00
  2.5914618e-01
  1.0667906e-01
 -8.5345812e-02
  1.6536634e+00
 -7.7417427e-01
  1.6113962e-01
 -6.0680324e-01
  8.7685698e-01
  1.3016997e-01
 -1.1019578e+00
  4.9465394e-01
  8.5860021e-02
 -3.7472451e-01
 -4.3919194e-01
 -8.4944144e-03
 -2.2898103e-01
 -6.4940139e-04
  3.6413279e-01
  8.1879485e-01
 -7.2018348e-02
  1.7784439e-01
 -7.8329053e-03
  9.2227995e-02
 -4.1129714e-01
  7.0448808e-02
 -6.2178659e-01
 -2.4710074e-01
 -5.3224619e-02
 -1.5714694e+00
 -2.7740649e-03
 -4.5585182e-01
 -5.7997763e-01
  2.9315999e-01
 -6.7496288e-01
  8.0310643e-01
  5.2650869e-01
 -1.6847599e-01
  1.0841683e+00
 -1.0573884e+00
 -2.9605496e-01
  1.0433002e+00
 -3.1111071e-01
  1.0168239e+00
  2.6508963e-01
 -1.9979934e-01
  1.9803569e-03
 -1.6329790e-02
  3.1239751e-03
  3.5571203e-01
 -1.2462216e-01
 -6.0935613e-02
 -8.8867331e-01
  5.3505749e-01
  4.9674526e-02
 -5.9894466e-01
 -9.6214890e-01
 -2.7883869e-01
 -2.8614661e-01
 -1.5150234e-01
 -5.9188521e-01
 -1.1683335e-01
 -5.2510631e-01
  1.4795438e+00
  6.4002353e-01
 -8.6276489e-01
 -4.3515000e-01
 -2.5563531e-02
 -1.0685724e+00
 -1.0144027e-02
 -6.0286324e-02
  1.1261384e-01
 -4.9595499e-01
  7.8107178e-04
  3.7802061e-01
 -3.5843976e-02
 -1.1383712e+00
  1.0393124e+00
  3.9751124e-01
  4.5491871e-01
 -3.1371720e-04
  9.1833927e-02
  2.9032820e-01
  4.1616476e-01
  2.5688195e-01
 -1.4553809e-01
 -5.0106496e-01
  6.9673508e-01
 -4.6174411e-02
  2.0917806e-01
 -1.0411648e+00
 -2.6424831e-01
 -1.0754334e+00
 -3.2164410e-01
  2.4613371e-01
  7.8155452e-01
 -1.2408514e-01
 -2.5264683e-01
 -4.7096763e-02
  1.1810053e-01
  5.8732224e-01
  4.4436628e-01
 -2.4047312e-01
  2.6299298e-01
 -4.4355705e-01
  8.7573394e-02
  1.9187137e-01
 -6.3765191e-02
 -4.1989660e-01
 -8.3065718e-01
 -1.0203043e-01
 -1.0029527e+00
 -1.1491102e+00
  2.1741211e-01
  1.8708351e-01
  5.0497139e-01
  1.7464729e-01
  1.9503856e-02
 -1.2053300e+00
 -1.1209635e-01
  1.7917562e+00
  1.2182691e+00
  7.6649755e-01
  1.3127603e-01
  6.3561797e-01
 -2.5065157e-01
  1.8407993e-01
  3.6156413e-01
  2.7753729e-01
  7.9271913e-02
 -2.0360857e-01
 -2.4751262e-01
  1.7659658e-01
  3.6805809e-02
 -3.8717514e-01
 -3.4995827e-01
  2.4956301e-01
  4.4703075e-01
  5.1200283e-01
  1.3368502e-01
  2.7390069e-01
  5.4480690e-01
  1.5057771e-01
 -4.9884960e-02
 -2.5974464e-01
 -4.9287532e-02
 -4.1548749e-03
 -5.2465749e-01
 -2.9296432e-02
 -1.6469036e-01
  4.1979828e-01
  2.3592967e-01
 -2.7827230e-01
 -9.4576865e-01
  1.7324610e-01
 -1.2032714e+00
  1.9360177e-01
 -4.0011215e-01
 -1.3253323e+00
  7.0227367e-01
 -1.9961564e-01
  2.9524565e-01
 -7.8229600e-01
 -3.1355765e-02
 -4.1659424e-01
 -7.5973570e-01
 -5.9315801e-01
  2.0464668e+00
  8.3711910e-01
  8.6392820e-02
  1.0039031e-01
  2.4825834e-02
 -3.7900764e-02
 -4.7705568e-02
 -3.7075174e-01
  1.0076493e+00
 -3.1101304e-01
  9.8470074e-01
  5.2463543e-01
 -8.9009553e-02
  4.8038229e-02
  9.8533368e-01
 -4.5976266e-01
 -8.3253515e-01
 -1.5386657e-01
 -5.0314915e-01
 -7.5986022e-01
  5.6342626e-01
  5.7633412e-01
  5.6467986e-01
 -1.8596886e-01
 -4.5428199e-01
 -8.3856779e-01
  7.8916383e-01
 -4.1467384e-01
 -4.7129299e-02
 -2.8501004e-01
  6.1586553e-01
 -1.1662329e-02
 -1.6354225e+00
  3.1839463e-01
  1.2028245e+00
  5.4058200e-01
 -2.6440689e-01
 -9.8788923e-01
 -6.6877145e-01
  3.5244420e-02
  3.8483096e-03
 -1.0283216e-03
 -1.0367155e-02
  1.3380997e-03
  6.2529097e-04
  5.2233925e-04
 -8.7827118e-03
  7.1595654e-02
 -4.7446853e-03
 -2.8054186e-03
  5.6444160e-03
  1.8526178e-03
 -1.4039978e-03
  1.1875656e-02
  1.4573075e-01
  2.1470137e-04
 -4.9698359e-04
 -4.3005035e-03
 -4.1807044e-01
  3.2390158e-03
 -3.8623163e-03
 -1.7033993e-01
 -1.8536452e-05
  1.6467415e-01
 -1.8844048e-03
 -1.8898980e-04
 -3.2987348e-03
  2.8168479e-01
 -6.2323886e-01
  4.3648586e-01
 -1.7796787e+00
 -1.8447162e-01
 -7.6656210e-01
  1.5314294e+00
 -3.3136919e-02
 -1.7168278e-02
 -1.2226722e+00
  1.0713277e+00
 -1.3658699e-01
 -6.3424486e-01
 -1.2280047e+00
  8.6254126e-01
  7.1640599e-01
 -1.1445007e+00
  6.1967963e-01
 -5.7548618e-01
  9.7375292e-01
 -3.6239126e-01
  2.6538581e-02
 -3.6386919e-01
 -7.2437876e-01
  1.0551077e+00
  2.7433491e-01
 -3.7144503e-01
 -4.6057003e-03
  3.3006626e-01
  5.2359398e-02
 -8.0608362e-01
  6.9288343e-01
  5.0767773e-01
 -2.1690221e-03
 -1.3780192e-01
  4.4802314e-01
 -3.7019357e-01
  5.8894861e-01
 -2.5967324e-01
 -5.0607735e-01
  7.0906800e-01
 -1.8006912e-01
 -1.4778689e+00
 -7.4923801e-01
  5.2230012e-01
  8.6522889e-01
 -7.0764065e-01
  7.6901209e-01
 -7.0291430e-01
 -2.0755257e-05
 -3.9164445e-01
  8.8383548e-02
  1.9034766e-02
  1.1317234e+00
 -3.2114878e-01
  6.9977802e-01
 -9.0419623e-04
  3.4197468e-01
  2.1091484e-01
  3.1976345e-01
 -8.0945110e-01
  5.3617430e-01
  6.5661520e-01
  1.1407069e-01
  1.4953539e-01
  1.7029654e+00
  3.3100620e-01
  5.2335471e-01
  1.1928420e-01
  5.3871036e-01
  5.7179119e-02
 -9.0868139e-01
  2.3962090e-02
  1.2855394e+00
  1.2067446e+00
  1.2440555e+00
  7.7201694e-01
 -1.5414180e+00
 -2.4956235e-01
  4.7452119e-01
 -1.2426591e+00
 -5.6058347e-02
 -1.6189582e+00
 -5.0437178e-02
  4.4961920e-01
 -2.6599944e-01
 -6.2639302e-01
 -6.8537766e-01
 -1.7453526e-01
  5.5157435e-01
 -5.1636022e-01
  5.7509547e-01
 -3.1913319e-01
 -7.3816413e-01
 -8.6490959e-01
 -7.2604913e-01
 -3.6104703e-01
  3.7047502e-01
 -1.7245223e-01
  1.1034546e+00
 -9.1922194e-01
  6.9896144e-01
  1.0506854e+00
 -3.6113146e-01
 -4.2144912e-01
 -1.6711991e-01
 -4.6612999e-01
 -3.2784891e-01
  3.4283733e-01
  3.6644191e-01
  1.7848219e-01
  9.4345592e-02
  2.1772930e-01
 -1.0755908e+00
  8.9073509e-01
  5.3261697e-01
 -5.4297334e-01
  3.4580866e-01
 -5.2862751e-01
 -4.2185423e-01
  1.7123425e-01
 -4.6111602e-02
 -2.3278883e-03
  2.6994252e-01
 -1.5015569e-01
 -4.4026452e-01
 -3.1254910e-02
 -7.2791614e-02
  5.0936055e-01
  3.4068525e-01
  7.1591645e-01
 -8.8216085e-03
  4.1423184e-01
 -9.1284253e-02
 -8.3738808e-03
 -4.4939034e-03
  4.2319346e-02
  3.0417153e-01
  2.6223737e-01
 -5.0055820e-02
  1.4721668e-01
  9.6261817e-01
  2.4991743e-01
 -7.5706601e-01
  1.6238226e+00
  3.6839288e-01
  1.9569308e-01
 -4.3156737e-01
 -3.0180615e-01
 -8.1455219e-01
 -1.2042696e-01
  2.6115593e-02
  6.3838273e-02
  1.0417467e-01
  2.3848505e-01
 -2.5273588e-01
  3.4003031e-02
 -3.7185764e-01
 -4.6460259e-01
  6.5497868e-03
  4.9397162e-01
 -3.7819692e-01
 -5.7403988e-01
 -1.8267242e-02
  3.7325922e-02
 -2.7761213e-02
 -6.0664421e-01
 -5.4148149e-01
 -7.5159299e-01
  2.5763300e-01
 -4.8350608e-01
 -2.6583040e-01
  3.6961532e-01
 -6.9157380e-01
 -3.0126423e-01
 -2.9619103e-02
 -1.6489329e-02
  1.6951835e-01
  1.1417747e-01
  1.4415553e-01
  1.0204550e+00
 -1.2802129e+00
  5.4091322e-01
 -3.4408242e-04
  2.0986722e-01
  4.7674116e-01
 -1.1778306e-04
  9.2902619e-01
  8.6087209e-01
 -1.5156983e-01
 -4.0572181e-02
 -1.6667409e-01
 -3.0885130e-01
  7.2994429e-01
  5.7946384e-01
  1.3798703e+00
 -4.0304312e-03
 -1.9500005e-01
  4.6187082e-01
  5.0646460e-01
 -1.7253305e+00
 -1.7313319e+00
 -3.5735270e-01
 -7.5660087e-02
 -1.0431864e-01
 -2.3559874e-01
  1.5803178e-01
 -2.9694834e-01
  1.6266577e-01
 -6.5150005e-01
 -7.0630264e-01
  4.5907807e-01
 -4.0974006e-01
 -1.4553069e-03
 -2.1294904e-01
 -2.5019005e-01
 -4.4623721e-01
 -3.7799779e-01
 -7.0625804e-02
  2.3501314e-01
 -4.8931906e-01
 -6.3323283e-01
  1.5612482e+00
 -4.4502336e-01
 -2.0802732e-01
 -1.5222245e+00
 -2.0865567e-01
 -7.4058735e-01
  9.7078264e-01
  1.0394948e-01
 -2.0050323e-01
 -2.0331196e-01
  4.9490446e-01
  9.8919876e-02
 -1.9864082e-01
 -6.0595906e-01
 -6.7026466e-01
 -3.9491662e-01
 -5.4707664e-01
 -5.5005652e-01
 -7.2019261e-01
  7.3775852e-01
  4.9270085e-01
 -8.4763730e-01
 -5.5320479e-02
 -1.2193520e-01
  7.6409739e-01
 -5.4594976e-01
 -9.1490590e-05
  1.6824346e-02
 -9.9055016e-01
  3.3772242e-01
 -6.7203224e-01
 -5.7054943e-01
  7.2797775e-01
  2.0491441e-01
 -7.3701990e-01
  1.6632751e-01
 -1.4702550e-01
  9.4842417e-03
 -8.9231186e-02
  3.4817364e-02
 -2.0546718e-01
  1.2006880e-02
  3.6357200e-01
 -1.4219172e+00
 -2.9536018e-01
  5.2994597e-01
 -8.6071217e-01
  5.7040721e-01
 -2.7761462e-01
  3.4753755e-01
  2.3488835e-02
  2.8854212e-01
 -4.8971170e-01
 -3.2034749e-01
 -2.8613195e-01
  9.4720185e-01
 -1.1141890e-01
 -1.0891862e+00
  2.5098159e-03
  6.6267513e-02
 -1.8130854e-01
  5.9078310e-02
  1.3863178e-01
  3.8701278e-01
  7.4855322e-01
 -4.2525998e-01
  1.2611836e-01
 -2.0778146e-01
  6.2613286e-02
 -2.0006919e-01
  1.0654531e-01
 -7.1145213e-01
  2.8019339e-01
  6.5701067e-01
 -1.1727966e-02
 -1.1197469e-01
  3.9009541e-01
 -7.6332562e-02
 -2.0672858e-03
  4.4270974e-02
 -2.1981335e-01
 -1.6458613e-01
 -1.2234932e+00
  2.3536520e-01
 -2.8747156e-01
  5.6017596e-02
  6.6564524e-01
  1.3660141e+00
  2.1410178e-01
 -7.2116159e-02
  5.0745558e-02
  1.8421384e-02
 -2.0696115e-01
  4.0459332e-01
 -7.8914613e-01
  4.9350572e-01
 -3.3851001e-01
  2.1843453e-01
  1.9494677e-01
  3.4501623e-02
 -3.1918558e-01
  5.1823634e-01
  6.0354457e-03
  1.2266035e-01
 -5.4509038e-01
 -3.3344847e-01
  9.0683490e-01
  4.0323859e-01
 -3.5529722e-02
 -2.6398453e-01
 -8.0354393e-02
  1.7567079e-01
 -3.7852219e-01
  5.4609591e-01
  7.0378967e-02
 -2.2090203e-01
 -1.9549501e-01
 -6.3071674e-01
 -2.2866863e-01
 -2.4163507e-01
  2.0226965e-02
 -6.3763535e-01
  1.0387297e-03
 -4.6315268e-01
 -1.1067083e-01
  6.2536940e-02
  3.2000422e-01
 -2.0306581e-01
 -4.7412497e-01
 -1.8686539e-01
 -5.3843223e-02
 -3.8205773e-01
  3.8131472e-01
 -6.4712811e-01
  1.9361199e-01
  3.2837829e-01
 -1.7498296e+00
 -1.9337854e-01
  5.0641227e-01
 -2.3248567e-01
  1.9797222e-01
 -1.0977802e-01
  2.2183679e-01
 -3.0052823e-01
  6.6748761e-02
 -1.1460323e-01
  1.8353379e-01
  3.5995519e-04
 -1.0262012e-01
 -2.0215572e-01
 -1.6125388e-02
  1.5424317e+00
  1.0547574e+00
 -3.1477258e-01
 -3.0578638e-03
  1.3685869e-01
  4.7466215e-01
  4.6412823e-01
  4.5423856e-01
  6.8131002e-04
  1.0128295e-01
  1.5660958e+00
 -3.0187249e-01
  5.2448523e-01
 -2.0734331e-01
 -4.8183778e-01
  1.4117606e-01
 -1.3457099e+00
 -8.5252605e-02
  4.8819163e-01
 -7.6404649e-01
  4.4232455e-01
 -2.1530570e-01
 -1.4152701e-01
 -1.6606615e-01
  1.1054502e+00
 -1.1805011e+00
  4.4783908e-03
  2.0486647e-02
 -2.5548160e-01
  6.7674750e-01
 -7.3688549e-01
  2.7288747e-01
 -3.5172710e-01
 -2.7146336e-01
  4.4329774e-02
  9.7504520e-01
 -4.5728010e-01
 -2.5462526e-01
  6.6858655e-01
 -9.2848293e-02
 -1.8463035e-01
  2.9763356e-01
  1.3276486e+00
  8.7315224e-02
  3.7777614e-02
  3.2016942e-01
 -2.9809126e-01
 -1.1195228e-01
 -4.1925553e-02
  1.5008092e-01
 -8.2728751e-02
  4.8470941e-01
  3.2031485e-01
  2.8463706e-01
 -3.7497398e-01
  1.0230432e-01
 -1.3536480e-01
 -1.6060062e-02
  3.0949529e-02
  6.4560825e-01
  3.5279387e-01
  5.3147131e-01
 -1.0681659e-01
  1.0071594e-01
 -1.4369537e-01
 -9.0106480e-02
  7.6409137e-01
 -6.0382062e-01
  2.6455942e-01
 -6.6659945e-01
 -1.4165115e-01
 -4.1734666e-01
 -5.7024860e-01
 -5.0342463e-02
  8.2888508e-01
  5.2913126e-02
 -6.4725010e-03
  7.8910333e-01
 -1.7583961e-02
  7.9491937e-01
  4.9085933e-01
  1.9165999e-01
  2.3101395e-01
  1.8848574e-01
 -3.5846400e-01
 -4.8417065e-01
  6.9921380e-01
  2.0202627e-02
  1.6963662e-01
  1.5769492e-01
 -7.8259274e-02
 -5.1790166e-01
 -9.3648124e-01
  3.3573884e-01
 -7.8896528e-01
  9.2261416e-01
 -1.4977224e-01
  1.7032453e-01
  6.2232292e-01
 -3.5214233e-01
  6.4256066e-01
  5.6950346e-02
 -1.9844407e-01
  4.4052643e-01
  5.2735990e-01
 -1.9363639e+00
 -2.3329563e-01
 -6.4097273e-01
 -3.4026408e-01
  2.4270143e-01
  2.8987610e-01
 -5.1890409e-01
 -7.6558113e-02
 -4.1479596e-01
  7.9005569e-01
 -4.0362233e-01
  1.2939687e-02
  5.6168890e-01
 -5.4960608e-01
  7.4140030e-01
  1.4678698e+00
 -5.7981294e-01
  1.5245939e+00
  5.5141115e-01
 -1.4374933e+00
 -2.9255086e-01
 -1.5053798e-02
 -7.5210863e-01
 -5.9830254e-01
 -6.2745905e-01
  9.4843023e-02
 -3.6575580e-01
 -2.8811786e-01
 -2.3086327e-01
 -1.3470970e-03
  2.8091303e-01
 -2.2866921e-02
 -2.6353365e-01
 -4.1299000e-02
 -7.0669305e-01
 -2.3536241e-01
 -8.4160322e-01
  2.0943300e-01
  2.1276593e-01
 -1.4692934e-01
 -7.7566318e-03
  1.2806172e+00
 -4.3498167e-01
  5.1734209e-01
 -5.6163675e-01
 -4.8324579e-01
 -5.2083537e-02
 -8.6207694e-01
 -7.4500883e-01
 -3.2390509e-02
  7.1441048e-01
  2.0081874e-02
  4.0294896e-03
 -4.8138359e-01
  4.3979219e-01
 -1.8289217e-01
 -4.7460437e-02
  5.5620641e-01
  1.1195621e-01
 -1.8055961e-01
  7.8369325e-01
  6.1683232e-01
 -2.9664513e-01
  1.2870531e-01
 -1.0925720e+00
  5.5204052e-01
  7.5977516e-01
  7.9801418e-02
  3.5057810e-01
 -2.8079087e-01
 -2.5030136e-01
 -8.5257250e-01
 -8.2578826e-01
 -4.3644834e-01
  2.1662332e-01
 -4.8668724e-01
  8.7525710e-02
  1.5339288e-01
 -4.2604133e-01
  8.6061120e-02
 -2.9637045e-01
 -2.9936951e-02
 -1.2382859e-02
 -3.1741241e-01
 -1.3445038e-01
 -6.4010268e-01
 -4.5380682e-01
  8.8590488e-02
 -6.3492930e-03
  1.6140658e-01
 -3.8421661e-01
  2.6160467e-01
 -5.3210966e-02
  2.6761688e-02
 -3.1214479e-01
  3.7272681e-02
  9.3498729e-02
 -6.7373663e-01
 -6.0298735e-01
  5.3982294e-01
  1.3969351e-02
  1.1523619e+00
 -1.9499761e-01
 -8.4864751e-02
  2.9590470e-01
  8.9367795e-01
  2.0651782e-01
  7.7998722e-01
  4.4946123e-02
 -9.8827660e-02
  3.1501108e-01
 -2.0658056e-01
  3.8059044e-01
  1.0380514e-01
 -2.4147570e-01
  1.1078725e+00
 -1.4016620e-02
  5.4974675e-01
 -1.6560355e-01
 -4.5523439e-02
  4.8066828e-02
 -6.9661468e-02
 -1.0030082e-01
 -1.3576465e-04
  7.8273970e-01
 -6.3712761e-02
  1.4569332e-01
  1.3419970e+00
 -3.2584466e-02
  1.8890500e-01
 -9.4657159e-01
  1.3293809e-01
  1.0598353e-01
  2.8860384e-01
 -3.9211762e-05
  1.2366625e+00
  1.3548605e-01
  1.1104791e+00
 -1.0869210e-01
  1.9173506e-01
 -9.2055820e-02
 -1.1218389e-02
 -1.8522507e-01
  8.3578646e-01
  6.0243160e-01
  4.9476546e-01
  2.8626236e-01
 -6.6619597e-02
  4.0691700e-02
  8.4472351e-02
 -3.3394000e-01
 -5.4506931e-02
  4.3287745e-01
  1.6083769e+00
 -5.6123888e-01
 -2.3561661e+00
  3.2267964e-01
 -9.4331704e-02
 -5.7016367e-01
 -3.6452457e-01
 -4.9263075e-01
 -8.7710458e-01
 -1.7017774e-01
  1.3144377e+00
  1.4156920e-01
  1.0015539e+00
  9.4936109e-01
  6.9472563e-01
  1.1866254e-01
 -1.4253658e+00
  2.3827074e-01
  4.1897610e-02
  1.1418764e-01
 -6.3096955e-02
 -1.5892474e-01
  3.5187417e-01
 -2.6955644e-02
 -3.2866105e-01
  1.2085037e+00
  6.9470994e-02
 -4.9766040e-01
  9.7708398e-01
 -2.1891828e-01
 -5.1778769e-01
 -3.5055062e-01
  9.6667135e-01
 -1.9329379e-01
  1.3176134e-01
  5.7604390e-01
 -1.8729617e-01
  2.8518477e-01
  3.1299317e-01
  4.8379382e-01
 -3.2414377e-01
  1.5820991e-01
 -8.0447114e-01
  5.2887434e-01
  5.0451238e-02
  1.2172183e+00
 -6.5409237e-01
 -4.1021338e-01
 -1.9378448e-01
  9.3730736e-01
 -3.1785938e-01
  3.3188355e-01
 -6.8279845e-01
 -7.5016133e-02
  1.1683804e+00
  3.1214494e-01
  3.4141353e-01
  1.8342538e-01
  7.0663668e-02
  2.7694479e-02
 -2.2861457e-01
 -9.0603314e-02
  4.0372422e-01
  1.8248603e-01
 -1.5659978e-03
  6.7263827e-02
  6.8221837e-02
  3.5279575e-01
 -3.4689903e-02
 -4.6153146e-01
  4.2738092e-01
  1.3903719e-01
  2.3437780e-01
 -8.6469121e-02
  1.4396808e-01
 -3.3114224e-03
 -7.2969939e-03
  1.5394744e+00
 -6.7082785e-02
 -3.9463359e-01
  4.4806328e-01
  1.2265906e+00
 -1.1513401e+00
 -3.6444202e-01
 -1.0782903e+00
 -1.0756149e+00
 -1.2216285e-01
 -3.6944690e-01
 -9.0948021e-01
 -3.5523748e-01
 -1.0217401e+00
 -1.2194158e-01
 -5.5429405e-01
  4.7697482e-04
  4.3240782e-02
 -2.7153778e-01
 -4.3409351e-01
 -6.1075687e-01
 -1.1328742e-02
  1.3882746e-02
 -2.4501644e-02
  2.7550930e-01
 -2.8628883e-01
 -7.2910659e-02
  2.7668163e-01
  2.1268681e-01
  3.2130858e-01
 -4.1338834e-01
  6.0313725e-01
  6.3099689e-04
 -4.3296254e-01
  9.1311795e-01
  5.2792859e-01
  9.4491867e-03
  7.0995023e-03
 -1.2194474e-01
  1.5726979e-03
  1.7990157e-01
  1.6292568e+00
 -3.4560451e-01
 -3.7495065e-03
 -3.8807940e-01
  1.2373267e+00
  2.4472579e-01
  9.6573296e-04
  3.8239697e-01
 -1.1792974e+00
 -1.8319148e-01
  4.4368449e-01
  7.5400854e-03
  8.0677249e-02
  1.1136886e+00
  8.4174436e-01
  2.8160587e-02
  4.2280459e-01
  6.4032632e-01
 -2.7543516e+00
 -1.8672910e+00
 -2.2895674e-01
  1.6928123e-02
 -3.9718166e-02
 -6.8128771e-01
  3.2233796e-01
  1.9757637e-01
  2.6449835e-01
 -1.0934509e-01
 -7.9340208e-01
 -6.3798286e-02
 -2.9365641e-01
 -1.4982615e-02
  4.2504427e-01
 -7.1769744e-01
  2.6687518e-01
 -5.1421040e-01
 -3.3277314e-02
  5.1699013e-01
 -4.2324343e-01
  1.5025473e-01
 -7.3904508e-01
 -4.4463170e-01
 -1.7295371e+00
 -3.7961334e-01
  5.7753915e-01
 -2.4606237e+00
 -6.4853382e-01
 -2.8619418e-01
  7.4852169e-02
 -8.4514432e-02
  1.0808385e-01
  2.0065068e-01
 -3.5822818e-01
 -6.3114130e-01
  3.3213273e-01
  1.3269731e-01
 -4.2585816e-02
 -4.4502583e-01
 -9.8334557e-01
  1.3297601e+00
  6.7436689e-01
  4.5431103e-03
  9.4091110e-02
 -4.4758743e-01
  1.0155253e+00
 -7.0991032e-02
  1.1588816e-03
  5.4613949e-04
  1.3017865e-03
  1.8328975e-01
 -3.5737216e-01
  2.9115283e-01
  3.1376231e-02
  1.5730178e-01
  5.9931588e-01
 -1.9693801e-02
  3.2470122e-01
  1.5920641e-01
 -5.0535211e-03
 -5.6870115e-01
  1.8065111e-01
  4.5024093e-02
  9.3553764e-01
 -4.2553073e-01
 -3.2817206e-01
  1.0930321e+00
  1.0360931e+00
 -1.2209723e+00
  8.2468677e-01
 -1.6108507e-02
 -3.0084437e-02
  3.1348720e-01
  4.9553391e-01
  5.5095768e-01
 -1.8995672e-02
  2.2126243e-01
  1.1399912e+00
  1.6346510e-01
 -3.6843836e-01
  5.0511056e-01
  1.2573777e+00
  2.5573772e-01
 -6.1245680e-01
  1.7020755e-01
  1.1359147e-01
  4.5729169e-01
  9.5287055e-01
 -3.8814574e-01
 -7.5361848e-01
  8.5383302e-01
  8.4677559e-01
  2.4809140e-01
 -6.7404521e-01
 -9.9515788e-02
  2.3762441e-01
  1.4157400e-03
  4.6718925e-01
 -2.3174152e-01
 -1.0531809e+00
  8.5037190e-01
 -2.2072313e-04
 -3.5454723e-01
 -3.8930106e-01
 -3.2012668e-01
 -4.3049335e-01
 -2.7049485e-01
  3.3399287e-01
  7.4698251e-01
  7.3741001e-01
 -4.4610989e-01
 -8.8370629e-02
  3.2264462e-01
 -5.4176053e-05
 -1.9303662e-01
  4.1513836e-01
  5.0607520e-01
 -1.9279121e-01
  3.0057266e-01
  3.5448122e-01
 -9.6467987e-02
  1.7214608e-01
  9.0093005e-01
 -4.1234405e-03
 -1.8822581e-01
  5.6766433e-01
 -3.5528669e-01
 -2.3305397e-02
  7.1988642e-02
  7.7476537e-01
  1.2219204e+00
 -2.7381024e-01
  1.0422941e+00
  5.0730920e-01
 -2.6669335e+00
 -4.0402034e-01
  4.1358650e-02
  2.2034770e-01
 -1.2942895e-01
 -6.0565591e-01
  4.8562345e-01
 -4.8890492e-01
 -5.8189607e-01
 -3.1880608e-01
 -5.4814446e-01
  1.2717198e-01
 -4.8861924e-01
 -5.6120062e-01
  5.7361221e-01
 -6.0641980e-01
 -6.6147310e-01
 -2.8300324e-01
 -9.7113155e-02
  1.6096975e-01
 -3.7912142e-01
 -3.9443517e-01
  4.0422801e-02
 -1.1438228e+00
 -3.9581966e-02
 -1.9767480e+00
  1.5839501e-01
 -5.7901997e-02
 -1.3434238e-02
 -2.6891673e-01
  7.8576887e-01
  3.2686397e-02
 -3.1723863e-01
 -1.0932196e+00
 -7.1562147e-01
 -2.2398616e-01
 -7.2020650e-01
  4.7860146e-01
  5.3278589e-01
 -7.1325772e-03
 -4.0912998e-01
 -1.3177668e+00
  9.0224189e-01
 -7.3643428e-01
 -8.4906536e-01
  1.2191132e-01
 -1.6612554e+00
  3.5455748e-01
 -3.7131852e-01
  1.4610111e+00
  1.6611191e-02
 -1.0877143e+00
  2.2879471e-01
  3.8349763e-01
  1.8248275e-01
  2.6242974e-01
 -1.2897743e-01
  1.5194914e-01
 -2.2113594e-01
 -1.8659851e-01
 -1.1283170e+00
  5.0828125e-02
 -1.4051706e-01
  1.3170259e+00
  1.1217964e-01
 -8.8559315e-02
  3.1131691e-01
  1.2295684e-01
 -7.6650256e-01
 -3.5305756e-01
 -3.9669290e-01
  1.0080259e-01
  1.0349359e-01
  1.7270169e+00
  3.4953332e-01
  9.3732744e-02
  2.1254511e-01
  7.6900691e-02
  8.8859305e-02
 -9.0331420e-02
 -1.6046536e-01
  4.3894076e-01
  8.5610139e-01
  7.4643070e-01
 -3.7387986e+00
  1.5425426e+00
 -9.1319335e-01
 -6.1343509e-01
  5.7235366e-01
  8.1549937e-01
 -1.8035443e+00
 -8.0655342e-01
  4.9351165e-01
  2.2152660e+00
 -3.1996992e-01
  4.0210301e-01
 -1.8449426e-03
  1.0565259e+00
 -2.7241245e-02
  1.2660713e+00
  1.2109838e+00
  5.7054389e-01
 -1.6022611e-01
 -2.8144309e-01
 -8.2050487e-02
 -9.7355294e-01
  1.0896976e+00
 -4.1819341e-03
 -1.1805083e+00
  1.3584340e+00
 -1.0596907e+00
  1.7254126e+00
  5.8909416e-01
 -9.8460382e-01
 -1.5517560e+00
  4.5779361e-03
 -8.9334346e-02
 -3.7026370e-01
  3.0708027e-01
  5.4437723e-03
  1.9931947e-01
  5.4745996e-01
 -1.1215245e+00
 -2.1875699e-01
 -1.2093314e+00
  1.2656191e-02
 -4.0128565e-01
  1.6674304e-01
  1.0704779e-01
 -6.6470194e-01
  8.6816174e-01
  8.3873135e-01
 -3.8122717e-01
  4.9273336e-01
 -2.2554022e-01
 -4.5744333e-02
  2.0866583e-01
 -4.7189611e-04
  6.8360299e-02
  1.1552296e+00
 -1.3886187e+00
 -7.4758375e-01
 -2.1474836e+00
 -1.7198090e-01
 -1.1693462e+00
  2.6532051e-01
 -7.3881680e-01
  3.3342454e-01
 -5.1020879e-01
  2.7979049e-01
  7.6419085e-01
 -8.0379468e-01
 -3.5141066e-01
  9.4363093e-01
 -1.5746617e-01
  3.3823904e-01
  6.1987859e-01
  1.8461859e-01
  1.1056075e+00
 -3.8342934e-02
  1.0101622e+00
 -2.3125824e-01
  7.9522824e-01
  9.1751748e-01
  5.4082656e-01
 -5.3707260e-01
 -2.2622490e+00
  1.0987762e+00
 -4.2416383e-02
  9.4885468e-02
 -1.5055731e-01
  7.0884836e-01
 -7.8551632e-01
  4.3576881e-01
  8.6256677e-01
 -3.6849964e-01
  9.0197928e-02
 -5.4615211e-01
  1.0500656e+00
  7.3997605e-01
  5.8202848e-02
 -9.4457395e-02
  4.9806298e-03
  1.0061460e+00
  5.0996840e-01
  1.1801019e-01
  2.8453332e-01
  1.3822666e-01
  1.4819797e+00
  5.5812329e-01
  8.4272641e-01
  5.2691728e-01
 -8.9383447e-01
 -2.3083374e-01
 -1.7174114e+00
 -3.4669527e-01
 -1.0001009e-01
 -2.6579902e-01
 -8.9068604e-01
  5.7059608e-02
 -4.2172047e-01
 -8.7640963e-02
 -3.2650210e-02
 -3.5140797e-01
 -2.0484287e-01
 -1.8462309e-01
  2.8914268e+00
 -1.7427900e-01
  8.0643755e-01
 -5.0995177e-01
  1.2886487e-01
 -5.7093471e-01
  9.0235874e-02
 -2.8042454e-01
 -6.2353021e-01
  7.0498715e-04
 -5.2013767e-01
  2.0461504e+00
 -3.9692703e-01
  1.2010176e-01
 -3.2738259e+00
  9.1041809e-01
  1.4004874e+00
  2.6621380e+00
 -1.0018410e-01
 -4.8530787e-01
 -8.1163222e-01
  7.6898336e-01
 -5.4734313e-01
 -3.1893644e-01
 -6.0470450e-01
 -1.6070472e+00
  4.5746601e-01
  5.0447863e-01
