nep4 15 Li B O Al Si P S Cl Ga Ge As Br Sn Sb I 
cutoff 7 5 199 74
n_max 6 4
basis_size 8 8
l_max 4 0 0
ANN 30 0
 -9.8078130e-03
  9.0017945e-01
  6.4619642e-01
  3.3702743e-01
  5.2771151e-01
 -5.3274769e-01
 -9.6873403e-01
 -2.3646539e-01
  1.7771680e-03
 -1.7829561e-01
  8.4759519e-02
 -5.8509838e-02
  5.9298947e-03
  5.2505904e-01
  2.2740985e-01
  4.2722192e-02
 -5.2415538e-01
 -4.4805878e-01
  4.4978544e-02
  3.2643026e-01
 -1.4408724e-02
 -2.0844126e-01
 -3.2745904e-01
 -5.6494433e-01
  3.0944964e-01
  4.0100370e-02
 -2.4430698e-02
  1.9859298e-01
  5.0618342e-05
 -2.0589405e-03
  2.3698272e-02
 -2.3542643e-01
  1.2443811e+00
 -5.4209387e-01
  1.3700221e-01
  4.3664488e-01
 -1.4920224e-01
  3.7336743e-01
 -2.2191744e-02
  9.4415680e-02
 -1.1684974e-03
  4.6725807e-01
  1.0175679e-02
 -4.9740676e-04
  4.4943816e-03
 -5.9176394e-04
  2.0269930e-01
  7.5937256e-05
  7.2692959e-03
 -1.2796149e-02
  2.5045994e-04
  9.9662071e-01
  4.2879544e-03
  3.9613969e-03
  5.6777708e-02
  3.2848111e-01
 -3.5983748e-03
  6.3750952e-01
  1.9163141e-02
  6.2612498e-01
 -4.5504338e-01
 -1.3914134e-01
 -1.0215019e-01
  1.6491462e-01
  1.2408532e-01
 -3.0756181e-01
 -1.7313734e-01
 -4.8503384e-01
 -2.3694240e-01
 -5.3445625e-01
  1.4854749e-01
 -1.6332573e-01
  8.1702255e-02
  4.0182881e-02
 -2.8624517e-01
  9.3078703e-02
 -1.4331879e-01
 -2.7215290e-01
  5.1149562e-02
 -8.5741520e-01
  1.9553323e-04
  5.6686622e-01
 -2.8131790e-03
 -1.5724679e-02
 -4.3226022e-01
 -2.5458688e-01
 -9.8343663e-02
  8.5571162e-02
  9.2792310e-02
  2.4533136e-01
  1.0842676e-01
  9.3427189e-02
 -5.2504897e-02
  2.9828042e-01
 -1.9460028e-01
  2.2254551e-02
  1.7927693e-01
  7.5714441e-04
  2.2147211e-01
  2.7760893e-01
  2.4483681e-01
  3.4594223e-01
 -2.7625409e-01
  1.1747313e-01
 -8.1833325e-02
  9.6269939e-03
  5.9353891e-03
  7.4413558e-04
  6.6012943e-01
  7.3476247e-02
  5.0115407e-01
 -1.3624980e-01
  5.1421541e-01
  2.9536656e-01
 -2.4675585e-01
 -3.4058511e-01
 -1.0244380e-01
  2.1713923e-01
  2.2738259e-02
  2.0426724e-03
 -3.1316847e-02
  3.0534029e-01
 -1.8940374e-01
 -1.5341078e-02
 -3.3652414e-02
  1.4713126e-01
  7.7051935e-03
  2.9034527e-02
  4.0385760e-03
  3.9585933e-02
 -1.3418079e-03
 -1.1988263e-01
  2.2634281e-01
  2.4617560e-02
 -2.0136030e-03
 -1.0867728e-01
  1.4988437e-03
 -2.9540807e-04
  5.6297571e-04
 -1.7246374e-04
  1.7860194e-01
  1.5399542e-01
 -3.0336558e-04
 -8.3362154e-04
  4.0989366e-01
 -9.5524639e-04
 -2.2120995e-03
  3.3163384e-03
 -3.1955740e-03
  1.4962255e-03
  8.4416218e-02
  1.9945323e-03
  3.6057162e-03
 -2.3412384e-02
  2.4410219e-01
 -9.9783372e-03
  7.7191246e-05
 -1.0773303e-03
 -2.2148542e-02
 -6.4788193e-01
 -3.7274599e-02
  4.3944694e-04
 -1.2150409e-02
 -6.3406089e-03
 -1.8436313e+00
 -1.4352920e+00
 -5.4338507e-02
  1.4526484e+00
  3.2821493e-04
 -1.4035660e-01
 -1.4784105e-01
 -1.5641135e-01
  2.2376779e-01
  4.6106037e-01
 -4.1529483e-01
 -2.9173049e-01
 -1.1666071e-01
  2.3888092e-01
 -4.7643012e-01
 -5.2426779e-01
  1.4581676e-01
  5.2005749e-02
 -1.6052772e-01
 -3.8623768e-01
 -1.4036351e-01
 -1.2695397e-01
  9.0406701e-02
 -4.1644713e-03
 -3.4961123e-02
  9.3420453e-02
  1.2471218e-03
 -1.9895520e-02
 -3.0204933e-02
 -5.7018824e-02
 -5.0496273e-02
 -2.1487139e-03
  3.0285835e-01
  3.8725749e-02
 -2.0722335e-02
  6.5168627e-02
 -4.8277592e-03
  9.6524559e-02
  1.6764548e-03
 -6.1946204e-03
 -1.8323814e-02
 -1.8335088e-03
 -2.4977960e-03
  2.0329063e-04
  6.5146841e-02
  3.2543253e-02
 -3.3024743e-02
  3.7860447e-03
  4.8904202e-04
 -8.5571773e-02
 -2.0113355e-02
 -1.2843726e-02
 -3.8420704e-01
 -1.3372800e-03
 -1.4726274e-02
 -5.9421110e-04
  8.0583596e-01
 -2.0417643e+00
 -7.9228856e-02
 -2.1027811e-01
 -2.9614672e-02
 -7.5632769e-01
 -4.5501876e-01
  4.8416754e-04
 -9.4758026e-02
  1.4710510e-03
 -7.7665663e-01
 -2.0818320e-01
 -3.9746981e-02
 -5.4296866e-02
 -1.2440729e-03
 -8.2227129e-01
 -1.2051851e-01
 -9.0441368e-05
 -4.5400909e-03
 -8.7697635e-04
 -7.6527297e-01
 -7.0147768e-02
 -1.8418065e-03
  2.1943778e-01
  2.0363644e-02
 -6.7273341e-02
  1.1311876e-04
 -1.2049180e-01
 -7.3226005e-02
 -1.0430051e-01
 -1.2861839e-02
  5.6749648e-01
 -2.7448028e-01
  3.6244422e-01
 -1.1182220e-01
  7.7143535e-03
  7.0274267e-03
  3.0052334e-01
 -1.4505140e-03
  4.8222557e-02
  8.4754908e-03
  2.4434271e-01
  2.7248202e-02
  3.4377496e-03
 -8.4626243e-02
 -1.2600935e-03
  8.0790371e-02
 -3.1941071e-01
 -2.2999445e-04
 -4.6470389e-03
 -1.4987916e-01
  1.8559995e+00
  4.9287748e-01
  7.6701206e-01
  7.4752696e-02
  1.0236271e-01
 -3.0143867e+00
  4.7939513e-02
 -4.5157015e-02
 -7.9686577e-03
 -5.6152090e-02
 -6.6078849e-02
  4.5755871e-02
  2.4776481e-01
  4.6473840e-01
  2.0477677e-02
  4.9454495e-02
  1.4870676e-01
  2.3540641e-01
  2.5573927e-01
 -6.4026350e-03
 -7.2435215e-02
 -3.9385159e-02
  4.1348618e-01
  5.8439638e-02
  1.1070768e-01
  3.0388087e-01
 -3.9701375e-01
  1.1316348e-01
  5.5918354e-01
  7.6696557e-01
  7.0648265e-01
  8.0134147e-01
 -5.6297380e-01
 -4.6637478e-01
  1.8869598e-03
 -1.0971863e-01
  1.2393326e-02
  2.5092429e-01
 -8.4532410e-01
 -2.4310078e-01
 -8.8121429e-02
 -2.1654425e-02
 -4.5322910e-02
 -1.2546979e-01
 -4.4420111e-01
 -6.5828445e-03
 -8.8932980e-03
  5.3687114e-02
 -1.3538638e-01
 -1.0732438e-01
  4.5109387e-02
  1.9621834e-01
 -7.2899670e-04
  3.4408951e-01
  2.5268492e-01
  2.4629350e-01
 -5.3214985e-01
  3.9660063e-04
  4.2347458e-01
 -2.3611155e-01
  1.6358130e-01
 -3.6734235e-01
 -2.6132989e-01
  6.0702682e-01
 -1.5308843e-02
  7.2869182e-02
  1.1788702e-03
 -1.2587687e-01
  7.0473242e-01
  1.1776992e-01
  7.1747504e-02
 -1.6605507e-01
 -2.2637062e-01
  1.2804787e-01
  1.0893302e-01
  9.5113039e-02
 -1.2113615e-03
 -3.1099069e-01
 -8.1396306e-01
  1.3422057e-01
  6.1553669e-01
  6.9354763e-03
 -2.4976427e-02
  2.0895604e-02
  4.4288621e-03
 -6.7365959e-02
  6.6286907e-02
  3.6130231e-03
 -6.7937756e-01
 -4.2343333e-02
  8.2699478e-02
  2.0076213e-03
 -7.0573163e-04
 -1.8483405e-03
  4.9302876e-02
  3.5332859e-01
 -5.4895733e-03
  5.3475447e-02
 -1.0197747e-01
  6.2536836e-01
 -1.5783982e-01
 -4.6356484e-02
  2.0549378e-01
 -2.5750685e-03
  7.0787954e-01
 -1.0378357e-01
 -2.8108066e-04
 -2.7402908e-01
 -8.9459264e-01
 -3.3039376e-01
 -6.8309098e-01
 -2.5999320e-01
 -1.4167096e-01
  3.4730294e-01
  1.8372685e-01
  6.4924538e-02
 -2.4970850e-02
  3.2612797e-02
  3.2034349e-01
  4.3846765e-01
  3.7285537e-01
  1.2921715e-01
  1.6247402e-01
  5.5271184e-01
 -5.0999127e-02
  1.6270106e-01
 -6.9035515e-02
  1.6680695e-01
  6.3743412e-01
  6.4982609e-03
  1.0558490e-01
 -1.6952395e-02
  1.6730475e-01
  4.7570178e-01
 -6.9943266e-03
  1.1880002e+00
 -3.7004571e-02
  4.0061313e-01
  8.3824582e-02
 -2.0255746e-01
 -1.0250612e+00
  2.2778685e-01
  1.8465340e-01
  1.0880232e-01
  2.3575541e-02
  4.4814572e-01
  4.9724057e-04
  2.3923413e-01
 -2.8132716e-01
  2.0861666e-01
 -1.9260640e-01
 -4.4846419e-02
 -5.1795491e-03
  3.6045906e-01
 -5.1409613e-02
  4.9170172e-03
 -2.3462996e-03
  9.9632016e-04
  1.9281772e-01
  2.2741507e-01
 -2.6879231e-03
 -1.4634430e-03
 -4.4310546e-01
 -9.2678869e-01
 -2.7406130e-03
 -1.0988772e+00
  1.3826054e-01
  4.7039682e-01
  6.9862294e-06
 -2.5947472e-01
  2.3361224e-01
  3.2106642e-02
  2.1554008e-01
  3.5334066e-02
 -4.5731537e-02
  1.5369701e-01
  4.0898809e-01
  3.8712496e-01
  1.1859661e-01
 -2.0179226e-01
 -2.1751603e-01
  5.4757261e-01
  5.7098317e-01
  1.7849818e-01
  9.1814488e-02
 -1.2084925e-01
 -1.3304487e-02
  3.7388556e-02
 -5.7506317e-01
 -1.3675599e-01
  5.8455322e-02
 -2.5999579e-01
 -2.1947004e-01
  5.0926745e-01
 -5.2505112e-03
 -2.1621925e-03
 -2.9579264e-03
 -4.1215748e-01
  6.3627914e-02
 -6.1340398e-01
 -3.3127032e-03
  8.2839780e-02
 -2.7671567e-01
 -1.8867552e-01
 -1.3604636e-01
 -1.7964800e-01
  3.7080035e-01
  1.9926745e-01
  7.6689250e-03
 -8.8942170e-02
 -2.0062806e-01
  3.2800313e-02
  5.8036894e-01
  2.5232874e-02
 -8.5433898e-03
 -2.3990771e-01
 -2.3698886e-01
 -1.0478083e-01
  3.4575358e-01
 -2.5767413e-01
  1.8281989e-01
  7.6965129e-01
 -3.3166076e-03
  1.0852234e-02
  4.4394249e-01
 -1.0375144e-01
  1.7876966e-01
 -1.6805099e-03
 -1.2677928e-02
 -4.6425435e-01
 -4.0403420e-01
  7.4396688e-03
 -1.1659750e-02
 -9.7975060e-03
 -5.8096910e-01
 -3.4771276e-01
  6.4340699e-03
  5.9796934e-04
  1.2998154e-03
 -2.1028002e-01
 -8.8061698e-02
  1.3931580e-03
  3.9983961e-01
  1.2907127e+00
  8.4427100e-01
  3.1151369e-01
 -2.7283165e-01
 -2.4900906e-01
 -2.7835562e+00
 -1.1075906e-01
  1.6627155e-01
 -5.3855795e-02
  1.7813100e-02
 -5.6316155e-01
  3.4988925e-01
  3.4108270e-02
  2.2327426e-01
  1.3138480e-01
 -1.0431544e-01
  8.6173899e-02
 -4.9033862e-02
  5.1881021e-01
 -4.0033162e-02
  6.0455203e-02
 -1.7785271e-01
  1.6848779e-01
  3.6254120e-01
  5.9410278e-03
  9.9506818e-02
  3.4495738e-01
 -4.3000796e-01
 -5.8604676e-01
  1.4958948e-01
  2.8372364e-02
  4.7202817e-01
  4.9130479e-01
 -2.4706315e-01
  1.3431454e-03
  3.5853155e-02
  3.1096965e-01
 -1.8947800e-01
  1.2955895e-01
  8.2880026e-03
  4.6060853e-02
  2.4877982e-01
  7.7927281e-04
  1.3101432e-01
  4.1550088e-01
  1.0107885e-01
 -1.2237525e-01
 -1.6474843e-01
 -6.5590747e-02
  4.2642154e-02
  2.7921337e-01
 -1.6636340e-01
 -2.3567291e-01
  5.3440869e-02
  4.2951938e-02
  1.1254775e-03
 -1.4411967e-01
 -1.0590872e-03
  5.5094218e-01
 -6.9617492e-04
 -8.5605130e-02
 -1.4611462e-01
 -1.1270405e-01
 -7.5568542e-02
 -1.1458485e-01
 -1.2903389e-02
 -2.0817797e-01
  3.2985160e-01
  1.1403907e-04
  9.9263443e-03
 -2.5160758e-02
 -8.3902013e-01
  1.0430886e-02
  8.8161968e-02
 -7.4047528e-02
 -2.9639879e-02
 -5.2648287e-02
  3.4708503e-01
  2.9407140e-02
 -9.7696558e-02
  9.3294839e-05
  4.6761884e-04
  8.6955049e-05
  1.5705025e-03
  1.8772813e-03
  4.4126439e-01
  3.0933434e-01
 -1.1111008e-03
 -6.2987750e-04
 -1.0091006e-03
 -5.4634461e-04
  6.0312063e-03
 -1.5681153e-03
  3.5217346e-03
 -9.7120158e-02
  7.7197485e-04
  1.2056165e-03
 -2.5001178e-03
  2.3217790e-03
 -6.3808054e-02
 -3.1077396e-04
  6.5538625e-04
 -3.5497521e-03
 -2.0785368e-04
 -1.7437838e-02
 -9.2513411e-04
  3.3810482e-04
 -4.2968562e-01
 -2.0131720e-03
 -9.8191246e-02
  1.0003725e-03
 -3.6150930e-04
 -8.0034584e-01
 -1.1894356e-01
  5.4852976e-03
 -3.0511077e-03
  4.3679114e-02
  1.9269167e-01
 -2.1468508e-03
  1.3760529e-01
  1.7958945e-01
  3.6482150e-03
  8.4352978e-02
  8.9239696e-04
  2.0368477e-04
  6.1165309e-01
 -1.5695103e-01
 -6.1677035e-02
 -7.7923201e-03
 -1.6365731e-03
  9.7606290e-04
  3.5804129e-01
 -8.3289362e-02
  2.9999677e-03
  8.4211351e-04
 -2.5407907e-01
  1.6345210e-01
 -2.8302666e-02
  1.8754983e-01
 -1.0983289e-01
 -3.8239244e-01
 -2.9820529e-01
 -1.2598431e-03
  2.2118412e-02
 -4.4454254e-02
  9.7076837e-03
 -2.8110877e-01
 -1.1568228e-03
  4.3596488e-01
 -3.8879004e-01
 -4.5826934e-02
 -3.7573937e-01
 -6.9923438e-02
  9.7231641e-02
  5.3519309e-02
 -1.3508567e-01
 -2.5999652e-02
 -2.4194252e-01
 -9.0428833e-03
 -4.5278487e-01
  1.9307081e-02
 -3.5204643e-01
  1.7799039e-01
  1.5109625e-01
 -2.7696359e-01
  6.7484874e-01
 -8.7046319e-01
  1.6200939e-01
  2.1074513e-01
  5.7303077e-01
 -5.9240282e-01
  3.4326598e-01
 -2.6857972e-03
  7.2484359e-02
  3.1740524e-04
 -5.3017879e-01
  4.5029411e-01
 -9.9300265e-02
  8.4214777e-02
  1.4417499e-01
 -6.8996745e-01
  2.3424973e-01
  1.2477179e-03
  5.4474805e-02
  1.2373439e-02
 -3.7029842e-01
  2.1267573e-03
 -4.6516876e-04
  4.2501488e-01
  2.7052644e-03
  2.5314575e-01
 -2.0717613e-03
  2.5641519e-01
 -1.9372940e-01
 -6.0703568e-02
  1.1675207e-01
  1.4542414e-01
 -2.4241978e-02
 -1.4956668e-01
 -7.8931218e-03
 -5.7597621e-04
 -9.2404027e-04
 -1.2120192e-01
 -8.4755078e-02
 -3.9043752e-04
  1.3083994e-01
  3.3475110e-01
  7.9571061e-02
  1.7921183e-01
  1.0960401e-02
  1.7774504e-01
 -4.2459699e-03
  4.2888230e-01
  6.8793031e-03
  6.2860176e-02
 -5.3745872e-01
 -1.0701825e-01
 -8.8478673e-01
  9.5676057e-02
 -8.5298277e-02
  6.0475069e-01
  2.8014514e-01
  8.1039127e-04
 -1.1704665e-01
 -1.8877031e-04
 -2.0986049e-02
  7.7942275e-02
  5.0694114e-01
 -1.5876455e-02
 -6.6766433e-02
  3.3260789e-02
  2.9465821e-02
  4.7998103e-01
  1.5427273e-02
 -2.0988470e-01
  2.8796244e-01
  4.2693391e-01
  2.1924582e-04
  2.6638839e-01
 -1.5865149e-01
  1.7685960e-01
 -2.1289608e-01
  4.0706672e-02
  8.6068648e-01
  3.3158857e-01
  9.1725871e-02
  3.6537516e-01
  9.5385976e-02
 -7.1101077e-02
 -1.4335328e-01
  5.9547298e-02
  8.3641902e-02
  2.2958738e-03
 -3.6356095e-02
 -2.0530701e-01
 -6.9239475e-02
  3.0979180e-01
 -2.4062069e-02
 -1.2828277e-01
 -9.1227584e-02
  1.9344153e-01
  3.7177641e-02
 -5.2793480e-02
 -1.5652263e-01
  3.5725169e-02
 -2.5730014e-02
  4.8531588e-02
 -4.0456268e-01
 -2.6445037e-01
 -4.0457733e-03
 -2.7096446e-04
 -5.6311401e-04
  1.2954940e-04
  4.7882241e-03
 -8.6341414e-04
 -1.2435513e-03
 -3.9731283e-03
  9.3897994e-05
  1.5363720e-03
 -1.3177108e-03
  1.2512716e-03
  7.5869553e-04
 -1.2147009e-03
  2.8441909e-03
  6.0285348e-03
 -7.1848201e-04
  3.5402197e-03
 -3.7655800e-03
 -1.1313368e-01
 -2.3036143e-03
 -4.9115294e-03
  3.7952955e-04
  4.5103030e-04
  8.5290715e-02
  4.5695348e-04
 -1.5735991e-03
  1.8449169e-01
  3.5978937e-01
  5.7796633e-01
  3.3027551e-01
 -1.5461621e+00
 -1.7108139e-01
 -1.1332704e+00
  1.3035055e-01
 -3.2892209e-01
  1.4174449e-01
  1.2969903e+00
  4.3032590e-01
  4.3416056e-01
  6.1841965e-01
  1.1036571e+00
  6.3877398e-01
  1.1816822e-01
  1.3674097e-01
  4.5510188e-01
  6.1786401e-01
 -1.3832936e+00
 -6.0058936e-02
 -3.5351157e-02
  1.4031430e-02
 -9.0385354e-01
  2.6045453e-02
  2.7946766e-02
 -4.6106005e-01
  1.2348866e+00
 -2.8655320e-04
 -2.3564826e-01
 -4.2178199e-01
 -1.0099503e-01
  1.1187989e-01
  2.1671853e+00
 -2.3048662e-02
  1.8674227e+00
  1.2955479e-01
  8.6473459e-01
  6.6100180e-02
 -2.9464155e-01
 -1.9079913e-01
  7.2095610e-02
  7.0252016e-02
  3.3297884e-01
 -1.1510079e-01
  1.0292147e-01
 -1.0718291e-01
 -1.5743658e-01
 -4.4925344e-01
  1.8719516e+00
 -9.4703585e-02
 -5.9097469e-02
  6.0208604e-02
 -1.1412046e-01
  3.0884936e-01
  1.0091857e-01
  1.3342217e-01
 -4.8427358e-01
 -1.1432339e-02
  6.5237463e-01
 -1.2203778e-01
  1.3537836e+00
 -7.0618188e-01
 -4.5110109e-01
 -6.4515871e-01
  6.7455983e-01
 -2.8946166e+00
 -9.7971928e-01
  1.2802401e-01
  7.0290256e-01
 -6.6009681e-03
 -2.3523796e-01
  2.1034148e-01
  2.5646347e-01
 -7.1615279e-01
 -1.4014031e+00
  5.3892573e-03
  5.3857481e-01
 -5.2771610e-01
  2.6862293e-01
 -6.4528191e-01
  1.7868311e+00
 -1.0459628e+00
  8.7696761e-01
  7.8390259e-03
 -5.2184844e-01
 -4.1552621e-01
  1.2263879e+00
 -1.4216010e-01
  7.0498943e-02
  3.8997203e-01
 -1.7934641e-01
  2.8416273e-01
 -6.2190086e-01
  2.1881582e-02
 -3.8463819e-01
 -1.1778212e+00
 -1.8693587e-01
 -2.2540857e-01
 -1.5610529e-02
  1.3078807e-01
  9.5419681e-01
  5.2644444e-01
 -5.9512341e-01
  1.2228419e-01
  3.8846302e-01
 -6.7618322e-01
 -2.9493749e-01
  6.1054444e-01
  1.8691626e-01
  7.7989364e-01
 -9.4434345e-01
 -5.8457267e-01
 -1.1641235e-01
 -5.3659707e-01
 -5.7035256e-02
 -6.9686806e-01
  5.2679634e-01
 -1.4631307e+00
  4.4474781e-01
 -5.8006114e-01
  1.7707008e+00
 -6.6667028e-02
  9.9025291e-01
 -4.5609152e-01
 -9.2816585e-01
  1.0216416e+00
 -1.3904940e+00
 -8.2462531e-01
 -1.4617412e+00
  1.6233730e-01
  2.4236992e-01
 -6.2759364e-01
  2.7061895e-01
  1.5762125e-01
 -8.3825134e-02
  8.9951342e-01
 -6.9694710e-01
 -5.1272517e-01
  1.0187124e+00
  2.8830308e-01
  2.6916796e-01
  4.6542126e-01
 -2.4535528e-01
 -1.0763358e+00
 -6.4237696e-01
 -1.3117684e+00
 -1.1071821e+00
  2.8102887e-01
 -7.3881559e-03
  5.3368586e-01
  6.4417607e-01
 -8.8953400e-01
  1.0184755e+00
  1.4068665e-01
 -3.7706071e-01
  5.0061219e-03
  1.0235840e+00
 -8.7463260e-01
  8.8312554e-01
 -9.1968435e-01
 -3.0236728e+00
 -7.4546587e-01
 -5.2868456e-01
  8.5261327e-01
  4.1496757e-02
  5.0107610e-01
 -5.2188987e-01
 -8.8735855e-01
  3.5899809e-01
 -5.5843896e-01
  3.7012362e-01
  1.0728177e+00
  1.0991020e-01
  1.1459596e+00
 -6.0298961e-02
  8.4422410e-01
  1.5134289e+00
  4.9997699e-01
  8.5306334e-01
  7.1866167e-01
 -3.8958558e-01
 -1.4240583e+00
 -1.6262996e-01
  1.2226516e+00
 -1.9136800e-01
  2.8237525e-01
 -3.3464640e-01
 -4.1128618e-01
 -5.8670384e-01
  6.3885629e-02
 -1.1733256e-01
  3.4033012e-01
 -2.1336178e-01
 -1.2148171e-02
 -2.6207134e-01
 -1.4267521e+00
  5.9640204e-04
 -4.4265091e-03
  3.0828297e-01
  7.3421091e-01
 -2.0480490e-01
 -2.1060600e+00
 -1.6108592e-03
 -5.2928036e-01
 -6.4152765e-01
  2.6966110e-01
 -7.9220474e-01
 -3.1242731e-01
  6.2036598e-01
  2.2699434e-01
  1.6255490e+00
 -6.7863417e-01
  4.3730581e-01
 -2.2744743e-02
  4.0255181e-02
  1.0209287e+00
 -1.3607056e-01
  1.5368430e-01
 -4.0724957e-03
  2.8946847e-01
 -2.9646891e-01
  1.2257850e+00
  8.8363719e-01
 -1.1951065e+00
  7.4127179e-01
  8.3743609e-02
  1.7786525e-01
 -8.8261045e-04
  6.3795459e-01
 -9.7190097e-02
 -1.2078667e-01
  3.3897898e-01
  8.2579392e-01
  2.1330540e-01
 -4.9911866e-01
 -1.0811059e+00
  8.5768265e-01
  4.8280182e-01
 -9.6019995e-01
  4.6273074e-01
 -2.0930201e-01
 -4.1981429e-01
 -2.9073646e-02
  1.1315739e-01
 -8.5204464e-01
 -1.4936055e-01
  1.8416491e-01
 -6.7453343e-01
 -1.0442171e-03
 -1.3836680e-01
  9.6395504e-01
 -5.2810943e-01
  1.9473460e-01
  8.2368630e-01
  2.5072911e-01
  1.1091661e+00
  1.2499461e-01
  8.4595531e-01
 -6.0790491e-01
  6.7711562e-01
  2.0932585e-02
 -4.0918821e-01
 -9.6537298e-01
 -2.9940519e-02
  1.4398514e+00
 -2.0963930e-01
 -2.7140290e-01
  7.7068694e-03
 -7.8186882e-01
  1.1906365e-01
 -3.1250317e-02
  2.3980540e-01
 -1.4539807e-01
  9.8172331e-01
 -5.2732831e-01
  1.5536813e+00
 -7.4332583e-01
  9.3052304e-01
 -3.5179502e-01
  1.8291812e-01
  1.1317888e+00
  9.0136063e-01
 -4.1169298e-01
 -6.1468691e-01
  3.4610879e-02
  6.8067241e-01
 -3.6804143e-01
  6.4429247e-01
 -3.5936773e-01
  2.2454970e-01
 -1.1458109e-01
 -1.0778397e-01
 -2.7088523e-01
 -2.0369349e-01
 -2.7472073e-01
 -8.2669032e-01
 -6.9093776e-01
  8.1008661e-01
  3.9219961e-04
 -6.4629787e-01
 -4.5389479e-01
  4.1476318e-01
 -2.1047590e+00
 -9.4531500e-01
  4.1956070e-01
 -3.0685470e-03
 -8.5387516e-01
  1.4040729e-01
 -3.7852007e-01
  4.6084073e-01
 -4.5819071e-01
 -8.0959094e-01
  1.0750543e+00
 -2.2219948e-01
  7.5638205e-01
 -1.4748368e+00
  2.6076606e-02
  8.9024454e-01
 -5.1532561e-01
 -1.3777584e-02
 -4.6421656e-01
  1.6949352e+00
 -3.3992335e-02
  3.8559309e-01
 -4.1363072e-01
 -2.8925022e-01
  2.1773401e-01
 -2.2395010e-01
 -2.2090840e-01
  1.2086782e+00
  2.5454205e-01
 -1.4712669e+00
 -2.2893152e+00
  4.9897853e-01
  3.9860141e-01
  6.6943681e-01
  5.2693522e-01
  4.1517177e-01
  2.1963945e-01
  2.1805961e+00
  1.2577480e+00
 -1.6524287e+00
  1.1911902e+00
 -8.6163342e-02
  2.1902446e-01
 -4.9170561e-02
 -7.5169957e-01
 -1.6076456e+00
  8.1847739e-01
  1.7100594e+00
 -3.5516155e-01
 -7.7359802e-01
 -4.5968914e-01
  4.3134251e-01
 -2.0647685e-01
 -4.6460435e-02
 -6.9524658e-01
 -2.0127695e+00
  6.5550780e-01
 -6.0000062e-01
 -2.5353553e+00
  5.0503916e-01
  6.3788277e-01
 -4.2054363e-02
 -3.1458619e-01
  6.8588746e-01
 -3.2138401e-01
 -9.4361341e-01
  5.0296181e-01
  9.1440123e-01
 -5.9079260e-01
 -2.0198117e-01
 -4.5924926e-01
  1.3970456e+00
  1.8868390e-02
  3.8729882e-01
 -1.3414291e+00
 -5.5653501e-01
  1.1698445e+00
  2.8266460e-01
  4.0540183e-01
  1.7557885e-01
 -3.5314891e-01
  7.5505704e-01
  4.2436832e-01
  1.9027469e+00
 -1.5154130e+00
 -4.4917122e-01
  1.1958053e+00
  4.8739082e-01
  1.5209475e-01
  3.6729342e-01
  7.3862952e-01
  2.2585385e-01
 -5.3908654e-02
  4.5045659e-02
  3.7183079e-01
 -2.0447440e-01
 -1.3126102e-01
 -7.9662400e-01
  4.6420246e-01
  9.1295615e-02
 -1.0648085e+00
  1.2385609e+00
 -1.6917037e+00
 -4.1089568e-01
 -7.2326082e-01
  6.8689972e-02
  3.3988136e-01
  1.4673312e+00
  1.8400801e+00
 -1.1197522e+00
 -2.5203145e-01
  1.6766207e-01
 -1.2763333e-01
 -3.1094366e-01
 -5.6161058e-01
  3.8530022e-01
  1.0571445e+00
  9.9661529e-01
 -2.1072173e-01
 -4.8273525e-01
 -2.4240965e-01
  3.0421981e-01
  2.4032070e-01
 -8.0667257e-01
  4.0814146e-01
 -5.1727861e-01
 -3.5466161e-01
 -3.3153260e-01
  1.8051112e-01
 -8.1267275e-02
  1.3987573e+00
 -2.3025198e-02
  1.7912574e-01
  1.0644497e-01
 -1.4772065e-01
  2.6607853e-01
 -1.6463436e-01
  7.1092212e-01
 -3.5352077e+00
  1.2418312e+00
 -7.2741920e-01
  8.4049445e-01
  1.7299972e-01
 -6.3342941e-01
 -1.0270944e+00
  2.5208685e-01
 -2.7431893e-01
  1.1125095e+00
  7.1800518e-01
 -1.5101871e+00
  5.9352916e-01
  7.4396670e-02
 -5.0512373e-02
  2.7886921e-01
  9.9587762e-01
 -9.3250072e-01
  4.5785684e-02
  7.4864465e-01
  4.7877359e-01
 -8.9451253e-02
  1.3946720e+00
 -5.1366824e-01
  6.2627800e-02
 -2.9315719e-01
  1.3421918e+00
  2.1782051e-01
 -2.1825378e-01
 -4.8878753e-01
 -9.3956006e-01
 -9.6354729e-01
  5.1483947e-01
  1.1730508e+00
  5.9950179e-03
 -8.6714196e-01
  7.9695839e-01
  5.8431679e-01
  1.4941155e+00
  2.8662878e-01
  2.4240813e-01
 -6.8753731e-01
  1.3849250e+00
  3.6221078e-01
 -9.7082204e-01
  3.4534985e-01
  7.0224804e-01
  1.6910638e-04
  2.1876977e-01
  4.2287037e-01
 -1.0979908e+00
  5.2642775e-01
 -3.3568448e-01
  1.0424541e+00
 -3.6372089e-01
  5.2280730e-01
 -3.9967614e-01
 -1.6623607e-01
 -1.3387068e-01
 -8.2268643e-01
  8.3753335e-01
 -7.0377189e-01
  4.3770921e-01
  3.3792874e-01
  1.2933929e-01
 -8.1749874e-01
 -3.1864598e-02
  5.2015942e-01
 -9.7162735e-01
 -1.2204894e-01
  3.8594869e-01
  9.4700947e-02
 -3.5112172e-01
  6.6640489e-02
  2.6167694e-01
  3.3410698e-01
  5.0359601e-01
  5.4776114e-01
 -3.5755727e-01
  7.2420627e-01
  5.9617752e-01
 -1.0123112e+00
 -2.7979496e-01
 -3.7535286e-01
 -4.8146084e-02
  2.2665729e-01
  1.1532353e+00
 -1.1213375e-01
 -5.2399927e-01
 -9.3456477e-01
  3.3414986e-02
  5.4121393e-01
  4.2950508e-01
 -8.3025020e-01
  4.2920534e-02
 -6.4416283e-01
 -1.7339470e+00
  2.3521373e-01
  3.7744725e-01
 -1.2463572e+00
  3.7353218e-01
  1.2494930e-01
 -8.8372804e-02
 -1.4439291e-01
 -1.7929027e-02
  1.7229345e-01
 -2.6073536e-01
  8.5186523e-01
  1.8144211e-02
 -4.2738982e-02
 -3.6912569e-01
 -6.3758314e-01
 -1.0061878e+00
  8.1888795e-01
  2.0995885e-01
 -2.2758923e-01
 -8.8386858e-01
  3.4171796e-01
 -1.8712419e-01
  6.8423666e-02
 -8.4513891e-01
 -2.2650389e-01
  7.3675400e-01
 -4.8239672e-01
  4.6316102e-02
  1.4368123e-01
 -1.1538936e-01
 -2.7901515e-01
  2.2969420e-01
  1.4022091e-02
  8.8248658e-01
 -5.5424273e-01
  2.9148814e-01
 -7.4392283e-01
  7.6921952e-01
  8.8570678e-01
  4.2693856e-01
 -3.4463525e-01
 -1.9546650e-01
  3.0714640e-01
 -7.8223616e-01
 -3.1351468e-01
 -3.2561547e-01
  1.8052539e-02
 -1.0437351e-01
 -2.2716793e-01
  1.5997946e-02
 -5.4466945e-01
  7.7489614e-01
  3.5466596e-01
 -1.3867331e-01
 -2.0882787e-01
 -9.7794491e-01
  7.4628818e-01
  5.9351232e-02
  9.1106629e-01
 -7.0108390e-01
  3.5334691e-01
 -8.1679355e-03
  3.1575106e-02
 -1.1047082e+00
  6.7523652e-01
  1.5853981e+00
 -9.1798723e-01
 -2.4079745e-01
  1.7409419e+00
 -1.8839399e+00
 -5.4101145e-01
  2.5614831e-01
 -1.4673343e+00
 -4.6599838e-01
  8.5642016e-01
  1.0504302e+00
  4.6097466e-01
  5.4745597e-01
  4.5572117e-01
 -5.3929889e-01
 -2.8297719e-01
 -1.0495001e+00
 -5.3176814e-01
 -4.9652922e-01
 -1.6446193e-01
 -3.4361196e-01
 -9.5730048e-01
  2.7487010e-01
  5.0837146e-03
 -5.1203835e-01
 -4.8637336e-01
 -5.7143843e-01
  2.6036948e-01
 -1.5148885e+00
  6.9792426e-01
  5.8595788e-01
  3.4238973e-01
 -5.9415770e-01
 -9.4965822e-01
 -8.3993477e-01
  1.0185008e+00
  1.7423096e+00
 -2.0864798e-01
 -1.4415124e-01
  1.4942795e+00
 -1.9442770e-01
  1.8779840e-01
  8.8345133e-02
 -1.1903601e-01
 -1.1723522e+00
  1.7304981e-01
 -3.5016029e-03
 -1.4596310e+00
  3.5338682e-01
  7.8963161e-01
  1.8480681e+00
  5.1189834e-01
  7.8324938e-01
 -2.0307734e+00
  3.3965144e-01
  1.1089715e+00
  1.7133017e+00
  7.2348964e-01
  1.8898386e-01
  1.5445849e+00
  2.5481582e-01
 -1.1573578e+00
  7.3765531e-02
  3.2515866e-01
 -9.5935635e-02
 -1.5652569e-01
  5.0215626e-01
 -5.1600281e-03
 -7.9347891e-01
 -3.8720872e-02
 -1.7129037e+00
  4.5047444e-01
 -1.1005465e+00
  8.2993966e-01
 -1.3023329e+00
  4.3565699e-01
  3.8378883e-02
 -4.8582399e-01
  6.6196114e-01
 -3.0902997e-01
  1.7918798e+00
  7.3027295e-01
 -1.2414635e-01
  1.7915800e-01
  1.1037936e+00
 -8.6626244e-01
 -2.1547492e-01
 -2.2343105e-02
 -6.5306115e-01
  2.3590657e-01
  3.3822623e-01
  1.3162067e+00
  7.9179579e-01
  1.7453930e-03
  2.6102293e-01
  4.3508869e-01
 -5.5642134e-01
  1.2738415e+00
  8.7605817e-03
 -8.8939971e-01
  3.1999686e-01
  5.5813134e-01
  2.4769075e-01
  8.3041918e-01
  1.4539169e-01
 -1.8079917e-01
  6.2829591e-02
 -4.0815973e-01
 -1.5609093e-01
 -1.7673807e-01
 -1.0713592e+00
  1.8396206e+00
  4.1301009e-01
  7.8492723e-02
 -1.6050735e-02
 -1.0170828e+00
 -1.3346229e-01
  1.8140941e+00
 -3.1238273e-01
 -1.0072970e+00
 -5.6049234e-01
 -4.9635217e-01
  3.1221524e-01
 -3.0311859e-01
 -1.7241037e-01
 -4.6696439e-01
 -6.4164692e-01
  9.0001303e-01
 -7.3971450e-01
 -3.9126185e-01
  4.7609505e-01
  8.6361295e-01
  1.3975345e+00
 -2.1392709e-01
 -1.2445086e+00
 -2.7248812e-01
  8.4047055e-01
  4.8646113e-01
 -1.0003037e+00
 -1.2789238e-02
  1.3046876e+00
  3.3165011e-01
 -3.2904652e-01
 -7.9130363e-01
 -4.1566517e-02
  5.9322268e-01
 -7.0001143e-01
  8.2080728e-01
 -6.4620900e-01
  4.9656272e-01
  5.0777709e-01
  7.1848430e-02
  9.4471335e-01
 -9.4116771e-01
 -4.0328935e-01
 -3.8731977e-01
  8.4124142e-01
  5.7743585e-01
  5.4029953e-02
  1.4031499e-02
  4.5536354e-01
  8.0202878e-02
  8.1591621e-02
 -8.4246844e-02
 -2.7888054e-01
  5.6858022e-02
 -1.6879401e-01
 -1.2385838e-01
  6.8420941e-01
  2.9013211e-01
  7.8953020e-02
 -2.6526597e-01
 -4.5426890e-01
  1.7428787e-01
  8.8084459e-02
 -1.6515820e-01
 -2.6385918e-01
  2.2165403e+00
 -5.4244739e-01
  2.2475342e-01
  9.4921964e-01
 -9.3120299e-02
 -5.9219611e-01
  2.0481785e-01
 -5.7533425e-01
 -3.6707622e-01
  8.6394596e-01
 -4.5448670e-01
  4.1073674e-01
 -8.3381182e-01
  2.1683892e-02
  1.2892963e+00
 -7.6997459e-02
 -6.3771546e-01
  6.5297556e-01
  1.3025981e+00
 -2.6478374e-01
 -1.3871957e-01
  1.4675053e+00
 -1.0922629e+00
  5.9076363e-01
 -7.0474148e-01
  2.2071891e-01
  4.7266933e-01
  4.5930475e-01
 -2.0497042e-01
  1.4395124e-01
  5.6254607e-01
  2.4307448e-01
 -4.2663881e-01
  7.6476659e-04
  4.3426695e-01
 -2.6837486e-01
  6.7301464e-01
 -3.3839217e-01
  1.5316235e+00
 -5.3004742e-01
  4.6730754e-01
  7.1044345e-03
 -5.3497511e-01
 -5.6109011e-01
  5.5961889e-01
  1.4799330e+00
 -2.2010735e-01
  5.2874058e-01
 -6.3660181e-01
 -6.1592750e-02
  2.7976286e-01
 -7.7574342e-01
  8.0300218e-01
  9.8341399e-01
  3.1378153e-01
  1.2260594e-01
 -5.9085363e-01
  8.8660556e-01
 -6.1406267e-01
 -6.8469661e-01
 -1.7202583e-01
 -1.1263491e-01
  9.5588642e-01
 -3.0002898e-01
 -1.5433790e-01
 -1.7417081e-02
  1.1871816e+00
  7.7613220e-02
 -8.2655793e-01
 -2.2327797e-01
  2.0103964e-01
  4.6851519e-01
  3.2240883e-01
  1.6761671e+00
 -1.0274881e+00
 -1.5831500e-01
 -6.8709813e-02
  3.8124934e-01
 -6.1457443e-01
 -1.1254231e-01
  1.1464690e+00
 -3.8103896e-01
  3.1382024e-01
 -4.1991219e-01
  7.2455388e-01
 -5.6878045e-02
  2.1907283e-01
 -7.0175123e-01
 -3.4268874e-01
  6.6128068e-02
  1.9924461e+00
 -8.0677313e-01
 -1.1379145e-01
 -2.1615361e-01
 -1.5672893e-03
 -1.3958138e-01
 -1.0289896e-02
 -1.9213037e+00
 -4.8529783e-01
 -4.8393309e-01
 -8.6135054e-01
 -9.5321220e-01
  7.2240555e-01
  1.8044939e+00
  1.2141068e+00
  7.4412054e-01
 -1.5778322e+00
  3.2253230e-01
  2.4513774e-01
  1.5955752e+00
 -8.4474117e-01
 -4.5778330e-02
 -3.2279125e-01
 -1.1525023e+00
  8.4864236e-02
 -5.0989306e-01
 -1.6043824e+00
  5.3670758e-01
 -1.3212384e+00
  1.2428659e-01
 -8.5273111e-01
  1.6894811e-01
  1.5442382e-01
 -4.3043634e-01
 -1.4867030e-01
 -3.3345962e-01
  4.2956007e-01
  3.0515301e-01
  2.8448492e-01
 -1.2683459e-01
  1.4301680e-01
 -3.1403357e-01
 -1.9742735e-01
 -9.9494003e-02
 -4.1090325e-01
 -3.3868289e-01
  6.7174107e-01
 -7.4562240e-01
 -9.5264757e-01
 -1.0814844e-01
  1.0721620e-01
 -5.4321605e-01
  1.8407111e-01
  2.0301957e-01
  1.5039416e-01
  1.2964038e+00
  3.0161563e-01
 -8.6483693e-01
  2.2440666e-01
 -1.0560991e+00
 -2.3135829e+00
 -2.0673482e-01
  3.7424383e+00
  5.5069304e-01
  3.2429669e-02
 -2.3313067e+00
 -1.4960694e+00
  1.2729602e-01
 -3.0124593e+00
 -9.3477988e-01
  6.2259936e-01
 -6.4095311e-02
  3.8041636e-02
  2.2536263e+00
 -5.6468123e-01
 -2.4889022e-01
  3.0683342e-01
  5.0241715e-01
  9.4961298e-01
  3.3546850e-01
 -8.7789792e-01
 -1.9661440e+00
 -1.8451147e-01
  6.0774684e-01
  5.0891536e-01
 -5.3028983e-01
 -8.6060949e-02
  2.6263537e+00
 -1.0776212e+00
 -1.0561754e+00
 -1.1818842e+00
  1.1884466e+00
  5.6843835e-01
 -2.8619894e-01
  3.6319721e-01
 -3.3914304e-01
  2.3146172e-01
  7.7864957e-01
  7.4760175e-01
 -2.3796170e+00
  1.3600219e+00
  7.1309257e-01
 -1.4464082e+00
 -5.5806673e-01
 -8.1134576e-01
  1.7264332e+00
 -4.8505676e-01
  6.6795731e-01
  1.4523259e-01
  2.1063121e-01
 -8.0334556e-01
 -1.8469426e-01
 -1.2658989e+00
  8.5229313e-01
  4.2535800e-01
  6.3770342e-01
 -5.5780774e-01
 -2.5537598e-01
 -1.4396504e+00
  8.2579684e-01
  7.3795728e-02
 -1.6877069e-01
 -1.1673510e-01
 -8.7064761e-01
  5.9054506e-01
  8.2581437e-01
 -6.8135476e-01
  2.0159531e-02
 -3.7793059e-02
 -1.9539492e-01
  5.6001836e-01
 -2.8329292e-02
 -6.2690729e-01
  1.7251055e-01
 -1.0558351e+00
  4.2738509e-01
  4.7797346e-01
  2.8455457e-01
 -4.5827931e-01
  8.9167839e-01
  2.6489201e-01
  1.2734234e+00
 -1.3879426e+00
 -1.1024679e+00
  2.1675899e+00
  1.6280667e+00
  4.5978025e-01
  1.3832645e-01
 -1.0098964e+00
  6.7166114e-01
 -7.1621859e-01
 -6.6578066e-01
 -5.6255758e-01
 -1.2449826e-01
  8.1969666e-01
 -1.8995287e+00
  2.0669115e-01
 -3.2176998e-02
 -1.4307013e+00
 -1.1484286e-01
 -8.2169491e-01
 -6.0540187e-01
 -1.8527424e-01
 -3.2383746e-01
 -1.5621372e+00
 -1.6813857e-02
  1.4403197e+00
  2.5916821e-01
 -1.5538063e+00
 -5.8393317e-01
  1.3739047e+00
 -2.0534575e+00
 -2.2379296e-01
 -1.1745299e+00
  5.9433120e-01
 -1.8301297e+00
 -6.4361393e-01
  1.5727102e+00
 -4.6812199e-02
  3.5958758e-01
 -1.2827948e-01
  5.0689533e-02
  1.5736566e+00
 -4.7021594e-02
  3.6999783e-01
  2.4869704e+00
  2.9742542e-01
 -1.5802646e+00
 -5.5888569e-01
  4.1535825e-02
 -6.6662669e-02
  9.1116440e-01
 -3.1723931e-01
  3.0398113e-01
 -1.6340972e-01
  2.4323721e+00
  8.9285558e-01
 -7.1970117e-01
  3.6736235e-01
  1.5356189e+00
  2.5587669e-01
 -8.2413452e-03
 -3.6757171e-01
  1.2047132e-02
  1.8800728e+00
  1.1857491e+00
  1.5697418e+00
 -6.3730860e-01
 -5.7376432e-01
  1.1151747e+00
 -1.1724699e+00
 -1.0081747e+00
  5.6783551e-01
  2.2910370e-01
  1.6417027e+00
  2.0195419e-01
 -1.3158461e+00
  7.3677099e-01
  5.6540102e-01
 -5.2958637e-01
  1.1507400e+00
 -1.5218340e-01
  5.2935553e-01
  1.7880349e-01
 -6.3552248e-01
  2.2433684e+00
  5.7069653e-01
 -3.0200320e-01
 -4.2753685e-01
  4.1943884e-01
  3.8833469e-01
  2.4111436e-01
 -1.3399932e-02
 -6.0226340e-02
  4.8048466e-01
 -1.0536934e+00
  1.9897565e+00
  4.2008337e-01
  5.2997911e-01
 -1.2055671e+00
  2.0936312e-01
  6.5057600e-01
 -1.1671028e+00
 -9.3643957e-01
  8.1644434e-01
  1.1338530e-01
  2.1660969e-01
  5.1274449e-01
  6.5134859e-01
  1.2534535e+00
 -3.3372980e-01
 -3.9607301e-01
  5.7297021e-01
 -6.5216172e-01
  5.6450480e-01
 -3.8832477e-01
 -3.8739178e-01
 -2.4692047e-01
 -4.5445395e-01
  1.7171334e-01
  6.9749959e-02
 -2.5243300e-01
  8.0094236e-01
 -3.3772454e-01
 -2.7044392e-01
  5.9815788e-01
 -6.1030918e-01
  4.7008041e-01
 -8.0433518e-01
 -1.3425828e+00
  5.8626328e-02
 -1.1850943e-01
 -1.8595878e+00
 -3.7434325e-01
  1.0125721e+00
  4.1174230e-01
  5.9757093e-03
 -1.3725491e-01
  2.7423969e-01
  5.8959800e-01
 -3.3820710e-01
 -7.4354284e-02
 -4.2620659e-02
 -7.4104644e-02
  7.8818059e-01
 -1.9788349e-01
  6.8217209e-03
  1.1699547e-01
 -5.7264274e-01
 -6.1426394e-02
 -4.4884813e-01
 -1.6586082e-01
 -1.0247016e+00
 -9.6540743e-01
  7.5946175e-02
  4.2707419e-01
  6.6652246e-02
 -3.9668199e-01
  1.1240754e-01
 -4.3240672e-01
  5.2800652e-02
  8.7406114e-02
 -1.4885980e+00
  1.1368786e+00
  5.0235587e-01
 -1.0645173e-01
 -5.2060384e-01
 -1.4281045e-01
  4.9350508e-02
 -4.0961391e-01
  1.9916086e+00
 -1.1684225e+00
  9.2004880e-02
  1.0695189e+00
 -1.9150218e-01
 -2.9094574e-01
  1.3314666e+00
 -6.8107224e-01
  1.3875996e-01
  1.9248536e-01
 -2.7334530e-02
  1.8848754e+00
  5.1210338e-01
 -7.0503455e-01
  3.8237101e-01
 -4.1632824e-02
 -1.5240167e+00
  4.1987557e+00
 -4.7205913e-01
  1.0267002e-01
 -2.6012826e+00
  9.0579772e-01
  1.8076910e-01
  1.6121912e-01
  7.1771377e-01
 -8.6964393e-01
 -4.7305942e-01
  3.1261062e-03
  4.2060497e-01
 -1.0158309e+00
  1.2177048e+00
  6.2153943e-02
 -4.3200287e-01
 -7.5804316e-02
 -7.2793461e-02
 -1.3653843e-01
 -8.8818616e-01
  4.3125039e-01
 -4.3560234e-01
 -6.5611918e-03
 -2.9405165e-01
 -1.3738655e+00
  1.3675491e+00
 -1.0525077e-01
 -2.0987892e+00
  2.2369447e+00
  4.1551214e-01
 -9.9695027e-01
  2.9102764e-01
  1.0273883e-01
  1.1033075e+00
 -7.6371515e-01
  7.3801446e-01
 -7.6176482e-01
 -3.6601964e-01
  5.1031756e-01
 -2.6724932e+00
 -4.1545231e-02
  1.2708013e-01
  6.2313634e-01
 -6.0031074e-01
 -6.1894494e-01
 -2.2795688e-01
  1.2583640e+00
  1.3139875e+00
  3.4926951e-01
  1.3059695e+00
  3.9858364e-02
 -6.2285095e-01
  2.1710341e+00
 -6.9484317e-01
 -2.5090969e-01
  2.2436023e+00
  8.5037202e-01
  6.7229243e-04
  2.0101967e+00
 -5.0958749e-02
 -1.0077193e-01
  1.0906821e+00
  3.7101540e-01
  1.4577496e+00
  1.6578068e+00
 -1.3307505e+00
  2.7868545e-01
  3.7273794e-01
  4.0069559e-01
  1.2807674e+00
  1.7607130e-02
  7.5771380e-03
  1.5340326e+00
  7.8837872e-01
 -2.6739264e+00
  5.7345933e-01
 -3.4152436e-01
  1.0613800e+00
 -1.0201499e+00
 -5.6361187e-02
  3.3706450e-01
 -1.3181463e+00
  1.6523457e+00
  5.5203086e-01
  2.7460327e+00
 -8.0672777e-01
  1.5654306e+00
 -1.2544945e+00
 -2.2223741e-01
  2.2592719e-01
  1.6889039e-01
 -2.3961414e-01
 -8.3267641e-01
 -7.1025738e-03
  1.4628328e-01
  8.4881753e-01
  4.5440993e-01
 -9.6881926e-01
  4.9824306e-01
 -2.3898182e+00
  3.5876602e-01
  4.8986161e-01
 -1.8460212e+00
 -6.8206728e-01
  3.4098569e-01
  6.0135299e-01
 -3.1081858e-01
 -5.6676447e-01
  3.6421669e-01
  1.4239233e+00
 -5.6235397e-01
 -4.4738418e-01
 -7.1106529e-01
 -6.7316675e-01
  3.8411325e-01
  5.2178532e-01
  1.8155138e-01
  1.3859617e+00
  1.5133463e+00
 -3.8149346e-02
  7.2081876e-01
 -1.0994683e-01
  8.9133054e-02
 -1.1262611e-02
  1.0658569e-01
 -2.7477881e-02
 -1.6217126e-01
 -4.8317277e-01
 -7.2905445e-01
 -3.4854764e-01
  1.0004654e+00
 -8.0998915e-01
 -2.2285690e+00
  3.8657609e-01
  1.9380508e-01
  2.4620097e+00
 -1.6903535e-01
 -9.1399646e-01
 -1.0865762e+00
  1.4887361e-01
  1.1218325e+00
  2.0752022e+00
  4.9021140e-02
 -3.6334044e-01
  1.1860789e+00
  1.8720328e-03
  9.0337896e-01
  2.5068021e-01
 -3.0680478e-02
 -2.2869033e-01
 -7.3810138e-02
 -1.6922483e+00
  3.0019128e-01
 -1.6799231e+00
 -2.1286440e-01
  1.0965525e-01
  1.1588465e+00
 -8.8816011e-01
  2.9095030e-01
 -2.9711449e-01
 -1.1676861e+00
  6.4058077e-01
 -3.1051892e-01
 -1.8208106e-01
 -1.1696517e+00
  8.2816982e-01
  1.4036894e+00
  1.0103240e-01
  1.1369331e+00
  1.2908170e+00
 -3.1077394e-01
  2.5534520e-02
 -9.2059427e-01
 -1.6140630e+00
 -1.3713012e+00
 -9.5723975e-01
 -7.0976776e-01
  9.1380149e-01
  2.3925647e-01
  4.0817586e-01
 -8.2398370e-02
  8.5717164e-02
 -2.1933173e-01
  6.5146011e-01
 -2.9754910e+00
 -7.0596620e-02
 -3.8222488e-02
  1.1995122e-01
  1.2389290e+00
 -4.7232816e-01
  6.8248814e-01
 -1.9696069e-01
 -2.1342251e+00
 -9.4566184e-01
  2.5533119e-01
  3.9063904e+00
 -4.2892356e+00
  5.1975524e-01
 -3.8713911e-01
  1.3983015e-02
  6.1974311e-01
 -4.7366498e-03
  2.4135379e-01
  1.9492047e+00
  1.9747453e+00
  3.9345089e-01
 -7.5510061e-01
 -2.0667341e+00
  2.9045624e-01
 -3.9340034e-01
 -7.3012012e-01
 -5.7267392e-01
 -7.8287208e-01
 -1.2720872e-01
  6.0772580e-01
  1.3691261e-02
 -2.4564619e+00
 -8.1762797e-01
  6.1301982e-01
 -3.2473452e-02
  1.9580546e-01
  1.1455725e+00
 -2.8610465e-01
  1.8125941e-01
  2.5826946e-01
 -4.0835005e-01
  6.6920978e-01
  4.9401504e-01
  2.2268037e-01
 -7.4814647e-01
 -5.8678734e-01
 -6.4042068e-01
 -1.8987605e-02
  2.9457000e-01
 -3.2133022e-01
  2.8335764e-03
 -2.4647448e-02
 -5.2802837e-01
 -2.2402698e-01
 -1.3781352e-01
  1.2309900e-02
  1.1485908e-01
 -5.9370581e-02
 -7.1458533e-02
 -2.1500659e+00
  3.2759693e-01
  6.4814132e-01
  2.5997505e-01
  3.1813893e-01
 -2.2917967e-01
 -1.4439593e-01
  3.1780690e-01
  1.8072747e+00
 -4.1746035e-01
  1.7268679e-01
  8.0734074e-02
  1.1864653e+00
  7.8991723e-01
 -3.3170852e-01
  1.0117019e+00
  7.9767561e-01
  7.3305804e-01
 -4.4470960e-03
  3.8822293e-02
  2.6817682e-01
 -5.9493601e-01
  2.0016937e-02
 -6.4161468e-01
  3.4557381e-01
  6.1520297e-02
  1.1374260e-01
  3.2140785e-01
  6.5955716e-01
 -1.2844365e+00
  1.4191827e+00
 -1.3119169e+00
  5.8230084e-01
  1.2877527e+00
 -4.3905121e-01
  1.1314037e-01
  3.3978063e-01
 -1.0412053e+00
  3.9673918e-01
 -6.1492823e-02
  9.8173571e-01
 -6.4071067e-02
  2.4067328e+00
  1.9705857e-01
  7.3348159e-01
  1.3556812e+00
 -2.8496285e-03
  7.4561000e-02
 -1.0672922e-01
 -2.6282781e-01
  4.0566266e-01
  1.1459189e-02
  9.0621775e-01
  1.1585035e+00
  1.1531879e-01
  1.5221034e+00
 -5.2506447e-01
 -2.4862288e-01
 -7.3930186e-01
 -8.5440999e-01
 -4.2720428e-01
  2.4893938e-01
 -4.1059369e-01
  6.4517897e-01
  6.2938297e-01
  1.8917036e+00
  1.1978834e-01
  1.5315405e+00
  2.1142561e+00
  1.6463367e+00
  1.2120991e+00
  3.0915358e+00
 -1.7899826e+00
 -1.4270414e+00
  2.3302505e+00
  3.2345954e-01
  1.8083627e+00
 -6.4142102e-01
 -1.7487323e+00
  4.3508887e-01
 -6.5701067e-01
  3.6405683e-01
 -9.1661090e-01
 -1.3505515e+00
 -9.8505455e-01
 -1.1972453e-01
 -6.9708967e-01
 -6.0104936e-01
  1.1081669e+00
  6.4733493e-01
 -1.0410441e+00
 -3.4475496e-01
  6.4060783e-01
 -7.5554800e-01
 -7.4552524e-01
  8.5106981e-01
  3.0912679e-01
  8.9517355e-01
  3.0172977e-01
 -3.3928579e-01
  1.0138973e+00
 -3.1104243e-01
 -1.6173698e+00
  1.1041881e+00
  1.4256777e+00
 -8.1789702e-01
  1.0276978e-01
 -9.2223543e-01
  1.3698210e+00
 -8.1157762e-01
  4.1437909e-01
  1.2453598e+00
 -1.2396373e-01
  2.7731558e-02
  1.0013924e+00
  8.8727820e-01
 -5.0908595e-01
 -7.6105154e-01
 -2.7215581e+00
 -2.0667174e+00
 -1.7211100e-02
 -1.7108189e+00
 -8.0751783e-01
 -1.6802648e+00
  2.9501030e-01
  1.1578396e-01
  8.0472124e-01
 -2.3269396e+00
  9.9062763e-02
  4.5536244e-01
  4.1454937e-03
  3.9938241e-01
 -3.1253603e-01
  2.4329035e+00
 -1.0333856e+00
  1.0642081e-01
 -1.2081616e+00
  6.4853972e-01
 -1.4756472e-01
  6.1289179e-01
 -7.3797232e-01
  4.0108026e-03
  3.1306610e-02
  1.0024939e-01
 -1.3467045e+00
 -4.9556077e-01
 -1.3963056e+00
 -1.1728042e+00
 -1.7750056e+00
 -2.4191791e-01
  2.9920042e-01
 -4.6008851e-02
  1.2580183e+00
 -3.2486016e-01
  8.1807427e-02
 -3.2016009e-01
 -1.0952517e+00
  1.4180293e-02
 -4.3439907e-01
  6.6073775e-01
  1.3920878e-01
 -1.2951051e+00
  1.5119002e+00
 -4.6938309e-01
  1.8666303e-01
 -1.1132146e+00
  7.5580060e-01
  9.8768689e-02
 -3.8682677e-02
  9.5640886e-01
  2.4268954e-01
  9.0054440e-01
  6.0395479e-01
 -6.8010396e-01
  6.7686862e-01
 -1.4728400e-01
 -1.6879026e+00
  5.8781576e-01
 -6.5990210e-01
 -1.7227887e-01
 -1.3485787e+00
  6.2386727e-01
 -7.6301998e-01
 -7.7079165e-01
 -2.7843022e-01
 -8.2524955e-01
 -2.2602552e-01
 -6.3217837e-01
 -1.9756610e+00
  2.8820699e-01
 -1.3335986e+00
  8.6089246e-02
  9.5623833e-01
 -6.3049740e-01
  1.2032182e+00
  3.1130031e-01
  6.8682872e-02
 -2.3396283e-01
 -3.4024525e-01
  2.6782483e-01
  3.2931473e-02
  6.2573351e-02
 -4.5912981e-02
 -1.3436332e-01
 -7.4983463e-02
 -4.6910107e-01
 -7.0690793e-01
 -1.1413450e-01
  1.7772444e-02
  8.5480928e-02
 -1.1400560e+00
 -1.1975805e-01
 -2.3577403e-01
 -2.6375714e-01
  1.1619008e+00
 -4.9043956e-01
 -5.9932584e-01
 -1.7312744e+00
 -2.5782914e+00
 -9.9403954e-01
 -2.7256140e-01
  2.6040797e+00
  2.2706166e-01
 -1.3036097e+00
 -2.3337130e-01
 -4.3587750e-01
 -4.7280332e-01
  3.2053542e-01
 -4.4284095e-03
 -4.5037085e-01
 -8.0953747e-01
  5.4763770e-01
  3.4959897e-01
 -2.9510170e-01
 -1.4276519e-01
 -3.2830369e-01
  7.4414715e-02
 -1.2514602e-01
 -2.6647604e-01
  3.8128665e-01
 -6.9739097e-01
  5.0128371e-01
 -4.2866793e-01
 -4.0939209e-01
 -1.4862589e+00
  1.5118293e+00
  2.3398046e+00
  1.3355836e-01
 -9.5267218e-01
  1.6265585e+00
 -1.8380607e+00
  2.7073672e+00
  9.9111104e-01
 -2.0893264e+00
 -4.6665469e-01
  4.3267509e-01
  3.2713670e-02
  1.8311257e-03
  6.4826995e-01
 -5.3818375e-01
 -2.1216008e-01
  2.2613769e+00
 -9.6330822e-01
 -1.4604173e-02
 -1.4560702e+00
 -1.8178719e-01
 -3.4741712e-01
  3.3557253e+00
 -2.0990750e-01
 -6.6566773e-02
  1.3585964e-01
  2.5360626e-01
  1.0435449e+00
  1.5810348e-01
 -8.8362443e-01
 -6.1418599e-01
  1.9746140e+00
 -1.2302082e+00
 -1.2348548e+00
 -1.0577317e+00
 -9.1467553e-01
 -2.1261511e+00
  7.3964518e-01
  1.0559390e+00
 -1.6178465e-02
  1.4192274e+00
  1.7634331e+00
 -3.8312901e-02
  1.1225814e-01
  1.6883786e-01
  5.2052039e-01
 -8.0404437e-01
  1.7109562e+00
 -5.2241760e-01
  1.1290135e+00
 -6.7937744e-01
  3.5354629e-01
 -2.3247620e-02
  1.2968272e+00
 -1.6271977e+00
 -1.6943602e-01
 -5.4105729e-01
  5.6733054e-01
  1.7569762e-01
  5.5845106e-01
  2.9184830e-01
 -1.2558771e+00
 -9.2237943e-01
 -2.4004447e+00
 -9.0172559e-02
 -1.3404413e+00
  8.2773668e-01
 -8.3417886e-01
 -3.6726639e-01
  1.3264138e+00
 -1.7168020e+00
  5.4877347e-01
 -1.6807935e-01
  6.7339766e-01
  3.7653811e-02
 -2.4860446e-01
 -1.3611921e+00
  1.7372026e-01
  4.9973093e-02
 -1.5473900e+00
 -1.6302884e-01
  4.4404936e-01
 -1.2856878e+00
 -2.2554554e-01
 -1.7121478e+00
 -8.4021258e-01
 -7.7400380e-01
  2.8600836e-01
 -1.6885458e-01
  3.5048920e-01
 -7.3753166e-01
  8.6324310e-01
  1.3428965e-01
 -1.2069860e-01
  2.3241679e-01
  4.6845028e-01
 -1.3718647e+00
 -4.1688031e-01
 -1.0474454e+00
 -1.9230750e-01
  3.5319424e-01
 -4.0464041e-01
  4.5570546e-01
  5.3540987e-01
 -1.2627779e-01
  4.5498359e-01
 -4.5723513e-01
 -2.6843050e-01
  9.1339970e-01
 -7.0911527e-01
  1.2955648e+00
  4.7866100e-01
  7.6630495e-02
  8.3098757e-01
  8.1610304e-01
  1.5668744e+00
  1.0446150e+00
 -1.9009788e-01
 -7.6988900e-01
 -1.0278725e-01
 -9.6081048e-02
 -7.0230860e-01
  8.1528223e-01
  9.8091596e-01
 -1.4033541e-01
  2.5825891e-01
 -8.0461091e-01
 -5.4879832e-01
 -1.4007466e+00
  3.0599653e-03
 -2.1189122e+00
  4.9597636e-01
  4.1323265e-01
 -1.4925841e+00
 -1.3780673e-01
 -9.8061532e-01
 -8.9557099e-01
  2.3806384e-01
 -7.0705605e-01
  3.9631629e-01
  3.4721270e-02
 -1.3865441e+00
 -1.3945016e-01
 -2.7882013e-01
 -1.1045483e-01
 -2.8126962e-02
  7.8132200e-01
  5.7335705e-01
 -4.8523006e-01
  4.5393205e-01
  2.5699094e-02
 -4.3530148e-01
 -5.7610017e-01
 -6.1907866e-03
  1.2068330e-01
 -8.6545289e-01
 -1.0835972e+00
  6.2009569e-02
  7.9935044e-01
 -1.2902333e+00
  1.5673610e+00
 -6.5637964e-01
 -7.3472261e-01
 -1.3891946e-01
  3.7007910e-01
  8.2605743e-01
  1.0144154e-01
 -4.2442971e-01
 -4.7612380e-02
  5.6551635e-01
 -1.1647539e+00
 -1.7748487e-01
  8.0055952e-01
  3.3526525e-01
  7.9136884e-01
  6.9009286e-01
 -1.9534353e+00
  3.7001128e+00
  4.2847745e-02
  3.0819006e+00
 -3.9263567e-01
 -3.2849109e-01
 -9.1867894e-01
  7.9344928e-02
 -7.3463321e-01
  1.2917025e+00
  9.7053683e-01
 -5.6467730e-01
 -1.4073360e-01
 -1.5831614e+00
  5.7577968e-01
  2.5011772e-02
  3.5032511e-02
  8.8620588e-02
  1.4517754e+00
 -4.7760308e-01
 -1.7288014e+00
  1.6027428e+00
 -8.2424229e-01
  2.3899111e-01
 -1.8374231e-01
  6.9318575e-01
  3.3435425e-01
 -2.6840129e-01
 -8.0839256e-03
  1.2758745e-01
  2.0273373e-01
 -5.0383317e-01
  4.5724422e-01
 -1.3917249e+00
 -2.7190411e-01
  2.9358917e-01
 -3.2966375e-01
 -3.9350610e-02
  1.3521779e+00
 -1.8471704e+00
 -3.6779016e-01
  8.1505537e-01
 -6.7889228e-02
  2.2709000e-01
  1.1924990e+00
 -3.3980444e-01
 -9.4352835e-01
 -2.5030205e-01
 -4.0198851e-01
  1.3391824e+00
  2.3326212e-01
  2.2587819e+00
  9.3730545e-01
 -2.4460234e-02
 -1.1167008e-01
  2.1058260e-01
 -1.1587770e+00
  3.8904861e-01
 -1.7679036e+00
 -1.9069534e-02
  6.0614526e-01
 -1.0307956e+00
 -2.0303796e-01
  8.1341073e-02
 -1.7539267e-01
 -6.7108226e-01
 -5.6759673e-01
 -2.7404487e-02
  3.7567094e-01
  2.1196003e-01
 -5.9330684e-01
  5.2357930e-01
 -3.6385691e-01
  1.0763321e+00
  7.1739686e-01
 -6.0081244e-03
 -1.8499160e+00
  3.9607960e-01
  9.5564044e-01
 -3.1821750e-02
  8.5634577e-01
  9.7322011e-01
 -1.0825537e+00
 -3.8842773e-01
  1.6603276e+00
  2.1162879e-02
  3.6946520e-01
 -1.0508465e+00
 -5.4497790e-01
  1.0767457e+00
 -8.3668894e-01
 -6.8631965e-01
 -1.2415449e-01
 -1.1729769e-01
 -7.5530136e-01
 -1.5900193e+00
 -7.2663599e-01
 -3.9768103e-01
 -4.9990329e-01
  4.8548958e-01
 -1.1983989e-01
 -1.7176520e+00
  1.2389609e+00
 -1.1374948e+00
 -9.9734265e-01
  4.5374200e-01
 -2.5674131e-02
 -4.2051759e-02
  8.7348789e-01
 -4.3001972e-02
 -2.5687644e-01
 -2.4931983e-03
 -1.9731990e+00
 -7.9845050e-03
 -2.4921987e+00
 -3.6142686e-01
  5.8775157e-01
 -1.0471866e+00
  3.6663988e-01
 -1.6438233e+00
  1.5900220e+00
 -1.8560202e+00
 -4.2406014e-01
  6.1172390e-01
  2.9019988e-01
 -5.8402914e-01
  6.7436048e-03
 -1.0314939e-01
  4.4075254e-01
  1.1579956e+00
  9.3273081e-02
 -7.3697932e-02
  6.1968344e-01
  1.0959247e-01
 -2.8120598e-01
 -6.6066694e-01
  1.4736346e+00
 -3.7662128e-01
 -9.2725390e-01
  1.6698198e-03
 -1.9600633e+00
  2.9862618e-02
  1.1262305e+00
 -1.0180278e+00
  7.2467893e-01
 -5.8915198e-01
 -3.9081118e-01
  9.7133452e-01
  6.2254649e-01
 -4.5471960e-01
 -2.3383169e-01
  4.7765744e-01
 -2.5498009e-01
 -2.6215600e-02
  1.3276696e+00
  1.5980279e-02
  8.2977641e-01
  7.9918760e-01
  8.4257796e-02
 -1.3332982e-01
  7.1148425e-01
  2.4709224e-03
  6.7109746e-01
  1.7515797e-03
  2.0973136e+00
  4.6031979e-01
  9.0570599e-01
  4.0349123e-01
 -7.6040000e-01
 -4.6879315e-01
 -5.6513029e-01
  1.4550920e+00
  9.8833703e-02
  1.3000792e-01
  2.5649986e-01
  5.1417452e-01
 -4.7455737e-01
  8.9817119e-01
 -6.9816101e-01
  2.9465571e-01
  1.1846720e+00
 -8.7519318e-01
 -1.1158100e+00
  2.5906959e-01
 -2.5500038e-01
 -4.4373041e-01
 -6.3804411e-03
 -1.3994567e+00
 -1.5219827e+00
 -1.9061905e+00
 -1.6848570e+00
  1.5890380e+00
  9.8766547e-01
 -1.8217664e+00
 -1.7160313e+00
  2.0072615e+00
  1.2121562e+00
  1.6529107e+00
 -5.3347069e-01
 -8.0833876e-01
  4.4124693e-01
  2.0786501e-01
  5.3224236e-01
 -8.9711201e-01
  5.0329175e-02
 -5.1149505e-01
 -2.2322766e-01
 -2.2818477e+00
 -8.1623778e-02
  2.9510597e-02
  1.4048117e-01
 -7.9649752e-03
  4.3426439e-01
 -3.8915297e-01
  6.5836364e-01
  7.5133902e-01
  5.3530943e-01
 -2.0322306e+00
 -6.0524136e-01
  1.1735077e+00
  2.1135934e-02
 -2.3804191e-01
 -1.3688575e-01
 -2.5155428e-03
 -1.1732763e+00
 -2.8567660e+00
  1.1614138e+00
  4.8334503e-01
 -1.7965831e-01
  1.2670325e+00
 -1.0575008e+00
  1.1329048e+00
  1.7842493e+00
  3.9080805e-01
  1.8243065e+00
  8.8462389e-01
 -5.8508754e-01
 -3.9437696e-01
  1.0581034e-01
  5.8293563e-01
 -7.8370208e-01
 -1.3506512e-01
 -1.1217998e+00
  2.8079424e+00
 -6.4884388e-01
 -1.9762451e-02
  1.0122104e+00
  1.4263391e-01
  6.4981544e-01
 -6.7699993e-01
 -1.8536688e+00
  4.6790466e-02
  1.2596135e-02
  8.2220775e-01
 -1.5734032e-01
  2.5830108e-01
 -4.7664917e-01
 -2.7854130e-01
  3.8121343e-01
  3.8677961e-01
  3.3661929e-01
  2.3017690e+00
 -1.2036282e-01
 -1.2855905e+00
  8.7006992e-01
  1.1000431e-01
 -1.6886264e+00
  9.8054600e-01
  1.4974287e-02
  5.1199400e-01
 -1.2817280e-01
 -7.2669394e-02
 -6.2688518e-01
  7.8101225e-02
  1.4414071e-01
  8.7557393e-01
  2.7920544e-01
 -1.0605060e+00
  2.9572606e-01
  2.6613125e-01
 -2.4853750e-01
 -5.2857157e-02
 -7.2838038e-01
  1.1823458e-01
 -4.6859795e-01
 -9.3191189e-01
  8.5238911e-02
 -1.4676416e-01
  2.8551414e-03
 -5.7707071e-01
  4.8007119e-01
 -4.3750503e-03
 -2.0630772e+00
 -4.7239281e-02
 -5.8642238e-01
 -7.9340005e-01
 -1.2816980e-01
  8.2629788e-01
  1.2229132e-02
 -1.0971785e-01
 -1.4373666e+00
  6.0016519e-01
 -2.1727307e+00
 -1.4350193e+00
  6.5154303e-04
  1.4946707e-01
 -4.7545764e-01
  4.3119675e-01
  6.8928522e-01
  1.7432358e+00
 -1.1063743e+00
  6.6882950e-01
 -5.8136469e-01
  8.3681935e-01
 -1.1646268e-01
 -1.6099134e-01
  1.6135125e+00
 -2.9323724e-01
  1.0114954e+00
  7.9610512e-02
 -2.0665494e-01
  1.8097011e+00
 -2.5966415e-01
 -1.0270257e-01
  4.7366282e-01
  1.8041974e-01
 -3.5388190e-01
  4.0945819e-01
  1.7269125e-02
 -8.5914601e-04
 -2.6540706e-01
 -9.2433286e-01
 -3.9252928e-01
  2.7044994e-01
 -2.9634181e-01
  5.9482938e-01
 -4.7965135e-02
  1.0993329e+00
  1.7262869e-01
  3.1143773e-01
  1.2988234e-01
  1.8119968e+00
 -3.2039981e-02
 -2.7231503e-02
 -5.7357872e-01
  2.0086212e-01
  5.9725738e-01
  2.5950482e-01
  6.1770397e-01
 -9.9992704e-01
  1.9399163e-01
  4.0287957e-01
 -8.5743701e-01
  8.3249807e-01
 -4.3347776e-01
  2.2913861e+00
  1.1251003e+00
  1.2448849e-01
 -1.2515736e-01
 -5.6327063e-01
 -3.1399626e-01
 -5.4940915e-01
  8.9611548e-01
 -1.2208336e-02
 -6.2177158e-03
 -4.3639672e-01
 -6.4461932e-02
  2.3856066e-01
  1.6154920e-01
  9.2514342e-01
 -1.5826521e+00
 -4.7467762e-01
  1.8165977e-01
  1.1549257e+00
  3.7697864e-01
  1.5711242e+00
  2.9233959e-01
  1.6869301e-02
  4.5572543e-01
  5.3498018e-01
  5.5429387e-01
  4.5137029e-02
  2.5168884e-01
 -1.5204161e+00
  1.9190408e-01
 -9.0219212e-01
  3.9696544e-01
  7.9180151e-01
 -3.2650837e-01
 -5.8049012e-02
  1.1599626e-01
  3.6645657e-01
  8.8051242e-01
  1.1456769e+00
 -6.5330273e-01
  5.1925111e-01
 -1.0319242e+00
  6.9274390e-01
  4.6142098e-02
 -5.4765302e-01
  1.3269860e-01
 -1.8005268e-01
 -4.5337197e-01
 -1.2579656e-01
  2.1109563e-01
 -7.4387527e-01
  3.0836332e-01
 -6.8066818e-01
 -4.1025439e-01
 -1.5268409e+00
  8.7230706e-01
 -7.6742822e-01
 -1.5638612e-01
  1.0241868e-01
  6.8698573e-01
 -4.6119848e-01
  6.3718461e-02
  5.5529499e-01
 -4.1395071e-01
 -4.3083671e-01
  1.9164065e+00
  9.2574656e-02
 -3.3106047e-01
  3.0508862e+00
 -4.9392018e-01
 -1.1068399e+00
 -1.9244369e+00
 -6.5554559e-01
 -2.3647670e-01
 -1.2393758e+00
  7.6024169e-01
  1.1491122e+00
 -1.5572621e+00
  9.1524899e-01
 -9.5097977e-01
  6.0768530e-02
 -7.1901911e-01
  9.4280761e-01
  1.9897697e+00
 -2.9911172e-01
  5.6125969e-01
  2.6045420e+00
 -7.8260434e-01
  2.1781095e-03
  3.7963262e-01
 -7.2971189e-01
  3.8086855e-01
  8.4053481e-01
  1.2382346e+00
 -7.6150173e-01
  6.8958634e-01
 -5.0691062e-01
 -8.8261616e-01
  9.5975035e-01
 -5.4698241e-01
 -6.1528045e-01
  2.4209914e+00
 -6.8518168e-01
 -1.5974960e+00
 -7.7563596e-01
 -1.0077721e-02
  7.0636255e-01
  2.5496566e-01
  4.5390156e-01
 -1.8668257e+00
  6.5213251e-01
  4.4278595e-01
  2.3915395e-01
 -6.5879738e-01
 -6.7517698e-01
 -5.7234597e-01
  1.0905088e+00
  6.7698538e-01
 -1.3036304e+00
  4.7021743e-02
 -1.2771344e-01
 -1.1909782e+00
  8.1844711e-01
 -7.7535845e-02
 -2.7056935e-01
 -4.8605376e-01
 -1.3707583e+00
  1.9991796e-01
 -5.5954468e-01
  4.0970415e-01
 -3.9956886e-01
 -1.6334540e-01
  1.3022676e-01
 -1.2164924e-01
  6.0318667e-01
  1.0769439e+00
 -2.8147271e-01
 -1.6460429e-01
  1.5100442e+00
 -1.6379185e-01
  4.8589769e-01
 -2.4991994e-01
 -6.0291797e-01
  1.2067460e+00
  3.3166793e-01
  1.4387163e+00
 -3.3365551e-01
 -5.8402759e-01
  1.5063722e+00
 -5.7757702e-02
  3.4334958e-01
  5.8151770e-01
 -9.0918547e-01
 -1.7242862e+00
  7.6720232e-01
 -1.2707314e+00
 -2.4267926e-03
  2.1373610e+00
  6.8071729e-01
 -7.4203742e-01
  9.6186000e-01
 -4.6290869e-01
 -2.9027563e-01
 -6.3575286e-01
  1.5595784e+00
  3.8149551e-01
  6.2361185e-02
  1.8805990e+00
  1.4140767e+00
 -1.0264536e+00
  9.8744529e-01
 -9.0599185e-01
 -8.7227708e-01
 -6.8605766e-02
  1.1158302e+00
 -2.4266273e-01
  4.0941265e-01
  1.3861034e+00
  2.8931180e-01
  4.3732634e-01
 -1.0495723e+00
 -7.6495785e-01
  1.1551029e-01
 -8.3037543e-01
 -4.7930253e-01
 -5.2869081e-02
 -2.4078222e-01
 -4.3890998e-01
  8.9818411e-02
  6.0364581e-04
  7.6290256e-01
 -1.3678931e+00
 -9.8623866e-01
 -1.9431885e-02
  9.7821999e-01
 -1.2752558e+00
  1.5266309e+00
  1.0962546e-01
 -7.8876901e-01
 -4.0105951e-01
  2.5833938e-01
  7.6090705e-01
 -2.3621175e-01
 -2.7091673e-01
 -4.6311930e-02
  4.2005369e-01
 -5.5505252e-01
 -5.8713086e-02
  1.7295779e+00
 -1.1543775e+00
 -7.7325232e-02
 -6.5425849e-01
 -4.8334876e-01
  7.7691305e-01
 -6.2677759e-01
  3.0897522e-01
  1.9882483e+00
 -3.2599741e-01
  1.2328976e+00
 -8.6972162e-02
 -4.9656731e-01
  2.0343795e+00
  1.1668968e+00
  1.1820582e+00
  4.9004693e-02
 -8.0576444e-01
 -1.2881385e-01
  2.8078088e-01
 -6.0221963e-02
  3.1018245e-01
  1.4281172e+00
  2.3579270e-01
 -9.5848650e-01
 -6.5477252e-01
  4.8370406e-01
 -1.2148738e+00
  2.2768199e+00
  7.6131783e-02
 -5.2396154e-01
  1.5210947e-01
  3.3863658e-01
 -8.7645525e-01
  4.2528865e-01
 -8.1921965e-01
  1.0411497e-01
  1.2525845e-01
 -5.8241767e-01
 -7.3218346e-02
 -2.5736555e-01
 -4.0484997e-03
  2.6980287e-01
 -1.3157172e+00
  7.8444934e-01
 -1.2755777e+00
 -1.5029284e-01
 -9.8322624e-01
  1.3765393e-01
  2.4959534e-01
  3.9917931e-01
  1.4485505e-01
 -3.1205460e-01
 -4.8144042e-01
  2.0320876e+00
 -5.1453692e-01
 -5.9168941e-01
 -1.0175709e+00
 -8.5093454e-02
  1.2197895e+00
 -3.4458190e-01
  1.2899599e+00
 -1.0892072e-03
  9.8166116e-02
 -3.0559635e-01
 -2.0469294e-01
  2.3214528e-01
  6.8206474e-02
  1.3917917e-01
  7.1034527e-01
  3.1359307e-02
  1.4967674e+00
  3.3571327e-01
  3.2223240e-01
  2.3233880e-01
  5.7914644e-01
  9.1416931e-01
  8.2484418e-01
 -2.5572436e+00
  7.4300510e-01
  1.0655496e-01
 -1.2904936e-01
  2.0604065e-01
  1.0006517e+00
 -1.1611413e+00
  2.9017346e-02
 -4.2285556e-01
  1.0206491e+00
 -1.3854958e+00
 -9.3334466e-01
  1.5611004e+00
  5.2087262e-02
  5.0126955e-02
 -4.4846639e-01
  6.7222089e-01
 -1.8418018e-02
  1.2045393e-01
 -1.9593949e+00
 -4.5286766e-01
  1.4431143e-01
  4.4864318e-01
 -3.4565115e-01
 -8.5547411e-01
 -1.3171898e-01
 -7.8428662e-01
 -1.1102965e-01
 -1.2341315e+00
 -2.5424471e+00
  1.8123035e+00
 -2.0366902e+00
 -2.3902310e-02
  8.2365292e-01
 -1.4387261e+00
  1.0398799e+00
 -7.4757916e-01
  6.3659519e-02
 -4.5700547e-01
  7.2393560e-01
 -1.3741857e+00
  1.6443485e+00
 -1.4103177e-01
  9.9410027e-01
  4.2662689e-01
 -7.2253957e-02
  1.2211252e+00
 -1.4219646e-01
  2.7328244e-01
  9.5306408e-01
 -7.6827240e-01
  1.0346510e+00
  5.1736981e-01
  8.2213372e-01
  2.0071042e-01
 -9.4462824e-01
 -1.2034253e+00
  2.6288204e+00
 -7.4951142e-01
  1.0243120e+00
  7.3417711e-01
  2.1317823e+00
  6.9449103e-01
  8.3298540e-01
 -6.4528829e-01
  7.7267426e-01
  1.9482737e+00
 -7.8843760e-01
 -8.9514010e-02
 -8.0285311e-01
  4.5179325e-01
  2.1321885e-01
 -6.9768327e-01
  1.4775087e+00
  2.5309953e-01
  1.1776110e+00
 -1.3973415e+00
  1.6034403e+00
 -2.4086924e+00
  5.2352172e-01
 -2.5754738e+00
  8.1040546e-02
 -1.2515596e+00
  8.7306842e-02
 -2.3100624e+00
 -1.0175529e-02
  2.6447174e-01
 -6.6371754e-02
 -1.7079500e-02
 -3.5832514e-04
  8.2664436e-01
 -2.1266957e-01
  6.4688331e-01
  4.3494761e-01
 -8.3013140e-02
 -1.2243278e+00
  1.1206443e-01
  1.5871419e-01
 -6.0092086e-01
  2.2049871e-01
 -3.3478737e-02
  4.5471963e-01
  1.8419474e-04
 -2.5738585e-01
 -2.4664079e-01
  1.4222628e-01
 -6.7295408e-01
 -3.1536603e-01
 -2.4328555e-01
 -5.4217666e-01
 -5.8350563e-01
 -1.7710063e-01
 -1.1972513e+00
 -2.2540076e-02
 -7.7256757e-01
  2.3785035e-01
 -5.6085879e-01
  8.3171380e-01
 -1.0612399e-01
  1.3235149e-01
  6.3861674e-01
  2.2662751e-02
  1.1252935e+00
  1.7000109e+00
 -1.4966096e+00
  2.5791254e-02
 -3.3026081e-01
 -5.7816702e-01
  6.2946659e-01
 -1.8649560e-01
 -1.6591991e+00
  1.4136201e-01
 -2.5229454e+00
  4.7715804e-01
 -6.8621176e-01
 -1.1764679e+00
 -7.0640469e-01
 -1.2762685e+00
  1.8532889e-01
  1.8914560e+00
  9.1219288e-01
  1.1835301e-01
  9.0418077e-01
  6.3981205e-02
  2.1669663e-01
  1.1340243e-01
  9.0069872e-01
 -4.9576974e-01
  6.6229308e-01
  3.8343248e-01
 -2.9442856e-01
  3.2972854e-01
  4.7777283e-01
 -7.6508957e-01
  2.3850167e-01
  1.9482586e-01
  2.7635345e-01
  9.6143618e-02
 -2.0048797e-01
  3.9486557e-01
  7.7250135e-01
  4.0800872e-01
  1.2331121e-01
  4.5031008e-01
  1.8328002e-01
  7.5545084e-01
  7.9931900e-02
 -2.3527177e-02
  1.5568301e-01
  1.3955306e-01
  5.3442425e-01
  7.0320122e-02
  2.0671444e-02
 -1.1723892e-01
 -1.2872307e+00
 -1.5083995e+00
  6.8455350e-01
 -3.5871345e-01
 -6.7390287e-01
 -5.7717448e-01
  2.5866693e-02
 -3.0813217e-01
 -8.7770504e-01
  7.9563880e-01
  2.3114619e-01
  6.7566347e-01
  1.2824578e+00
  8.1785619e-03
  9.0842444e-01
  9.4761282e-02
  2.0383990e-01
  4.8779581e-02
 -4.0762395e-01
  1.5835761e-01
  1.3460541e+00
 -9.5216864e-01
 -5.8199650e-01
  3.9355615e-01
  2.3862758e+00
 -6.6947967e-01
 -8.7683380e-02
  2.1958151e-01
 -4.6623963e-01
  1.1304765e-02
  9.1394478e-01
 -2.5608984e-01
 -1.5566903e+00
  3.6951712e-01
  3.3978321e-02
  1.0715357e+00
  1.7150012e-01
 -8.0929630e-02
 -4.6546862e-01
 -3.6745083e-01
 -2.2114490e-01
  9.1496229e-01
 -1.9760528e+00
 -5.3348154e-01
  1.4163803e+00
  1.1525111e-01
  1.1199272e-01
 -1.1845318e+00
 -2.0699941e-01
 -5.3077149e-01
  2.6720360e-01
 -9.8751813e-01
 -1.6080944e-02
 -5.6062502e-01
 -1.5143681e+00
 -5.5581880e-01
  7.4790353e-01
  1.4448150e-01
  1.0445933e+00
  1.5462273e-01
  1.3885933e+00
 -5.5672014e-03
 -1.6725528e-01
 -7.7689469e-01
 -6.5925825e-01
  3.6433262e-01
 -5.7156719e-02
  6.0822338e-01
  1.7637845e+00
  5.4709059e-01
  1.8616612e+00
 -2.6836392e-01
 -1.0902134e-01
 -6.6288942e-01
  1.2153957e+00
 -1.1228511e+00
  9.9513704e-01
  1.3650891e+00
  4.6175629e-01
  4.7854610e-02
 -1.0805942e+00
  2.4302851e-01
 -8.3470559e-01
  1.1829306e-01
  1.9152077e-01
 -7.7579278e-01
  1.1708001e+00
 -8.1351721e-01
 -2.1221442e+00
 -6.1000353e-01
 -3.5397619e-01
  7.2701645e-01
 -7.7470136e-01
  1.0582476e+00
  2.3420322e-01
  7.0699316e-01
 -1.5195374e+00
 -1.6082156e-01
 -7.4582197e-02
 -5.0394587e-02
 -1.1971318e+00
  5.6289190e-01
  1.8189161e-01
  6.1781234e-01
 -9.9419266e-01
 -1.7075245e+00
 -5.3340441e-01
  9.4878179e-01
  1.4578471e+00
  1.1176054e+00
 -1.3885616e+00
 -1.4405558e+00
  4.8265341e-01
  2.0046148e-03
  1.5158926e+00
  1.9820715e-01
 -2.1218238e+00
 -4.5529974e-01
  7.4054861e-01
 -4.6632880e-01
 -1.6171592e-01
  1.3110565e-01
  1.5210910e+00
 -9.3107438e-01
 -3.9923438e-01
 -1.4542233e+00
 -1.4089341e-01
  7.4805474e-01
  1.2694278e+00
  3.1371185e-01
  1.3272195e+00
  8.5364521e-02
  8.1097162e-01
 -1.0276654e+00
  1.2913617e-01
  2.2356255e+00
  6.7441916e-01
  2.3392004e-01
 -1.7529527e-02
 -6.7502838e-01
  5.4865336e-01
 -6.4195347e-01
 -5.0998455e-01
 -8.2956505e-01
 -8.9239866e-02
 -1.2144865e+00
  9.4709712e-01
  7.3304594e-01
 -4.7361168e-01
 -1.1062067e+00
  1.3454804e-01
  1.2307425e-01
 -7.7080065e-01
  4.5127110e-03
 -1.4154904e-01
  5.5116105e-01
  1.2896758e+00
 -1.2823505e+00
 -1.5891593e+00
 -7.4257129e-03
  4.3780574e-01
 -6.5470189e-03
  6.3406289e-01
 -2.0160184e+00
 -2.6843184e-01
 -7.5673527e-01
 -3.9135271e-01
 -8.0163097e-01
  9.7473919e-01
 -9.3805552e-01
 -7.1178907e-01
 -4.6576786e-01
  1.7400618e-01
  2.1949172e+00
  4.6047896e-01
  3.4573662e-01
 -7.3307139e-01
 -8.6425161e-01
  5.9904867e-01
  4.4113290e-03
  1.4051301e+00
  2.4220558e-01
  2.3372498e+00
  3.7224275e-01
 -8.2101232e-01
 -3.5221484e-01
 -7.4129480e-01
 -4.8966316e-04
  8.1424361e-01
 -4.4560292e-01
 -1.7208706e+00
  2.9058650e-03
  4.8386744e-01
 -8.6156100e-01
  5.1559311e-01
 -3.1504175e-01
 -2.0912690e-01
  7.3844194e-02
  1.3865955e-01
  1.1529447e+00
  5.3004291e-02
  4.4863388e-01
  8.6957067e-01
  2.1455380e-01
  4.6674341e-02
 -7.0796955e-01
  3.7720248e-01
 -1.3681518e-01
  1.2238342e+00
 -4.0858231e+00
 -3.3451819e-01
 -5.8716637e-01
 -4.5211980e-01
  5.6721365e-01
 -8.1005120e-01
 -4.5959824e-01
  6.8193465e-02
  3.1248900e-01
 -1.5115402e+00
 -1.6404346e-01
  1.3420514e+00
  3.2073669e-02
  7.8418881e-01
 -8.2593858e-02
  4.0148166e-01
  1.9434409e-01
 -8.0964434e-01
  3.2497832e-01
 -7.1423361e-03
 -2.2110158e-01
  1.0038927e+00
  3.5183766e-01
 -6.2507981e-01
 -2.0399616e+00
 -5.1611763e-01
  9.5400834e-01
 -2.7408323e-01
 -2.6258111e-01
  2.1292849e-01
 -1.0625893e+00
 -2.9248038e-01
  3.0926001e-01
 -7.2040319e-01
 -3.8460267e-01
  1.7785300e-01
  1.9175649e-01
  4.6035953e-02
  1.4128262e-01
  2.4113033e-02
  2.0489658e-01
  1.0765407e+00
 -1.2829580e+00
  3.0353853e-01
 -3.0709416e-01
 -1.5798099e-01
  1.0003029e-01
 -5.1236945e-01
  6.5209460e-01
  1.6863589e-01
 -1.1116270e-01
  1.0190646e-01
 -3.7945566e-01
  9.9770695e-01
 -2.7022552e-01
 -2.3095015e-01
  1.4816071e-01
 -9.1304737e-01
  7.2771072e-01
 -4.8690104e-01
 -1.1602821e+00
  8.4489429e-01
  7.8556907e-01
  2.8864038e-01
 -2.3404479e+00
  6.9296253e-01
  6.7881358e-01
  7.0267402e-02
  2.3167486e-01
 -3.0093178e-01
  6.2733728e-01
 -9.6327297e-02
 -1.1920552e+00
 -1.4529750e-02
  5.1854140e-01
  1.7279576e-01
 -8.9070626e-02
  7.0313144e-01
  4.5191407e-01
 -6.7141974e-01
 -2.9386276e-01
  2.7308264e-01
 -7.7239430e-01
  4.2572516e-04
  1.1376601e+00
  5.7723741e-03
 -1.2783977e+00
  9.0687817e-01
  6.0254961e-01
  8.3867684e-02
  3.1787676e-01
  9.0251255e-01
 -7.4195135e-01
  1.4156908e+00
  1.0984622e+00
 -9.3802351e-01
 -3.7908450e-01
 -4.6220756e-01
  1.2181915e+00
  9.2699718e-01
  3.2940307e-01
 -6.9755149e-01
 -8.8874966e-01
 -1.3133347e-01
  1.6527034e-01
  1.1789932e+00
 -2.4921973e-01
 -4.7160658e-01
  1.1184853e-01
  4.8737094e-01
  5.1056389e-02
 -1.1751928e+00
 -1.1554714e+00
  2.0055503e-01
 -1.7069100e-01
  1.0715448e+00
  4.1590020e-01
  1.5957214e+00
  1.8585895e-01
 -1.6030613e+00
  4.1404989e-01
 -1.0498855e+00
  4.4942164e-01
 -2.4403541e-01
 -6.1523598e-01
  5.4109740e-01
  2.4648757e-01
  4.9189216e-01
 -1.1026235e+00
 -7.2624868e-01
  2.3087778e+00
  8.4866330e-02
 -2.0127397e+00
  5.9854817e-01
  9.3763925e-02
  1.1338465e-04
 -8.7159419e-01
  2.3402576e-01
 -5.3775495e-01
 -1.4857240e-01
 -9.2594391e-03
 -8.9072371e-01
  5.8259005e-03
 -1.3501424e-01
  1.9046421e-01
 -3.1347284e-01
  1.3700637e+00
 -1.5649959e-02
  3.6630094e-01
  8.8077873e-01
 -3.9909306e-01
  7.5434250e-01
  1.2487999e+00
 -1.9684423e-02
 -6.1620116e-01
 -8.8106263e-01
  4.2283508e-01
  7.1229410e-01
  2.0747495e-01
 -3.8168779e-01
 -3.1516369e-02
 -1.1503913e+00
 -1.9129561e-01
 -1.4556373e+00
 -1.3034925e+00
 -8.5882580e-01
 -2.3359707e-01
  1.0879048e-01
  1.7728555e+00
 -6.0424954e-01
 -1.3933538e+00
 -2.8789667e-02
  9.6563089e-01
  9.4253862e-01
  2.8309005e-01
 -4.1856343e-01
 -2.0728950e-01
 -5.9708500e-01
  8.4512435e-02
 -1.1964976e+00
  4.6900323e-01
  1.2912132e+00
  4.2133668e-01
  8.0399409e-02
  3.2924882e-01
  5.1898503e-01
 -7.5367171e-01
 -4.1879401e-01
  1.5462989e-01
 -2.7195483e-01
 -3.1039688e-01
  6.5614605e-01
  1.2361758e-01
 -1.2850059e-02
  2.8203386e-01
 -1.6395877e-01
 -7.4505851e-02
 -1.2589893e+00
  1.5047293e+00
 -3.7347779e-01
 -4.4491267e-01
 -2.3688999e-01
 -7.4755490e-01
  4.2817676e-01
 -7.9721451e-04
  1.5070083e-02
 -5.1008040e-01
  6.4950205e-02
  9.9019897e-01
  1.8773432e+00
 -8.8971800e-01
 -3.6326474e-01
 -7.1647145e-02
 -6.6349286e-01
 -3.1260860e-01
  7.6464427e-01
 -4.3407958e-02
  1.0618681e+00
  9.3946409e-01
  1.9688143e-01
 -4.8986557e-01
  1.3087197e-02
  4.1873693e-03
 -9.7408628e-01
  1.7586589e+00
  8.1258550e-02
 -1.2362072e+00
  9.9852300e-01
 -6.1893803e-01
 -9.2894006e-01
 -1.4183003e+00
  2.0506176e-01
 -3.7775618e-01
  4.4266158e-01
 -9.6453059e-01
  5.5956268e-01
  1.4042069e-02
 -2.0732133e+00
  1.0362874e+00
 -4.6516642e-02
 -6.4606076e-01
  1.7483738e-01
 -2.7295236e-02
  2.0197079e-01
 -4.6361154e-01
  6.1782962e-01
 -1.5180629e+00
  3.6891755e-01
  1.2191160e-02
 -3.2048222e-01
 -9.2363276e-02
 -1.2710278e+00
 -8.9240813e-01
  1.3478926e+00
 -1.7805718e+00
  6.9840580e-01
 -2.9362696e-01
  1.9470352e-01
 -4.8688370e-01
 -4.7900721e-01
  4.8698249e-01
 -3.3783209e-01
  5.9978807e-01
 -2.9096869e-01
  8.9072615e-01
 -3.2363197e-01
  1.5249496e+00
  1.1936928e-01
 -1.3340043e+00
  9.3308264e-01
 -1.4626776e-01
 -4.5094900e-02
  8.2744974e-01
 -7.6754111e-01
  9.7169024e-01
 -7.0305449e-01
  4.5637947e-01
 -3.8807088e-01
  2.3604794e-01
  7.2354913e-02
  5.7583576e-01
  4.0386575e-01
 -5.3577775e-01
  9.6760459e-02
 -8.0231570e-02
  4.3635002e-01
 -4.3286111e-02
  1.5864873e-01
 -2.7758129e-02
  6.5515363e-01
 -4.3908983e-01
  9.0073034e-02
  9.2899847e-01
  5.1618087e-01
  1.7006572e-01
 -1.0188798e+00
 -7.8265256e-01
 -2.3086631e+00
 -1.6591320e+00
  6.8412803e-02
  3.8762032e-03
 -5.3970265e-01
 -2.1276207e+00
  8.8816011e-01
 -8.0088228e-01
  9.3459278e-01
 -1.6050231e+00
  1.1017028e+00
  7.1512830e-01
 -6.3515902e-01
  2.8344449e-01
  1.3263267e+00
  1.5832366e+00
 -1.0544635e+00
 -2.1594724e-01
  1.5732119e+00
 -8.0947804e-01
  1.3036329e+00
 -3.1233579e-02
  7.8336513e-01
  2.7741039e-01
  2.1010183e-01
  1.7389249e-03
  7.0211029e-01
  7.3138922e-01
 -5.2558857e-01
 -1.1118950e+00
  5.1625013e-01
 -1.1440899e-01
 -1.3441032e+00
 -4.6309927e-01
  6.6931617e-01
 -1.4666642e-02
 -6.7771143e-01
 -8.1525948e-03
 -2.0660322e+00
 -9.0240759e-01
 -2.3259422e-01
 -1.1146607e+00
  1.5164225e+00
  1.6214344e-01
 -4.2528600e-02
  5.2950168e-01
 -1.1940372e-01
 -4.4020203e-01
  1.2038345e+00
 -1.2718654e+00
  1.2282821e+00
  3.4529802e-01
 -2.5600418e-01
 -3.5981789e-01
 -1.3458558e+00
 -3.9572874e-01
  3.9898686e-02
 -6.1974305e-01
  1.0259866e+00
 -7.1896121e-02
 -1.6506689e+00
 -8.2667381e-01
 -1.4049276e+00
  3.2217145e-01
  3.0486131e-01
 -2.8882796e-01
  4.4849464e-01
 -1.9154124e+00
  2.1089573e+00
  6.4418234e-02
  6.3420520e-03
 -1.3278668e+00
  1.1784841e+00
 -2.6000026e-01
  1.5508081e+00
  7.5058468e-02
 -8.8573778e-01
  4.0729547e-01
  2.3154470e-01
 -1.7193063e-01
  4.0147305e-01
 -2.0918766e-02
  3.4320292e-01
  1.7470719e-01
  3.3143517e-02
  1.7441202e-02
 -2.0741914e-01
 -4.2900705e-01
  5.4342932e-01
 -4.1490674e-02
  1.5126044e+00
 -7.1914881e-03
  1.2624297e-01
 -3.0805007e-01
  8.6945552e-01
 -1.7900097e+00
  1.7147732e-01
  1.0972162e-01
 -1.9959411e-01
 -3.4519342e-01
  2.9694453e-01
 -1.6983768e-01
 -2.2821264e-01
 -1.3243590e-01
  4.0717030e-01
  6.6527551e-01
 -3.7171457e-02
 -2.4365483e-01
  2.5001779e-01
  6.9818276e-01
 -3.3772501e-01
  1.4691772e+00
 -7.5861913e-01
 -7.6778924e-01
 -7.1951717e-01
  1.1743122e+00
 -8.1594086e-01
 -7.5131547e-01
 -5.6322582e-02
  1.1766592e-02
 -7.1370846e-01
  1.4477193e+00
 -1.6881406e-01
  1.8144374e+00
  6.6662347e-01
 -7.2829628e-01
 -2.4957316e-02
  3.3564451e-01
  3.9844505e-02
 -6.5345138e-02
  4.4897905e-01
  2.0571920e-01
  1.1513398e-01
 -5.8086878e-01
 -1.3884114e-01
 -2.9725990e-01
  3.9060900e-01
  4.5921275e-01
 -1.2680595e+00
  4.6155113e-01
  1.5505371e+00
  4.1012418e-01
 -2.0014836e-02
 -8.5724518e-02
 -1.0682944e+00
 -1.3287655e-01
 -6.2935805e-01
 -9.9454403e-01
  4.8484808e-01
  1.4960546e+00
  4.6805876e-01
  7.7366447e-01
 -3.7463030e-01
 -1.1754645e+00
 -1.2327137e+00
  2.6998341e-01
 -4.0281543e-01
  1.0089931e+00
  7.8241462e-01
  1.5932976e-01
  7.2181231e-01
  1.0994717e+00
  1.5675221e-01
  4.2199850e-01
  1.8546343e-01
  3.5678089e-01
 -2.1862859e-01
  2.8911192e-02
  2.4639586e-01
  6.2731043e-02
 -8.8819325e-01
  1.0609098e-01
  1.9037555e+00
 -1.1640713e-01
  1.8932790e-01
 -3.1279913e-01
 -3.9108679e-02
  2.2325802e+00
 -3.3267802e-01
  4.1311753e-01
  1.9423267e-01
 -1.3176589e-01
  2.8432101e-01
 -1.1268259e+00
 -4.2183715e-01
 -6.3018465e-01
  4.2673084e-01
  9.2113823e-01
 -6.1480707e-01
  5.7154261e-03
  3.3376712e-01
 -5.4355049e-01
 -7.4231207e-02
  1.0355082e-03
 -1.4214320e+00
  9.5155072e-01
  5.2238762e-02
  1.7965044e+00
 -1.6968595e-02
  2.6180331e-02
 -1.6558461e+00
  4.2740980e-01
 -1.3640639e-01
  8.5287696e-01
  2.1502441e-01
  5.8843416e-01
 -8.0538534e-02
  4.8676816e-01
  1.8565884e-01
 -3.9307642e-01
 -9.7669542e-01
 -2.6484265e+00
 -1.3787823e+00
 -1.5716901e-01
 -4.7199184e-01
 -1.0880464e-01
 -6.0027041e-02
  9.4713920e-01
  5.4707193e-01
  1.4873390e+00
  2.6534554e-01
  3.3363402e-01
  5.8890152e-01
  6.7565268e-01
 -2.0846558e+00
  5.8392342e-02
  2.5061518e-01
  2.5581014e-01
  7.9851407e-01
 -3.8564831e-01
 -4.9295163e-01
 -7.5672424e-01
 -4.8160276e-01
  1.3181311e+00
 -3.4385821e-01
 -1.2858535e-01
  2.0514233e-01
  5.7473969e-01
  6.6500640e-01
  9.7236198e-01
  8.3940470e-01
  1.3293722e+00
  3.5308623e-01
 -8.5988653e-01
 -2.9833284e-01
  9.0529978e-01
 -2.1127526e-02
 -4.1879812e-01
  1.6762682e+00
  1.4765977e-02
  5.7786131e-01
  1.2300867e+00
  2.2345529e-01
 -1.5731642e+00
 -2.4072716e+00
  6.5173861e-03
 -5.2565140e-01
  1.8472488e+00
  9.5018625e-01
 -5.3998649e-02
 -5.5519909e-01
  1.9848229e-01
 -1.1899705e-02
  4.0093318e-01
 -1.3774772e+00
  1.2159716e+00
 -2.2455339e+00
  1.1538153e-01
  1.0995249e+00
 -2.2511175e+00
  5.2335095e+00
 -3.5461023e-01
  1.8812299e-01
 -1.2336541e+00
 -1.9604950e-01
 -9.2215621e-01
  1.3508693e+00
  1.5993306e-01
 -1.1806705e+00
 -1.8401852e+00
  3.7923086e-01
  3.3472365e-01
 -9.5004320e-02
 -2.8014377e-01
 -8.2272090e-02
 -1.7519644e-02
 -7.1330529e-01
  1.5246156e-01
  1.5538698e+00
 -6.9134724e-01
 -5.4970258e-01
 -2.6368159e-01
 -1.3291062e+00
  1.0770842e+00
  1.8785162e-01
  7.4830502e-02
  2.0747630e-01
 -1.8468063e+00
  4.4762236e-01
  6.6973495e-01
 -3.1122020e-01
  4.6259040e-01
  1.1936803e+00
 -6.6734571e-03
 -1.2352425e-01
 -1.0295884e-01
 -1.4325788e+00
 -5.8539003e-01
  6.4808404e-01
 -4.5457926e-01
  2.3147215e-01
  3.0680567e-01
 -1.7890756e-01
 -3.5056868e-01
 -1.9617563e-01
  9.2796820e-01
 -1.5617172e+00
 -1.1123109e+00
  1.1195242e+00
 -4.5049152e-01
  2.0829210e-01
  1.8565527e+00
  2.4645406e-01
  1.1775958e-01
 -2.6440686e-01
  1.4562553e+00
  5.3504032e-01
  2.8162000e-01
 -2.6863545e-01
 -6.1766291e-01
  9.1444552e-01
 -3.3268484e-01
 -4.3608001e-01
 -4.8918629e-01
  9.7161181e-02
  8.9117336e-01
  1.3012261e+00
  3.2052323e-01
  2.8368142e-01
 -1.3933079e-01
  1.4739686e-01
  1.2876278e-01
 -1.1771873e-01
 -1.1481377e-01
  9.6763104e-01
 -2.1886195e-01
  1.3002272e-01
 -2.4845673e-01
 -2.9246756e-01
  1.7197484e-01
 -3.1052569e-01
  7.3364818e-01
 -1.7871638e-01
 -1.7157590e-01
  1.0885573e-01
  4.2160031e-01
  1.2111412e+00
  1.0523336e+00
 -5.8434707e-01
 -1.4730500e-01
 -1.9080853e+00
  6.1477280e-01
  2.6142752e-01
  5.9257472e-01
  7.3993480e-01
  7.0399094e-01
 -6.3643420e-01
  6.6586390e-02
  1.7501011e+00
 -9.6048221e-02
  2.7158043e-01
 -8.7315238e-01
  1.7348579e-01
 -2.8329462e-01
 -1.9926393e-01
  3.1976274e-01
 -2.4729462e-01
 -7.5115889e-01
 -2.0276107e-01
 -1.0532704e-01
 -9.9353147e-01
  5.9062791e-01
  6.9296348e-01
  5.1973903e-01
  1.1696974e+00
  1.8861322e-01
 -6.7326385e-01
  8.4230125e-01
  5.3512597e-01
 -9.0199751e-01
  3.1842020e-01
  3.0029705e-01
  4.7500841e-02
 -1.2074314e+00
 -2.5474194e-01
 -7.7278656e-01
 -1.2195763e-01
 -7.8160274e-01
 -6.4451629e-01
  3.1214982e-01
 -1.4901814e+00
  4.1852739e-01
 -3.5622334e-01
  1.3647592e-01
 -9.1959961e-02
 -2.3359057e-01
 -9.9182241e-03
 -8.0717969e-01
 -9.2962682e-02
  5.7272458e-01
 -4.4760370e-04
 -2.6348273e-03
 -9.4481983e-04
  5.6230044e-03
  9.7354621e-02
  2.1053798e-04
 -6.9338523e-05
 -3.3313248e-04
  7.1384601e-04
 -3.6823284e-04
 -1.0398574e-04
 -2.6413894e-03
 -5.2597555e-03
 -1.5341886e-02
 -7.2627384e-03
 -4.6865996e-03
 -5.8543910e-03
  4.7055269e-03
 -6.3417488e-01
  2.1731358e-03
  3.3796688e-03
 -6.1177574e-03
  2.3412090e-03
 -2.8389460e-01
 -2.0471122e-03
 -7.7590896e-03
 -3.4982216e-04
  5.4288709e-01
  1.1363295e-01
 -5.3976804e-01
 -4.5733118e-01
 -1.0933610e+00
 -1.0549592e+00
 -8.7172383e-01
 -9.3739915e-01
 -5.9830290e-01
  1.3881494e+00
  2.0446224e-02
 -6.9335276e-01
  1.1914835e+00
 -5.9082556e-01
  8.6859310e-01
  3.7683770e-01
 -1.1883454e-02
  4.9246204e-01
 -2.3678319e-01
 -8.7928897e-01
 -2.4404673e-01
 -5.8054948e-01
 -6.8208945e-01
  3.1651169e-02
 -1.9789213e-01
 -2.1609141e-01
 -3.1377745e-01
  4.5190617e-03
  1.5026374e-01
  4.5556031e-04
 -2.3450876e-02
  2.3691596e-01
  5.4981573e-03
 -3.0040685e-03
 -4.4372402e-02
 -1.1048379e-03
  1.4194531e-02
 -7.3827326e-02
  7.1525399e-04
  4.0417124e-04
  8.8722175e-03
 -1.9481702e-01
  8.5072242e-02
 -3.2041170e-02
  2.9102406e-03
  1.1123313e+00
  9.7396795e-04
 -3.7795985e-01
  7.4298221e-01
  3.1773425e-03
 -7.5675452e-01
 -2.9309070e-01
  7.2689331e-03
 -4.7220554e-02
  4.6827319e-01
  1.0639330e+00
 -1.2059915e+00
  5.8577277e-02
 -3.5910317e-01
  9.4109184e-01
  7.1986014e-01
  2.0441936e-02
 -5.8495772e-01
  3.6137152e-01
  6.0787819e-02
  1.1656639e-01
 -4.4114970e-02
 -2.4862191e-01
  6.1194730e-01
 -4.1795686e-01
 -2.1751717e-01
 -1.8256818e-01
 -4.2676571e-01
  2.3119591e-01
  3.2903832e-01
  1.4628384e-01
  2.4353993e-01
 -4.1685697e-02
  3.7683528e-02
  3.0829555e-01
  3.0391139e-01
  3.2891598e-01
  2.8403729e-01
  8.9578576e-02
 -5.7376880e-02
  3.3929460e-03
 -1.7255241e-02
  4.7571790e-01
  3.2634482e-01
 -7.0202434e-01
 -3.7204108e-01
 -3.5377988e-01
  2.0445025e-01
  1.8665434e-01
 -2.3248348e-01
 -1.1977501e+00
 -1.6208157e-01
  3.4179270e-01
 -4.1639286e-01
  2.4670161e-01
 -2.7391760e-02
 -2.9704036e-02
 -3.6287361e-01
  7.9266411e-01
 -1.6863802e-01
 -7.4381389e-02
 -4.1651237e-01
  2.5133854e-02
 -8.2052863e-01
  3.1989941e-01
  3.8100984e-02
  2.7774256e-01
  2.0652881e-01
 -6.5499765e-01
  1.5556993e-01
  1.7926186e-01
  3.3850271e-01
  4.8406363e-02
  8.0518378e-04
  6.5472537e-01
  1.5942577e-03
  1.1674564e+00
 -1.2108507e+00
  2.2987805e-01
 -6.4566988e-01
  1.1243421e-04
  7.4569339e-01
 -8.1534338e-01
 -3.0888081e-01
 -1.1368337e+00
  2.4042246e-01
  6.2708265e-01
 -1.1983624e+00
 -9.5003349e-01
  1.5918761e+00
  1.6731644e-01
  1.0606304e+00
  6.1256230e-01
 -4.5819235e-01
  1.3765635e+00
 -4.7847275e-03
  3.9070994e-01
  5.8650851e-01
 -7.6041287e-01
  5.1796204e-01
  5.1206142e-02
 -1.9537582e-04
  1.9925697e-01
 -3.6218625e-01
 -8.9462030e-01
  3.0843645e-01
 -9.9657059e-01
  1.4988358e-01
 -8.2597278e-02
  4.7708476e-01
  8.0279040e-01
  2.8680995e-01
  4.9913350e-02
 -6.5142864e-01
  1.0659672e-02
 -7.9356402e-01
  8.9410371e-01
 -5.7066250e-01
  1.1931301e-01
 -1.9304714e-01
 -1.0304172e+00
  8.6485006e-02
  2.6135817e-01
  5.2461481e-01
 -2.3094623e-01
  1.2454818e-03
  2.2560282e-02
 -9.1871667e-01
  2.1950321e-01
 -1.0958668e+00
 -4.3418667e-01
 -1.1529735e-01
  8.2878210e-02
  1.7881238e+00
 -3.7542462e-01
  3.8428646e-01
  3.9569546e-02
 -9.5167898e-02
 -1.2534956e+00
 -6.7973983e-01
  8.0443674e-01
 -2.6946077e-01
 -1.7139156e-01
 -8.2996434e-01
  2.6270419e-01
  6.8047440e-01
  1.0846317e+00
 -4.1338819e-01
 -5.3619146e-01
 -9.6848840e-01
  9.2777795e-01
  3.3208576e-01
 -2.6243925e-01
 -2.2603445e-01
  6.2154133e-02
 -1.2201373e-01
  3.0414844e-01
  2.8916627e-02
 -2.5638691e-01
 -3.5457560e-01
 -1.1178130e+00
  1.3763618e-01
  1.8341108e-01
 -3.1408224e-01
 -4.0819854e-01
 -7.4693263e-01
  2.1080562e-01
  5.0989542e-02
 -1.2074340e-02
 -4.6075886e-01
  4.7331687e-02
 -3.8875123e-03
 -7.9002482e-01
  1.0425158e+00
 -5.7815087e-01
  4.5434218e-03
 -7.1391207e-01
 -5.9828412e-02
  1.1819314e-01
  1.6521764e-01
  1.9701304e-01
  8.0429703e-02
  4.6265464e-02
  1.0137706e+00
  5.2063577e-02
 -1.8430744e+00
 -2.5060484e-01
 -1.0079292e+00
  7.2386545e-01
  2.6874522e-02
  8.8241470e-01
 -3.6195019e-01
 -1.1658883e+00
  2.8191137e-01
 -5.4471445e-01
  7.9229105e-01
 -4.1233009e-01
  1.2887028e-01
 -5.5749285e-01
  2.1760388e-01
 -5.5466918e-03
  9.4499749e-01
  1.8406351e-01
 -2.7570426e-01
 -5.9798652e-01
 -1.9745095e-01
 -6.5108877e-01
  2.7002069e-01
  8.5890047e-02
  1.3353129e-01
 -2.4136697e-01
  7.9279058e-03
  3.7495530e-01
  2.3636334e-01
 -2.3404314e-01
 -1.5072690e-01
  6.1949909e-01
 -5.2343661e-01
 -2.7572212e-03
 -9.6247181e-02
 -1.0715711e-01
  1.5061836e-01
  1.8264833e-01
 -1.6903112e-02
  1.4014272e-01
  1.1639689e+00
  1.3525325e+00
  1.9584754e+00
  2.5765803e-01
 -3.4632571e-02
 -5.7073331e-01
  1.1001015e+00
 -1.0729637e+00
  3.5658625e-01
 -2.0074364e-02
  3.7192142e-01
 -8.1054587e-03
  7.8868967e-01
 -2.3078856e-01
 -8.7311935e-01
 -5.2729188e-03
 -5.4120284e-01
 -1.1143773e+00
  2.1609624e-01
 -1.2924558e+00
  8.7037921e-01
  1.5340044e-01
 -1.5549749e-01
  2.7174963e-02
 -7.9317635e-01
 -2.6705047e-01
  2.1468828e-02
  1.3241348e-01
 -3.8102560e-04
  3.1162736e-01
 -4.1968131e-01
  3.1233203e-01
 -1.2340381e+00
  3.2073218e-01
  8.3668716e-02
  2.0643498e-01
  6.4536017e-01
 -5.8778173e-01
 -1.3161275e-01
  1.5220629e-01
  1.4720163e+00
  3.5778704e-04
  3.2307819e-01
 -5.2140838e-01
 -5.7861030e-01
 -3.4704423e-01
  7.2401255e-01
  1.2665770e+00
 -3.9537343e-01
 -2.0775700e-02
 -6.7662609e-01
 -6.3752908e-01
  4.8000363e-01
  7.7518052e-01
  1.7054155e+00
  3.5808480e-01
  1.1161762e+00
  4.0514935e-02
 -1.1269752e-01
 -3.0011803e-01
  6.2302613e-01
  2.6766092e-01
 -6.4166200e-01
 -1.0485460e+00
 -4.9579898e-01
 -7.5377399e-01
  9.6362495e-01
  8.1920862e-02
 -2.0748357e-01
 -3.9103031e-01
 -1.0746135e-01
  9.1897124e-01
  5.6507176e-01
 -9.5866573e-01
  8.9370531e-01
 -1.1338079e+00
 -1.3927202e-01
  7.7677613e-01
  2.8394690e-01
 -4.3188229e-01
  1.9917076e-03
  1.3119939e-01
  3.2270649e-01
 -7.7659875e-01
 -2.9443440e-01
 -9.3461388e-01
  2.3817484e-01
  8.6455393e-01
  1.2397980e-01
  1.1199565e-01
 -3.1643698e-01
  3.5387900e-01
  9.4988912e-01
  1.4600399e+00
  2.5037757e-01
  2.1391749e-01
 -6.7872536e-01
 -1.0364512e+00
 -3.9078356e-03
 -3.8427785e-01
 -1.3007696e-01
  2.0555608e-01
  2.6997301e-01
 -1.3820802e+00
 -9.4588155e-01
  3.2827294e-01
  2.4618465e-02
 -2.6741385e-01
 -7.8945506e-01
 -2.2272421e-01
 -7.1040523e-01
  8.7566239e-01
  4.7731155e-01
 -8.8893183e-02
 -2.2772732e-01
  1.0057674e-01
 -2.0373970e-01
  8.1740278e-01
 -4.7714364e-02
  1.0063355e-01
  2.8270096e-01
 -3.1339237e-01
 -7.9801208e-01
 -1.3366000e-01
 -5.9312940e-02
 -1.5381914e-01
 -1.1031990e-01
  3.0680758e-01
  1.7417802e-01
  6.6433719e-04
 -5.2505203e-02
 -4.5299116e-01
  1.7367408e-01
 -4.6991196e-01
  6.9163996e-01
 -1.8554184e-03
 -5.6470090e-01
 -2.0314816e-01
  1.1259908e-01
 -3.3009776e-01
  1.1630907e-01
 -4.7624606e-01
 -2.0115782e-01
 -1.4978549e-01
  1.9821694e-01
  5.2114809e-04
  1.4051878e-01
 -4.0405379e-03
  5.8475237e-02
 -4.3883416e-01
 -2.7214086e-01
  1.4019684e-01
 -3.2345644e-01
  5.9268278e-01
 -1.2855281e-01
 -2.0571554e-01
 -4.1049677e-01
  2.1740850e-03
 -5.7843957e-02
 -7.5412762e-01
 -5.5811119e-01
 -7.6338880e-02
  9.0376055e-01
  7.5098476e-03
  1.3637935e-03
 -7.2149283e-01
  1.9554782e-01
  7.9455830e-02
 -5.6841612e-01
 -2.8524432e-01
  1.9944054e-01
 -1.2881378e+00
  2.5770926e-01
  9.1304369e-02
 -9.7179577e-02
  1.6564863e+00
 -7.8292865e-01
  1.6398118e-01
 -5.5416220e-01
  8.7258565e-01
  1.2995216e-01
 -1.1050088e+00
  4.9569353e-01
  5.8397935e-03
 -3.5588488e-01
 -3.6743462e-01
 -5.3241127e-03
 -2.1014161e-01
 -1.6098365e-02
  3.6759093e-01
  8.1654871e-01
 -7.5096853e-02
  1.9943230e-01
 -1.0904483e-02
  5.6282368e-02
 -4.1122344e-01
  7.3321551e-02
 -6.1713582e-01
 -2.4741018e-01
 -4.3002654e-02
 -1.5652770e+00
 -1.6703495e-03
 -4.5617774e-01
 -5.9190661e-01
  2.9495636e-01
 -6.7597145e-01
  8.2784933e-01
  5.2659059e-01
 -1.6851036e-01
  1.1306069e+00
 -1.0589530e+00
 -2.2374660e-01
  1.0406113e+00
 -3.1514779e-01
  1.0026433e+00
  3.0210361e-01
 -1.8654212e-01
 -9.9562819e-04
 -3.7951474e-03
 -2.1029999e-03
  3.5570198e-01
 -1.5882571e-01
 -8.2218938e-02
 -8.9021593e-01
  5.3537053e-01
  2.9688902e-02
 -6.4465290e-01
 -1.0068192e+00
 -2.9698792e-01
 -2.9180691e-01
 -1.4814495e-01
 -5.9421718e-01
 -1.1770579e-01
 -5.2346295e-01
  1.4804044e+00
  6.3844407e-01
 -8.7879837e-01
 -3.6805692e-01
 -1.6900176e-02
 -1.0651040e+00
 -8.0840467e-03
 -8.2058452e-02
  1.4066112e-01
 -4.9577031e-01
  9.6493393e-02
  3.8015547e-01
 -2.8424572e-02
 -1.1392080e+00
  1.0388064e+00
  4.0517434e-01
  4.5770824e-01
  1.8550595e-03
  5.9266210e-02
  2.9144248e-01
  4.2083639e-01
  2.2161414e-01
 -1.0874822e-01
 -5.6651729e-01
  6.8938476e-01
 -5.5306926e-02
  2.1475138e-01
 -1.0412145e+00
 -2.6681283e-01
 -1.0871280e+00
 -3.2138398e-01
  2.5021410e-01
  7.8154135e-01
 -1.2554871e-01
 -2.4560061e-01
 -8.8054731e-02
  1.1829055e-01
  6.1571467e-01
  4.2446145e-01
 -2.4079098e-01
  2.8302529e-01
 -4.4928616e-01
  8.0246136e-02
  1.6527593e-01
 -6.5685034e-02
 -3.9020789e-01
 -8.3695924e-01
 -9.6553423e-02
 -9.5970440e-01
 -1.1503649e+00
  3.1671590e-01
  1.8722528e-01
  4.8032063e-01
  1.7532879e-01
  1.9537654e-02
 -1.2134206e+00
 -1.1351583e-01
  1.7806062e+00
  1.2229847e+00
  7.6643026e-01
  1.3026990e-01
  6.3747138e-01
 -2.5103721e-01
  1.8784308e-01
  3.0793434e-01
  2.7578667e-01
  6.0773924e-02
 -2.0016854e-01
 -2.4751008e-01
  1.7595163e-01
  3.5604443e-02
 -3.9044875e-01
 -3.7344342e-01
  2.5000620e-01
  4.2856702e-01
  5.1206583e-01
  1.3562647e-01
  2.7472621e-01
  5.4460543e-01
  1.5309547e-01
 -8.0052681e-02
 -2.5962117e-01
 -4.6887547e-02
  7.9936404e-03
 -5.1948804e-01
 -2.1908855e-02
 -1.5336633e-01
  4.0827391e-01
  2.3601311e-01
 -2.7766603e-01
 -9.9555910e-01
  1.7639239e-01
 -1.2044423e+00
  1.9028258e-01
 -4.0009755e-01
 -1.3218157e+00
  6.9176638e-01
 -1.9902387e-01
  3.2578236e-01
 -7.8170162e-01
 -5.3023662e-02
 -4.1635787e-01
 -7.6144844e-01
 -5.9187889e-01
  2.0705564e+00
  8.4445310e-01
  1.1866165e-01
  1.0311929e-01
  2.3274468e-02
 -4.2963926e-02
 -4.7200941e-02
 -3.7195048e-01
  1.0106285e+00
 -3.1245124e-01
  9.8495871e-01
  5.2574861e-01
 -9.2283785e-02
  1.5041901e-02
  9.9249029e-01
 -5.0950587e-01
 -8.3259583e-01
 -1.5366477e-01
 -5.0041783e-01
 -8.0273575e-01
  5.6984597e-01
  5.7629031e-01
  5.6489414e-01
 -1.8215494e-01
 -4.6925178e-01
 -8.3902752e-01
  8.0020458e-01
 -4.1467729e-01
 -8.5926257e-02
 -2.7258894e-01
  6.0872698e-01
 -1.1677902e-02
 -1.6353972e+00
  3.1846270e-01
  1.2279786e+00
  5.2663404e-01
 -2.6729318e-01
 -9.9023259e-01
 -6.6718644e-01
  5.5520266e-02
  1.0270135e-03
 -1.2972166e-03
 -3.2299010e-03
  2.4745180e-03
  1.5925806e-03
 -1.9248888e-03
 -4.1168677e-03
  4.1674906e-03
 -1.6742466e-03
 -4.0280917e-03
  5.7336148e-03
 -1.8988488e-02
  2.6021323e-03
  2.6758472e-02
  1.4567894e-01
 -3.2139188e-03
  7.1818493e-03
 -3.1796226e-04
 -4.3902192e-01
 -1.2350697e-03
  1.9406233e-03
 -1.6486749e-01
  6.0496811e-04
  2.2629057e-01
  7.4417290e-04
 -1.7489627e-04
  1.6467028e-03
  2.6916140e-01
 -5.9455413e-01
  4.2220536e-01
 -1.8043641e+00
 -1.8421507e-01
 -7.7188754e-01
  1.5938003e+00
 -3.2817103e-02
 -8.7155253e-03
 -1.2346371e+00
  1.0792454e+00
 -1.3511425e-01
 -6.9853389e-01
 -1.2307167e+00
  8.7692446e-01
  7.4006510e-01
 -1.1445346e+00
  6.2311375e-01
 -5.7595789e-01
  9.8214513e-01
 -3.7052339e-01
  2.1186251e-02
 -3.4809345e-01
 -7.3302996e-01
  1.0445006e+00
  2.7478766e-01
 -3.8224506e-01
 -6.4737555e-03
  3.1752679e-01
  5.2164100e-02
 -7.7642071e-01
  7.0407975e-01
  5.1049691e-01
 -7.7041187e-03
 -1.3471170e-01
  4.4831917e-01
 -3.6815178e-01
  5.9051663e-01
 -2.5300071e-01
 -5.0410193e-01
  6.8794996e-01
 -1.3906616e-01
 -1.4840850e+00
 -7.4920833e-01
  5.3245020e-01
  8.6675084e-01
 -6.9891578e-01
  7.6833791e-01
 -7.1302074e-01
  9.9008912e-03
 -3.9367405e-01
  8.9894198e-02
  2.0167954e-02
  1.1454545e+00
 -3.2522643e-01
  6.9829237e-01
 -6.4948294e-04
  3.4585688e-01
  1.7492981e-01
  3.2364598e-01
 -8.0920017e-01
  5.3300798e-01
  6.5751076e-01
  1.1382712e-01
  1.4993426e-01
  1.7029335e+00
  3.3132002e-01
  5.1408929e-01
  1.1612050e-01
  5.3836024e-01
  5.7952635e-02
 -9.0916532e-01
  2.5018884e-02
  1.2919871e+00
  1.2106092e+00
  1.2435979e+00
  7.7334595e-01
 -1.5481255e+00
 -2.4956706e-01
  4.7932997e-01
 -1.2425857e+00
 -3.0621910e-03
 -1.6189198e+00
 -5.9754375e-02
  4.4855645e-01
 -2.6590821e-01
 -6.2571418e-01
 -6.8534952e-01
 -1.7451982e-01
  5.5049574e-01
 -5.0047481e-01
  5.7535386e-01
 -3.1912202e-01
 -7.3816520e-01
 -8.6486804e-01
 -7.2593772e-01
 -3.6102152e-01
  3.6103913e-01
 -1.6602850e-01
  1.0977752e+00
 -9.1858882e-01
  6.9874918e-01
  1.0475601e+00
 -3.4248224e-01
 -4.0953338e-01
 -1.6341691e-01
 -4.6503907e-01
 -3.2771173e-01
  3.3825579e-01
  3.6074498e-01
  1.7638420e-01
  9.4429731e-02
  2.1767369e-01
 -1.0818927e+00
  8.8580155e-01
  5.3261256e-01
 -5.4297215e-01
  3.4930220e-01
 -5.0804985e-01
 -4.2196935e-01
  1.7922528e-01
 -4.6018537e-02
 -2.3287612e-03
  2.6996124e-01
 -1.5003969e-01
 -4.4473663e-01
 -2.4221862e-02
 -7.0403039e-02
  5.0936413e-01
  3.4298185e-01
  7.3165631e-01
 -7.4522002e-03
  4.1149533e-01
 -9.1243923e-02
 -1.5372108e-02
 -4.7315783e-03
  4.2534269e-02
  3.1475788e-01
  2.6513579e-01
 -5.8218390e-02
  1.4752108e-01
  9.6785355e-01
  2.4831082e-01
 -7.5707948e-01
  1.6383255e+00
  3.6840039e-01
  1.9638748e-01
 -4.5748931e-01
 -3.0660081e-01
 -8.2121301e-01
 -1.2277709e-01
  1.6437083e-02
  8.1420049e-02
  9.5861748e-02
  2.3691140e-01
 -2.5051591e-01
  3.5148416e-02
 -3.8307044e-01
 -4.6091986e-01
 -1.7761099e-03
  4.9381950e-01
 -3.7818170e-01
 -5.7044709e-01
 -1.8033186e-02
  3.3308871e-02
 -2.8992210e-02
 -6.0744774e-01
 -5.4071730e-01
 -7.5079072e-01
  2.5458926e-01
 -4.8356965e-01
 -2.6294652e-01
  3.6980975e-01
 -6.9257653e-01
 -3.0065957e-01
 -2.9428225e-02
 -1.6450252e-02
  1.6944271e-01
  1.1485051e-01
  1.4462678e-01
  1.0234271e+00
 -1.2806969e+00
  5.0108600e-01
 -2.0332483e-03
  2.1076891e-01
  4.7588414e-01
  3.1911768e-05
  9.3926722e-01
  8.5332894e-01
 -1.5188399e-01
 -4.0514387e-02
 -1.6783042e-01
 -3.0889571e-01
  7.3523676e-01
  5.7921678e-01
  1.3825439e+00
 -3.0405452e-03
 -1.9530886e-01
  4.6505246e-01
  5.0732833e-01
 -1.7269828e+00
 -1.7321579e+00
 -3.5555798e-01
 -8.3766937e-02
 -1.0547591e-01
 -2.3748548e-01
  1.6209105e-01
 -2.9639974e-01
  1.5626612e-01
 -6.7047572e-01
 -7.0841193e-01
  4.7063869e-01
 -4.0985093e-01
 -2.6668683e-03
 -2.1957088e-01
 -2.5010541e-01
 -4.5274967e-01
 -3.9166135e-01
 -7.0685923e-02
  2.4381396e-01
 -4.8923051e-01
 -6.3316953e-01
  1.5397470e+00
 -4.5026049e-01
 -1.9895987e-01
 -1.5243895e+00
 -2.1518216e-01
 -7.4195713e-01
  9.9244779e-01
  1.0247970e-01
 -2.0068194e-01
 -2.0422751e-01
  4.9092194e-01
  9.7126171e-02
 -1.9858412e-01
 -6.0534233e-01
 -6.6962737e-01
 -3.9576030e-01
 -5.4442501e-01
 -5.5006260e-01
 -7.2142148e-01
  7.3910701e-01
  4.9282867e-01
 -8.5955268e-01
 -6.9528773e-02
 -1.2589116e-01
  7.8622073e-01
 -5.4507953e-01
 -3.8045883e-04
  1.6144304e-02
 -9.9066293e-01
  3.3511499e-01
 -6.7207050e-01
 -5.7059669e-01
  7.2970992e-01
  2.0713912e-01
 -7.4069995e-01
  1.6937061e-01
 -1.4548607e-01
  8.9047356e-03
 -8.6774938e-02
  3.3802152e-02
 -2.1036740e-01
  2.2352595e-02
  3.6320409e-01
 -1.4221048e+00
 -2.9285422e-01
  5.3095526e-01
 -8.7238717e-01
  5.6933087e-01
 -2.7725786e-01
  3.4646094e-01
  2.1410784e-02
  2.8562033e-01
 -4.9062496e-01
 -3.3711293e-01
 -2.7842796e-01
  9.3260461e-01
 -1.1034170e-01
 -1.1039356e+00
  3.1620316e-04
  8.5747741e-02
 -1.7510472e-01
  6.2359020e-02
  1.3561033e-01
  4.0672442e-01
  7.5188327e-01
 -4.2552546e-01
  1.3015592e-01
 -2.0734301e-01
  7.2350837e-02
 -2.2040702e-01
  1.0651720e-01
 -7.4196827e-01
  2.8571841e-01
  6.9964600e-01
 -4.6548015e-03
 -1.3547429e-01
  3.8862529e-01
 -6.7196980e-02
 -1.8922071e-03
  4.6080053e-02
 -2.2281496e-01
 -1.5641971e-01
 -1.2241281e+00
  2.3640189e-01
 -2.8753030e-01
  7.1085073e-02
  6.6207695e-01
  1.3655550e+00
  2.1484405e-01
 -7.4212499e-02
  5.0580706e-02
  1.8412936e-02
 -2.1024969e-01
  4.0483332e-01
 -7.8985274e-01
  4.9883226e-01
 -3.3776242e-01
  2.1839300e-01
  1.9511077e-01
  3.4436684e-02
 -3.1942737e-01
  5.1783079e-01
  3.6358097e-04
  1.2096420e-01
 -5.4527497e-01
 -3.3440521e-01
  9.0767878e-01
  4.1076511e-01
 -3.4950670e-02
 -2.6554877e-01
 -7.8335978e-02
  1.7913628e-01
 -3.8154006e-01
  5.4611415e-01
  6.9818929e-02
 -2.1992575e-01
 -2.1516690e-01
 -6.6029030e-01
 -2.2823530e-01
 -2.4065512e-01
  9.3200663e-03
 -6.3545221e-01
  9.2550786e-03
 -4.7601089e-01
 -1.0906681e-01
  6.3944198e-02
  3.1644630e-01
 -1.8903935e-01
 -4.8957014e-01
 -1.8474337e-01
 -5.3967234e-02
 -3.8974512e-01
  3.8359261e-01
 -6.4901048e-01
  1.8391880e-01
  3.5002631e-01
 -1.7257655e+00
 -1.6862117e-01
  5.0333530e-01
 -2.3639230e-01
  1.9774698e-01
 -1.4286613e-01
  2.2809523e-01
 -2.9555538e-01
  6.5485574e-02
 -1.1199430e-01
  1.8485856e-01
 -2.0250614e-04
 -9.0368882e-02
 -1.8729699e-01
 -6.0682679e-03
  1.5445998e+00
  1.0735048e+00
 -3.2229748e-01
  1.5794701e-03
  8.3956882e-02
  4.7614554e-01
  4.7543022e-01
  4.5877132e-01
 -3.4768388e-02
  1.5446734e-01
  1.5286049e+00
 -3.0740795e-01
  5.2447212e-01
 -2.0509736e-01
 -4.8227862e-01
  1.3695115e-01
 -1.3482270e+00
 -8.5277095e-02
  4.9420315e-01
 -7.6449227e-01
  4.4012830e-01
 -2.1428846e-01
 -1.4341518e-01
 -1.6589507e-01
  1.1024621e+00
 -1.1823386e+00
  4.5756758e-03
  1.8123899e-02
 -2.5117859e-01
  6.7610651e-01
 -7.3706400e-01
  2.7359304e-01
 -3.5043615e-01
 -2.6785329e-01
  4.4305563e-02
  9.7630048e-01
 -4.5711622e-01
 -2.5242287e-01
  6.6851342e-01
 -9.2913486e-02
 -1.8794037e-01
  2.9761773e-01
  1.3286437e+00
  8.7123752e-02
  3.9509296e-02
  3.2656428e-01
 -2.9660967e-01
 -1.0822614e-01
 -4.5933418e-02
  1.5011586e-01
 -8.2846828e-02
  4.8147571e-01
  3.2441816e-01
  2.9117385e-01
 -3.6873114e-01
  1.0154148e-01
 -1.2834549e-01
 -2.2737574e-02
  3.6501091e-02
  6.4607960e-01
  3.5269642e-01
  5.3676063e-01
 -1.0513868e-01
  1.0064441e-01
 -1.5435186e-01
 -1.2019803e-01
  7.6539582e-01
 -5.8967125e-01
  2.6963839e-01
 -6.7365974e-01
 -1.6301253e-01
 -4.1731274e-01
 -5.7036662e-01
 -4.4615086e-02
  8.1878829e-01
  5.4770529e-02
 -7.4342461e-03
  7.9758412e-01
 -1.7546197e-02
  8.0050939e-01
  4.9234033e-01
  1.9127214e-01
  2.3244394e-01
  1.8727624e-01
 -3.6006707e-01
 -4.8590782e-01
  6.9183111e-01
  2.0172844e-02
  1.6951185e-01
  1.6957001e-01
 -8.1365883e-02
 -5.1614028e-01
 -9.2740202e-01
  3.3722526e-01
 -8.1445247e-01
  9.2266935e-01
 -1.2387823e-01
  1.8690236e-01
  6.4337927e-01
 -3.3351365e-01
  6.3897932e-01
  4.3598849e-02
 -2.0114760e-01
  4.4061339e-01
  5.2474916e-01
 -1.9442359e+00
 -2.3986681e-01
 -6.4427292e-01
 -3.4351951e-01
  2.3709278e-01
  2.9957983e-01
 -5.2383572e-01
 -7.3319577e-02
 -4.3615478e-01
  7.8396457e-01
 -3.9452666e-01
  1.0232055e-02
  5.6594312e-01
 -5.6732005e-01
  7.3936254e-01
  1.4718306e+00
 -5.7907838e-01
  1.5237982e+00
  5.4563725e-01
 -1.4453379e+00
 -2.8888980e-01
 -2.8986389e-02
 -7.6856917e-01
 -5.9717649e-01
 -6.4123136e-01
  8.8377029e-02
 -3.4809595e-01
 -2.8417990e-01
 -2.3814413e-01
 -7.2528291e-03
  3.2221290e-01
 -2.2241557e-02
 -2.6590997e-01
 -3.0675229e-02
 -7.0676756e-01
 -2.5958934e-01
 -8.4798479e-01
  2.0895788e-01
  2.1636288e-01
 -1.4693713e-01
  1.4034586e-03
  1.2925092e+00
 -4.2873260e-01
  5.2738583e-01
 -5.6124407e-01
 -4.8443738e-01
 -4.9940903e-02
 -9.0096980e-01
 -7.5126112e-01
 -3.2367613e-02
  7.1446353e-01
  2.1830169e-02
  8.2148723e-03
 -4.8143247e-01
  4.3998593e-01
 -1.8370219e-01
 -5.6049507e-02
  5.6928676e-01
  1.1025547e-01
 -1.8052617e-01
  7.7693278e-01
  6.1749750e-01
 -3.0197963e-01
  1.2878035e-01
 -1.0941523e+00
  5.5749655e-01
  7.5908136e-01
  7.9435453e-02
  3.3027032e-01
 -2.8102174e-01
 -2.2077538e-01
 -8.5260719e-01
 -8.2731766e-01
 -4.3696123e-01
  2.1701011e-01
 -4.8486722e-01
  8.8981315e-02
  1.5755829e-01
 -4.2576474e-01
  9.9870697e-02
 -2.9548931e-01
 -3.4052186e-02
 -1.6364140e-02
 -3.1708160e-01
 -1.2553415e-01
 -6.4070922e-01
 -4.5860636e-01
  8.4978729e-02
 -2.1540825e-03
  1.6005510e-01
 -3.8167572e-01
  2.7254134e-01
 -5.4659031e-02
  3.0269040e-02
 -3.3386534e-01
  3.5245609e-02
  9.1920614e-02
 -6.9700319e-01
 -6.0503983e-01
  5.4006052e-01
  1.3464464e-02
  1.1523262e+00
 -1.9499607e-01
 -8.4940054e-02
  2.9309079e-01
  8.7998056e-01
  2.0909031e-01
  7.9036933e-01
  5.7379629e-02
 -9.9005781e-02
  3.1488675e-01
 -2.1189712e-01
  3.7909037e-01
  1.0448944e-01
 -2.4164748e-01
  1.1048917e+00
 -1.4793154e-02
  5.5044198e-01
 -1.5456089e-01
 -4.5473188e-02
  2.5415674e-02
 -6.9268674e-02
 -1.0220034e-01
 -3.7948540e-04
  7.7351558e-01
 -6.4145885e-02
  1.3495973e-01
  1.3513826e+00
 -5.3119093e-02
  1.8571861e-01
 -9.5087636e-01
  1.3195606e-01
  1.2177872e-01
  2.9144627e-01
 -2.0937722e-04
  1.2377151e+00
  1.4304881e-01
  1.1101203e+00
 -8.8348366e-02
  1.9240013e-01
 -8.9883104e-02
 -1.0747964e-02
 -1.8736035e-01
  7.7351075e-01
  5.9638000e-01
  5.3325367e-01
  2.6709062e-01
 -7.3664576e-02
  3.5511155e-02
  1.2764867e-01
 -3.3164886e-01
 -7.1079977e-02
  4.3338341e-01
  1.6076655e+00
 -5.8399671e-01
 -2.3316643e+00
  3.2239574e-01
 -9.0855904e-02
 -5.7347471e-01
 -3.6100188e-01
 -4.7265926e-01
 -8.7151718e-01
 -1.7061330e-01
  1.3196089e+00
  1.4869389e-01
  9.8720145e-01
  9.5601547e-01
  6.9110012e-01
  1.1860174e-01
 -1.4299362e+00
  2.2620919e-01
  4.1486688e-02
  1.1282264e-01
 -5.4254957e-02
 -1.8046851e-01
  3.5395196e-01
 -2.5214676e-02
 -3.2903507e-01
  1.2137992e+00
  7.0363365e-02
 -4.7825518e-01
  9.7554654e-01
 -2.2377208e-01
 -5.2627414e-01
 -3.5052374e-01
  9.6683705e-01
 -1.9290403e-01
  1.2491120e-01
  5.7921869e-01
 -1.6704261e-01
  2.8485927e-01
  3.1036422e-01
  4.6475717e-01
 -3.2646665e-01
  1.4701127e-01
 -8.3413082e-01
  5.4756385e-01
  4.8994236e-02
  1.2167178e+00
 -6.5250391e-01
 -3.9958781e-01
 -1.9371869e-01
  9.4617718e-01
 -3.1758317e-01
  3.3291590e-01
 -6.7802852e-01
 -7.5167201e-02
  1.1885587e+00
  3.0398390e-01
  3.3407426e-01
  1.7781575e-01
  6.0954574e-02
  3.1895660e-02
 -2.2849943e-01
 -9.0699404e-02
  4.0461388e-01
  1.8620767e-01
 -3.9975531e-04
  5.5931740e-02
  6.8627007e-02
  3.5473347e-01
 -3.6570523e-02
 -4.6236405e-01
  4.2892727e-01
  1.3952021e-01
  2.3567811e-01
 -7.9501301e-02
  1.4433773e-01
 -1.5524117e-02
 -2.7479792e-03
  1.5397283e+00
 -6.7125387e-02
 -3.9463815e-01
  4.4808540e-01
  1.2398450e+00
 -1.1504742e+00
 -3.6418325e-01
 -1.0825813e+00
 -1.1109147e+00
 -1.1838274e-01
 -3.6273336e-01
 -9.2239088e-01
 -3.7356818e-01
 -1.0159035e+00
 -1.0529011e-01
 -5.4606605e-01
 -9.8632427e-04
  4.4034891e-02
 -2.6136169e-01
 -4.3108153e-01
 -6.3911408e-01
 -1.5750747e-03
  1.1412195e-02
 -2.6409939e-02
  2.7546287e-01
 -2.7446499e-01
 -9.8139659e-02
  2.8364402e-01
  2.0262019e-01
  3.2132390e-01
 -4.1455761e-01
  6.0638297e-01
  3.2310799e-04
 -4.3382284e-01
  9.1452003e-01
  5.2763826e-01
  1.5520322e-02
  7.0512737e-03
 -1.0959511e-01
  8.8790227e-03
  1.7978233e-01
  1.6230240e+00
 -3.4584957e-01
 -1.7079721e-03
 -4.0811157e-01
  1.2641283e+00
  2.5622782e-01
 -4.4132303e-04
  3.7906936e-01
 -1.1852617e+00
 -1.6982305e-01
  4.6029964e-01
  5.8769477e-03
  8.6718798e-02
  1.1154157e+00
  8.3430755e-01
  4.2776506e-02
  4.2264700e-01
  6.4042234e-01
 -2.7563217e+00
 -1.8711689e+00
 -2.2792441e-01
  4.9620131e-03
 -3.9871030e-02
 -6.8568617e-01
  3.3392742e-01
  2.0119181e-01
  2.7490053e-01
 -1.0896794e-01
 -7.9692358e-01
 -6.3122243e-02
 -2.9435021e-01
 -1.5029566e-02
  4.3897766e-01
 -7.2377402e-01
  2.6964912e-01
 -5.2363211e-01
 -3.0980201e-02
  5.1950270e-01
 -4.1767743e-01
  1.5190250e-01
 -7.3996782e-01
 -4.4734332e-01
 -1.7197391e+00
 -3.8058403e-01
  5.7821262e-01
 -2.4611781e+00
 -6.4233798e-01
 -2.8874823e-01
  7.7954136e-02
 -9.1581278e-02
  1.0757185e-01
  1.7493992e-01
 -3.5165951e-01
 -6.3200402e-01
  3.3126566e-01
  1.3420987e-01
 -4.8591502e-02
 -4.2600104e-01
 -9.8395622e-01
  1.3263452e+00
  6.7105627e-01
  2.5891468e-03
  9.5409073e-02
 -4.6032256e-01
  1.0198072e+00
 -7.0860207e-02
 -1.7822847e-04
  3.8051195e-03
 -3.9756444e-04
  1.9097406e-01
 -3.6753303e-01
  2.8798378e-01
  2.4421358e-02
  1.5185311e-01
  6.0145068e-01
 -1.2920154e-02
  3.3731005e-01
  1.6144484e-01
 -4.4018091e-03
 -5.7590067e-01
  1.9423200e-01
  3.9690096e-02
  9.2194521e-01
 -4.3034756e-01
 -3.3074626e-01
  1.1268029e+00
  1.0346323e+00
 -1.2212201e+00
  8.2383519e-01
 -1.5685426e-02
 -3.7091866e-02
  3.1164533e-01
  4.8996165e-01
  5.4721147e-01
 -1.7969312e-02
  2.0454836e-01
  1.1408019e+00
  1.5577833e-01
 -3.6136273e-01
  4.8979649e-01
  1.2624633e+00
  2.5996840e-01
 -6.2764841e-01
  1.6980955e-01
  1.0984231e-01
  4.5965195e-01
  9.6299148e-01
 -3.8810420e-01
 -7.6079506e-01
  8.5441440e-01
  9.1017628e-01
  2.5047594e-01
 -7.1762770e-01
 -1.0296552e-01
  2.3418072e-01
  7.7391145e-05
  4.6719944e-01
 -1.5862645e-01
 -1.0533344e+00
  8.4925079e-01
  2.4563570e-02
 -3.6200303e-01
 -3.9784029e-01
 -3.2005829e-01
 -4.2751226e-01
 -2.8053150e-01
  3.3485246e-01
  7.3888713e-01
  7.4785233e-01
 -4.4719204e-01
 -9.7140722e-02
  3.2308045e-01
 -7.0506433e-04
 -2.1699996e-01
  4.1452506e-01
  4.8973089e-01
 -1.9092591e-01
  3.0323100e-01
  3.9158016e-01
 -9.2110366e-02
  1.8172686e-01
  8.8912445e-01
 -1.1182782e-03
 -1.8850556e-01
  5.6994218e-01
 -3.6989748e-01
 -2.3429202e-02
  6.1963242e-02
  7.6316261e-01
  1.2200994e+00
 -2.7644175e-01
  1.0405233e+00
  5.0599945e-01
 -2.6669660e+00
 -4.1647446e-01
  4.1386195e-02
  2.2886157e-01
 -1.3138033e-01
 -6.1338580e-01
  4.7837746e-01
 -4.9587616e-01
 -5.8360577e-01
 -3.5497707e-01
 -5.2245724e-01
  1.2302592e-01
 -4.8883376e-01
 -5.7673705e-01
  5.7414722e-01
 -6.1729860e-01
 -6.6501683e-01
 -2.7867377e-01
 -9.7219057e-02
  1.6029847e-01
 -3.7931764e-01
 -3.8796297e-01
  4.1095175e-02
 -1.1558847e+00
 -5.3258050e-02
 -1.9842615e+00
  1.5850122e-01
 -6.9677956e-02
 -1.4221474e-02
 -2.6973709e-01
  7.9041851e-01
  4.2842239e-02
 -3.0057505e-01
 -1.0948439e+00
 -7.1618760e-01
 -2.1161927e-01
 -7.2814018e-01
  4.7798005e-01
  5.5737364e-01
 -6.0052454e-04
 -4.2333582e-01
 -1.3457741e+00
  9.0305924e-01
 -7.5043923e-01
 -8.4979820e-01
  1.2207341e-01
 -1.6585838e+00
  3.6286339e-01
 -3.7059426e-01
  1.4611545e+00
  1.4806265e-02
 -1.0878042e+00
  2.2895952e-01
  3.8347384e-01
  1.8216878e-01
  2.6130229e-01
 -1.2891659e-01
  1.5005419e-01
 -2.0671360e-01
 -1.8628319e-01
 -1.1296935e+00
  5.0826680e-02
 -1.3957836e-01
  1.3254436e+00
  1.1197943e-01
 -8.8086821e-02
  3.0462530e-01
  1.2289157e-01
 -7.6603705e-01
 -3.4542948e-01
 -3.9636379e-01
  9.9199407e-02
  1.0158689e-01
  1.7277744e+00
  3.4072596e-01
  9.1086909e-02
  2.1039627e-01
  7.6879673e-02
  8.5584328e-02
 -8.9295365e-02
 -1.5016882e-01
  4.3359905e-01
  8.5604811e-01
  7.4702334e-01
 -3.7320895e+00
  1.5316811e+00
 -9.1321892e-01
 -6.0749501e-01
  5.7574683e-01
  8.5210133e-01
 -1.8037841e+00
 -7.7546632e-01
  4.4210473e-01
  2.2268121e+00
 -3.6266232e-01
  4.0578651e-01
 -9.9363802e-03
  1.0096117e+00
 -1.0526662e-02
  1.3083457e+00
  1.2192498e+00
  5.6799644e-01
 -1.6067922e-01
 -2.8199577e-01
 -8.7731972e-02
 -1.0016081e+00
  1.1313908e+00
  4.1771955e-03
 -1.1804537e+00
  1.3616637e+00
 -1.0578327e+00
  1.7100402e+00
  5.8865321e-01
 -9.6291500e-01
 -1.5475657e+00
  3.5467958e-03
 -1.0775393e-01
 -3.9768749e-01
  3.2913396e-01
 -2.1120273e-03
  1.9747560e-01
  5.4941463e-01
 -1.0550696e+00
 -2.2332960e-01
 -1.2115883e+00
 -5.7690772e-03
 -4.0051004e-01
  1.9627018e-01
  1.1899529e-01
 -6.6448981e-01
  8.6676258e-01
  8.2697242e-01
 -3.6221510e-01
  4.9652755e-01
 -2.4160324e-01
  3.8063638e-03
  2.1142006e-01
 -5.3276336e-03
  7.6665200e-02
  1.1547801e+00
 -1.3868505e+00
 -7.4893564e-01
 -2.1153321e+00
 -1.6872710e-01
 -1.1504093e+00
  2.6540449e-01
 -8.3866835e-01
  3.3264288e-01
 -5.7906806e-01
  2.8693038e-01
  7.8401458e-01
 -8.1061000e-01
 -3.4566784e-01
  9.4992512e-01
 -1.3422708e-01
  3.4191784e-01
  6.8068784e-01
  1.8667284e-01
  1.1117409e+00
 -1.3456762e-01
  1.0106059e+00
 -2.1612699e-01
  7.9589605e-01
  9.1849697e-01
  5.4088938e-01
 -5.3718615e-01
 -2.2797692e+00
  1.1058774e+00
 -2.9920841e-02
  9.4724886e-02
 -1.5721662e-01
  7.2709000e-01
 -7.8502905e-01
  4.3283916e-01
  8.6239254e-01
 -3.5479572e-01
  8.5346952e-02
 -5.4572845e-01
  1.1098158e+00
  7.4831790e-01
  5.9499186e-02
 -9.4603777e-02
  4.4577504e-03
  1.0225896e+00
  4.9961853e-01
  1.1633228e-01
  2.9078680e-01
  1.4281352e-01
  1.5230242e+00
  6.1783463e-01
  8.4269530e-01
  5.2686214e-01
 -9.1679251e-01
 -2.3248973e-01
 -1.6947211e+00
 -3.4700403e-01
 -9.8115586e-02
 -2.5465471e-01
 -9.0531790e-01
  5.9549727e-02
 -4.3645179e-01
 -7.9386599e-02
 -1.1585180e-01
 -3.3647010e-01
 -2.1233682e-01
 -1.7313372e-01
  2.8967948e+00
 -1.5744238e-01
  8.7544614e-01
 -5.0898069e-01
  5.9875458e-02
 -5.7540053e-01
  1.4343540e-01
 -3.4900311e-01
 -6.3056785e-01
 -3.3925362e-03
 -5.2045161e-01
  2.0461042e+00
 -4.0095133e-01
  1.2532596e-01
 -3.2760069e+00
  9.1030103e-01
  1.3878028e+00
  2.6622877e+00
 -9.6138276e-02
 -4.8674354e-01
 -8.1675655e-01
  7.7453834e-01
 -5.4810977e-01
 -3.2093668e-01
 -5.9969252e-01
 -1.6234394e+00
  4.3556014e-01
  5.5872971e-01
