nep4 15 Li B O Al Si P S Cl Ga Ge As Br Sn Sb I 
cutoff 7 5 199 74
n_max 6 4
basis_size 8 8
l_max 4 0 0
ANN 30 0
 -4.7588944e-02
  1.0700666e+00
  7.0675665e-01
  3.6708051e-01
  6.1049414e-01
 -5.4462349e-01
 -9.7275478e-01
 -2.8714812e-01
 -2.4129945e-04
 -1.7277826e-01
  4.8770461e-02
 -5.8633231e-02
 -3.8207062e-02
  5.0697684e-01
  2.5558916e-01
  5.9781875e-02
 -5.4785049e-01
 -5.0376177e-01
  2.5113795e-02
  3.5073039e-01
 -2.9401310e-02
 -2.2739415e-01
 -2.3607938e-01
 -5.6093204e-01
  3.0416408e-01
  1.2514482e-02
 -4.4388492e-02
  1.1168257e-01
  9.6851372e-06
  1.4172098e-01
  3.3266850e-02
 -2.0801975e-01
  1.2458007e+00
 -6.0188401e-01
  4.9376372e-01
  2.7016824e-01
 -1.7136486e-02
  3.7933001e-01
  1.4510507e-02
  1.1722504e-01
 -2.1591908e-03
  4.6921685e-01
 -7.2737481e-03
 -5.3777676e-03
 -1.4176070e-03
 -9.2426306e-03
  2.2989090e-01
  8.0157565e-03
  2.0096505e-03
  3.5014311e-03
  8.6809549e-04
  1.0136222e+00
 -5.2578594e-03
  4.4301942e-02
  1.2062114e-01
  3.2414058e-01
 -7.9345945e-03
  6.7216092e-01
  1.9130101e-02
  6.4892304e-01
 -4.5963949e-01
 -1.0613019e-01
 -1.2349615e-01
  2.1076633e-01
  1.2213822e-01
 -2.4267015e-01
 -1.3589582e-01
 -5.0206441e-01
 -2.3953238e-01
 -5.5289507e-01
  1.3745522e-01
 -2.2328448e-01
  1.2369135e-01
  4.5122761e-02
 -3.1673390e-01
  9.9096633e-02
 -4.5649926e-03
 -3.1741315e-01
  4.6956763e-02
 -1.0358934e+00
  1.1434767e-02
  6.3830084e-01
  5.4001897e-03
 -4.7273658e-02
 -4.3760267e-01
 -2.5213361e-01
 -9.9547371e-02
  3.8392134e-02
  5.4519434e-02
  2.5019854e-01
  5.9218939e-02
  9.3980633e-02
 -6.1089408e-02
  2.7749169e-01
 -2.2816524e-01
  5.3141285e-02
  1.7583258e-01
 -6.3818335e-03
  2.1604775e-01
  3.1560451e-01
  2.5225380e-01
  3.9757991e-01
 -2.5738817e-01
  7.8971870e-02
 -1.1529519e-01
 -8.8869343e-03
  3.0028462e-04
  6.8273903e-03
  4.6265826e-01
  1.8070973e-01
  4.8308927e-01
 -1.3633756e-01
  5.0582522e-01
  3.0658177e-01
 -2.5128829e-01
 -2.8045207e-01
 -6.7283019e-02
  2.9065904e-01
  3.5568122e-02
  4.4945464e-03
  2.6394241e-04
  3.1549147e-01
 -1.5351592e-01
 -4.5572249e-03
 -3.0090827e-02
  1.3915654e-01
  1.6849748e-04
  3.2067336e-02
 -4.9908017e-03
  7.3463239e-02
 -7.0010230e-04
 -1.2379851e-01
  2.2593881e-01
  1.7026318e-03
 -7.4450313e-03
 -2.2969641e-02
  3.4235425e-03
  3.6793872e-04
  1.7496052e-03
 -1.5787505e-02
  1.4264305e-01
  1.4908276e-01
  4.7162334e-03
 -1.1923357e-03
  4.9473536e-01
 -1.4120461e-02
 -2.4919955e-03
  5.2249031e-03
 -2.4614502e-03
  3.1416442e-02
  7.5159147e-02
  5.6992732e-03
  3.4319372e-03
  1.8212233e-03
  2.5268483e-01
 -1.1424963e-02
  4.6237776e-04
 -6.4353400e-04
 -1.0344633e-02
 -6.5850538e-01
 -3.5030235e-02
  1.4329957e-03
 -2.1347914e-02
  7.2786659e-03
 -1.8833544e+00
 -1.4418370e+00
 -1.1472480e-02
  1.7199537e+00
 -8.9590354e-03
 -1.2196764e-01
 -2.1811697e-01
 -1.4482906e-01
  1.2162959e-01
  3.8023737e-01
 -5.7970917e-01
 -3.0393749e-01
 -1.0492960e-01
  1.8578836e-01
 -5.5864590e-01
 -5.3482026e-01
  1.3261090e-01
  3.9544635e-02
 -9.3297757e-02
 -3.0872956e-01
 -1.6579463e-01
 -4.5328992e-03
  9.9671297e-02
 -2.6999293e-03
 -2.4734810e-02
  1.8993511e-03
  5.6072008e-03
  2.1305939e-03
 -2.3796728e-02
 -4.1440096e-02
 -4.7620643e-02
 -9.6270628e-03
  3.6531216e-01
  2.3708403e-02
  4.9185287e-03
  6.4639814e-02
 -1.2395342e-04
  5.6973018e-02
  5.6494944e-02
 -2.9098503e-03
 -1.5017952e-02
 -2.8750200e-03
  1.0025880e-02
 -9.4932399e-04
  6.9143683e-02
  2.6537707e-02
 -1.8959548e-02
  1.0774330e-03
  3.6023874e-03
 -8.2474925e-02
 -3.5330508e-02
 -1.3553229e-02
 -5.5701834e-01
 -8.5032629e-03
 -2.3931487e-01
  1.5466597e-02
  9.0444869e-01
 -1.9549674e+00
 -2.3233758e-01
 -1.8767682e-01
 -1.3738894e-02
 -7.4447018e-01
 -5.2216893e-01
  1.0188024e-04
 -1.0335447e-01
  2.7919162e-04
 -9.1909540e-01
 -2.4243832e-01
 -6.5745157e-03
 -7.2505511e-02
  8.0949776e-03
 -8.3238530e-01
 -1.6001277e-01
 -1.4973593e-02
 -2.1290559e-02
 -9.5520951e-03
 -8.1974804e-01
 -2.2757223e-02
 -5.9000671e-02
  1.1473673e-01
  1.0468409e-02
 -1.4590599e-01
 -7.1593575e-05
 -2.4534120e-01
 -8.2869865e-02
 -1.3234740e-01
 -6.0297706e-04
  5.5782557e-01
 -2.6612484e-01
  3.7204069e-01
 -3.3943411e-02
  1.5738940e-02
 -7.9506775e-03
  2.3104571e-01
 -1.7024536e-03
 -1.1239575e-02
  9.4845090e-03
  2.2909868e-01
  3.6278971e-02
  9.0831227e-04
 -3.2936014e-02
 -7.5471593e-04
  1.0524179e-01
 -3.0961075e-01
 -2.0488193e-05
 -3.3244472e-02
 -2.5661854e-02
  1.8658143e+00
  4.9296206e-01
  7.7241993e-01
  7.6420531e-02
  9.8306596e-02
 -3.1123633e+00
  6.0662277e-02
 -3.2018084e-02
 -9.8678656e-03
 -4.4718985e-02
 -7.8105591e-02
  1.5476343e-01
  2.7118173e-01
  4.9769425e-01
  6.9183069e-03
  3.9246603e-04
  3.5541683e-01
  2.3265010e-01
  2.8670087e-01
 -2.6510417e-02
 -1.1850836e-01
 -7.6868638e-02
  3.7580365e-01
  9.3880065e-02
  7.9604648e-02
  3.1739134e-01
 -4.6424547e-01
  2.4099670e-01
  5.7522571e-01
  7.6912451e-01
  7.0360827e-01
  8.0304968e-01
 -5.6378627e-01
 -4.6501282e-01
 -7.5705848e-03
 -1.1686043e-01
  3.4679919e-03
  2.9028833e-01
 -9.6762073e-01
 -3.0986595e-01
 -7.6543704e-02
 -5.6025155e-02
 -2.4231333e-02
 -9.9059336e-02
 -4.5696163e-01
 -1.2999662e-02
 -4.3960143e-02
  5.8107987e-02
 -2.3497544e-01
 -1.2571846e-01
  4.1916065e-02
  1.7492795e-01
 -1.1820627e-02
  2.7667442e-01
  2.5955430e-01
  2.5719556e-01
 -6.0740358e-01
 -7.9395743e-03
  4.5167565e-01
 -2.8279829e-01
  2.0194405e-01
 -3.7364784e-01
 -2.9574540e-01
  5.9997571e-01
 -3.6838630e-03
  2.8402438e-02
 -1.4127535e-02
 -5.4071896e-02
  7.5807905e-01
  9.4473250e-02
  8.6950604e-03
 -1.3031550e-01
 -2.3117365e-01
  1.4857991e-01
  1.0175226e-01
  1.5565887e-01
 -1.2510915e-02
 -3.3393601e-01
 -9.1700089e-01
  7.8540489e-02
  6.3816106e-01
  1.7295858e-02
  1.9093808e-02
  3.1664073e-02
  5.2160984e-03
 -9.0885162e-02
  8.2179554e-02
  3.6863312e-02
 -7.3359680e-01
 -5.9838288e-02
  6.6761069e-02
  3.5982452e-02
  2.1294542e-03
 -4.8415242e-03
  1.7413126e-01
  2.8264117e-01
  7.1669114e-03
  9.2144404e-04
 -1.4499117e-01
  6.8582851e-01
 -1.6885421e-01
 -2.7139632e-02
  2.1481341e-01
 -3.6711909e-02
  6.8476653e-01
 -5.8184132e-02
  8.7874085e-02
 -3.0249721e-01
 -9.1686040e-01
 -3.3643499e-01
 -6.9374001e-01
 -2.6635736e-01
 -1.4457777e-01
  3.3461335e-01
  1.6420616e-01
  8.5599415e-02
 -2.2985458e-02
  3.4025677e-02
  3.1267795e-01
  5.0676924e-01
  4.1443050e-01
  1.2923516e-01
  1.9633192e-01
  5.6608671e-01
 -3.9435949e-02
  1.7070879e-01
 -5.4786745e-02
  1.8118934e-01
  6.5893930e-01
  2.3006927e-03
  1.0502055e-01
 -1.8320130e-02
  2.0293681e-01
  4.7600549e-01
 -9.6073531e-02
  1.4571643e+00
 -6.6351078e-02
  4.4811714e-01
  1.1588594e-01
 -2.0239015e-01
 -1.0709852e+00
  1.5432158e-01
  2.1113704e-01
  1.1318595e-01
  5.5132106e-02
  3.6815941e-01
 -2.1030026e-02
  2.4600051e-01
 -2.5771558e-01
  2.2055797e-01
 -1.6699561e-01
 -6.5005966e-02
 -5.3542242e-03
  3.6856490e-01
 -5.4334015e-02
 -7.5536603e-03
 -1.0026956e-03
  1.3070287e-02
  1.8546008e-01
  3.2643133e-01
 -4.0936976e-04
 -5.1610763e-03
 -5.7023424e-01
 -9.6840948e-01
 -8.4603690e-02
 -1.2620093e+00
  1.6197409e-01
  5.6991732e-01
 -3.0780904e-04
 -1.9246779e-01
  2.3235132e-01
  2.9653262e-02
  2.0278485e-01
  2.2921646e-02
 -1.8822320e-01
  1.5564580e-01
  4.5239112e-01
  4.0491042e-01
  4.9627211e-02
 -2.0455603e-01
 -2.2770296e-01
  5.7622445e-01
  5.5585861e-01
  1.2923916e-01
  1.0679749e-01
 -1.3144167e-01
 -3.2827698e-02
  1.0044960e-02
 -6.9961786e-01
 -3.2269612e-01
  1.5723450e-01
 -1.8898430e-01
 -1.0365429e-01
  5.0659549e-01
 -2.9894868e-03
 -4.3219584e-03
  4.5588005e-02
 -3.7469345e-01
  6.5285683e-02
 -5.6634414e-01
 -6.1715581e-03
  2.3124667e-01
 -3.1497005e-01
 -1.4234518e-01
 -2.1874486e-01
 -6.7358300e-02
  2.5884116e-01
  2.9787421e-01
  6.0990831e-04
 -4.8880722e-02
 -1.6452298e-01
  1.1248643e-02
  5.9378451e-01
  5.4269709e-02
 -4.5111347e-03
 -2.1056303e-01
 -2.3011030e-01
 -1.9836397e-01
  4.5547178e-01
 -3.2349363e-01
  1.6749102e-01
  8.7628883e-01
  7.8823243e-04
  8.6956270e-02
  4.3108159e-01
 -1.7660433e-01
  5.9836973e-02
 -4.6611400e-04
 -3.1217193e-02
 -4.8590147e-01
 -4.0071487e-01
  2.9125638e-02
  4.3946672e-03
  1.1249927e-02
 -7.3922235e-01
 -3.2123107e-01
  8.7821573e-02
  1.3030922e-02
 -1.3419420e-03
 -1.7280927e-01
 -8.8119067e-02
 -6.7103188e-03
  3.7672231e-01
  1.2635229e+00
  8.7868458e-01
  2.6630104e-01
 -4.0327424e-01
 -2.3742077e-01
 -2.8966920e+00
 -7.4991137e-02
  1.8234663e-01
 -3.6689930e-02
  4.6913400e-03
 -5.7151723e-01
  2.5372222e-01
 -1.2619158e-02
  2.6025835e-01
  7.6771066e-02
 -1.4621235e-01
  1.9167599e-01
 -3.0614918e-02
  5.8319378e-01
 -5.6397181e-02
  7.2326057e-02
 -2.2597903e-01
  1.6550551e-01
  3.9529186e-01
  1.8093055e-02
  3.9857127e-02
  3.3797085e-01
 -4.3321291e-01
 -5.9168661e-01
  1.9432205e-01
  3.0970918e-02
  4.7242779e-01
  4.9067113e-01
 -3.0102775e-01
 -2.2178698e-02
  5.8910329e-02
  3.3198813e-01
 -1.7885749e-01
  1.2698913e-01
 -1.2097983e-02
  6.8719931e-02
  3.1500989e-01
 -1.7086670e-03
  1.2809311e-01
  5.2639735e-01
  1.2788478e-01
 -1.0897378e-01
 -1.6694523e-01
 -1.1802818e-01
  1.8189128e-01
  2.9209721e-01
 -2.2813298e-01
 -2.2250119e-01
 -7.3814844e-03
  1.1078850e-01
 -1.6814714e-02
 -1.7110159e-01
 -7.9543414e-03
  5.4307145e-01
  8.0848746e-03
 -1.2180823e-01
 -1.2031948e-01
 -1.3542841e-01
 -6.9553129e-02
 -2.1550520e-01
 -2.9524492e-06
 -1.4913970e-01
  3.2651341e-01
 -3.7779421e-02
  3.2061134e-03
 -6.8892792e-02
 -9.8164469e-01
 -5.7963899e-04
  7.7146232e-02
 -6.7065798e-02
 -3.0859087e-02
 -3.8422868e-02
  3.7475646e-01
  3.2353714e-02
 -9.5524147e-02
  2.6847529e-03
 -4.9803164e-03
 -4.2624731e-04
 -2.1072843e-03
  6.5439455e-03
  4.7955647e-01
  9.5537521e-02
 -2.0942640e-02
 -8.1489952e-03
 -3.6984205e-02
 -7.5380348e-02
  3.9912793e-03
  5.9676741e-04
 -2.5303171e-03
 -1.2982069e-01
 -6.1294571e-03
 -6.4656148e-03
 -1.4773861e-02
 -2.0578161e-02
 -4.7153562e-02
  3.9772368e-03
  3.5666300e-03
  6.2591289e-03
  9.9747796e-03
 -2.5240865e-02
 -7.6784263e-04
  9.3549797e-03
 -4.0310413e-01
  8.5133146e-03
 -3.5886768e-02
  4.4369865e-03
  4.9842061e-03
 -8.0720425e-01
 -8.4091969e-02
  1.1823877e-02
 -1.2803691e-02
  4.3097354e-02
  1.5627913e-01
  3.9490350e-03
  1.2252590e-02
  2.1457624e-01
  1.5883898e-02
  1.0616828e-01
  4.7286595e-03
  3.1653237e-02
  7.0200074e-01
 -1.3663147e-01
 -4.6211388e-02
 -1.1921924e-02
  6.7381869e-04
  1.6765811e-02
  3.5781401e-01
 -1.1020593e-01
 -2.8998972e-04
  5.0774351e-02
 -2.6791891e-01
  6.7517944e-02
 -9.4371416e-02
  2.0666954e-01
 -1.0766476e-01
 -4.3623355e-01
 -2.9697415e-01
 -5.3605451e-03
  1.6669249e-02
 -4.3667037e-02
  1.3297906e-03
 -2.5153205e-01
 -2.9317362e-02
  4.3574801e-01
 -3.9063248e-01
 -1.3486007e-01
 -4.1107625e-01
 -6.9247045e-02
  1.2722352e-01
  2.4316963e-02
 -1.2975295e-01
 -7.0614689e-03
 -3.3011708e-01
 -1.3228658e-02
 -5.4771447e-01
 -5.8002854e-03
 -6.3079226e-01
  1.9701488e-01
  1.6993938e-01
 -5.7525110e-01
  6.6965687e-01
 -9.0031248e-01
  1.1821233e-01
 -2.9645492e-03
  6.4013553e-01
 -5.6484973e-01
  4.1664398e-01
 -1.6700543e-03
  7.0755988e-02
  9.1172318e-04
 -5.3240114e-01
  4.9153286e-01
 -3.2605150e-01
 -5.8093516e-05
  1.6565792e-01
 -6.9173974e-01
  2.4120331e-01
  9.1604628e-02
  3.1583857e-02
  4.7549181e-02
 -4.4839680e-01
  2.8035466e-02
  1.0008042e-02
  4.6550286e-01
 -2.4943916e-02
  2.2710738e-01
 -2.2904588e-02
  1.3997029e-01
 -1.9179006e-01
 -1.1957363e-01
  1.2932809e-01
  1.4899452e-01
  5.4643523e-02
 -1.2443874e-01
  9.6095580e-04
 -1.7277414e-02
 -4.8998644e-04
 -1.5733291e-01
 -5.7470702e-02
 -4.4328384e-03
  5.4229045e-01
  3.3643275e-01
  7.7003770e-02
  1.8935892e-01
  6.4275716e-03
  1.6341314e-01
 -2.9011379e-04
  4.2092490e-01
 -1.6433499e-03
  1.8352024e-02
 -4.9532112e-01
 -1.3471404e-01
 -9.9707443e-01
  1.7665917e-01
 -3.6017098e-02
  7.2824579e-01
  3.2235545e-01
  4.1596271e-02
 -1.3343196e-01
 -1.0613136e-02
  1.0447712e-02
  9.0339519e-02
  4.7041434e-01
 -1.8033020e-02
 -1.1835612e-01
  7.8231201e-02
  6.5930441e-02
  4.4709560e-01
  3.3087276e-02
 -2.1243797e-01
  2.8754690e-01
  4.1029137e-01
  4.3243393e-02
  2.8876561e-01
 -1.5839221e-01
  1.8255734e-01
 -2.5112873e-01
 -1.3054158e-03
  8.5847563e-01
  2.5170413e-01
  1.0530376e-01
  3.7546572e-01
  5.5327442e-02
 -7.8670003e-02
 -1.2285449e-01
  8.8032566e-02
  6.7189410e-02
 -1.6491913e-03
 -6.2062856e-02
 -1.6929521e-01
 -1.1742875e-01
  3.1555384e-01
 -3.8807597e-03
 -1.0119100e-01
 -8.2561634e-02
  2.1459390e-01
  2.3318157e-02
 -4.4152670e-02
 -1.6060533e-01
  1.9142113e-03
 -4.1990209e-02
  3.6277410e-02
 -4.9425793e-01
 -3.3704710e-01
 -9.6160063e-04
 -1.5914528e-02
  5.0850064e-03
 -4.3870374e-03
 -2.7438693e-04
 -6.7014066e-03
  8.3293188e-03
  2.9137053e-03
 -1.0983545e-02
 -4.8327749e-03
  2.1811095e-03
  8.6427992e-03
  2.1586295e-03
 -6.5073241e-03
 -4.9222203e-04
  7.4828509e-03
  5.2793100e-03
 -7.3761456e-03
 -5.3319484e-03
 -2.0290609e-01
  1.0691609e-02
  5.4051001e-03
 -5.6811618e-03
 -9.8140147e-03
  1.0662542e-01
 -4.7670328e-03
 -9.8477621e-03
  1.6910422e-01
  3.6389372e-01
  6.9923210e-01
  3.3790559e-01
 -1.5843375e+00
 -1.6307206e-01
 -1.1529980e+00
  3.1271763e-02
 -3.6158493e-01
  7.9343960e-02
  1.4339339e+00
  4.7424296e-01
  5.1471806e-01
  6.4675605e-01
  1.0936391e+00
  7.1152592e-01
  4.4122681e-02
  9.5069692e-02
  5.4696733e-01
  6.9896317e-01
 -1.4036282e+00
 -3.7598800e-02
  1.8296376e-03
  7.1259453e-03
 -9.0395659e-01
 -4.1379843e-02
  2.2847533e-02
 -4.8301184e-01
  1.2460386e+00
 -1.3433856e-02
 -2.3218814e-01
 -4.1986385e-01
 -9.8750517e-02
  1.0754377e-01
  2.1680968e+00
 -1.7631143e-02
  1.8708588e+00
  7.0947058e-02
  8.3110076e-01
  6.1774518e-02
 -2.8807005e-01
 -1.7583758e-01
  6.4232878e-02
  6.2044438e-02
  3.1119987e-01
 -1.0697004e-01
  9.3210764e-02
 -8.6302496e-02
 -1.5555906e-01
 -4.3963337e-01
  1.8801758e+00
 -8.5508704e-02
 -4.9650673e-02
  5.8601156e-02
 -9.6105069e-02
  3.0679524e-01
  8.9246050e-02
  1.2738930e-01
 -4.8603493e-01
 -1.1236006e-02
  7.5355685e-01
 -4.0917152e-01
  1.4624071e+00
 -7.1476811e-01
 -5.9143233e-01
 -6.6826016e-01
  6.9448096e-01
 -2.7050116e+00
 -1.0005789e+00
  1.2373583e-01
  6.1548257e-01
  5.8960937e-02
 -2.3395237e-01
  1.0267501e-01
  3.7479118e-01
 -7.5530630e-01
 -1.4947450e+00
 -6.7319381e-03
  5.4942465e-01
 -5.0113952e-01
  1.9714135e-01
 -8.4551209e-01
  1.8115073e+00
 -1.2616380e+00
  9.3339807e-01
  9.7708575e-02
 -3.5966963e-01
 -4.1654366e-01
  1.2707912e+00
 -9.4289035e-02
  9.3670972e-02
  4.0239325e-01
 -1.7628053e-01
  3.3259553e-01
 -5.1674938e-01
  5.7103887e-02
 -4.0526670e-01
 -1.2057810e+00
 -2.2806756e-01
 -2.2879213e-01
 -2.9068370e-03
  1.0681301e-01
  1.0132281e+00
  5.3620613e-01
 -5.9501493e-01
  1.2428713e-01
  3.8799089e-01
 -7.2734100e-01
 -3.1602973e-01
  6.2374276e-01
  1.4032982e-01
  7.8111178e-01
 -8.9744204e-01
 -5.7762021e-01
 -9.1549873e-02
 -6.5199023e-01
 -1.0952891e-01
 -6.6766495e-01
  5.2294582e-01
 -1.4537944e+00
  4.4676679e-01
 -6.7116368e-01
  1.7902126e+00
 -1.7335888e-02
  1.0648376e+00
 -4.6916986e-01
 -1.0428708e+00
  1.1120700e+00
 -1.3261601e+00
 -8.1218839e-01
 -1.4519393e+00
  1.4300334e-01
  2.4894723e-01
 -6.4533395e-01
  4.9164638e-01
  1.6662894e-01
 -2.3864200e-02
  8.7280875e-01
 -7.1523875e-01
 -5.5316925e-01
  1.0423431e+00
  2.8873596e-01
  4.7128227e-01
  4.9999952e-01
 -3.9442785e-02
 -1.2148055e+00
 -7.2930151e-01
 -1.2832330e+00
 -1.1490895e+00
  3.2905981e-01
 -1.2828790e-01
  5.3692091e-01
  8.5350287e-01
 -8.9365309e-01
  1.0366504e+00
  9.9820524e-02
 -4.7426814e-01
  1.9538538e-03
  1.0217948e+00
 -8.8074309e-01
  8.7696427e-01
 -8.6828417e-01
 -3.4081206e+00
 -6.2155586e-01
 -5.5908048e-01
  7.9172999e-01
 -5.8245594e-03
  4.7577927e-01
 -5.1369518e-01
 -8.6212766e-01
  4.5641917e-01
 -6.5441233e-01
  3.5000983e-01
  1.1156412e+00
  1.1477707e-01
  1.2433313e+00
 -6.8643585e-02
  8.4675318e-01
  1.5118779e+00
  7.1140575e-01
  8.5241067e-01
  9.4384682e-01
 -3.8002869e-01
 -1.5354744e+00
 -7.4903116e-02
  1.2513472e+00
 -1.5637842e-01
  2.9735786e-01
 -3.5041437e-01
 -4.0553150e-01
 -5.8795631e-01
 -8.1298882e-03
 -1.1825487e-01
  2.8205326e-01
 -3.0161247e-01
 -8.2722967e-03
 -1.7816608e-01
 -1.1268570e+00
 -7.2919442e-03
  9.4672543e-04
  3.1907552e-01
  8.7091696e-01
 -5.6342977e-01
 -1.9890293e+00
 -1.9292850e-02
 -3.4258693e-01
 -5.9194547e-01
  2.7057841e-01
 -8.3369929e-01
 -3.2269943e-01
  6.2209755e-01
  2.0048788e-01
  1.9785076e+00
 -6.8494040e-01
  1.6745448e-01
  2.3534303e-03
  2.1444641e-02
  1.1066756e+00
 -2.0277911e-01
  1.7892651e-01
 -8.5726433e-02
  2.7211261e-01
 -3.1416401e-01
  1.2142395e+00
  8.4108675e-01
 -1.1357926e+00
  6.6497380e-01
  3.8758297e-02
  1.7271021e-01
 -3.8173418e-02
  6.6444188e-01
 -1.6215302e-01
 -7.3920578e-02
  4.3087029e-01
  8.6535579e-01
  2.0323546e-01
 -4.7288322e-01
 -1.0854437e+00
  1.0078230e+00
  4.8109463e-01
 -1.0478209e+00
  4.7053599e-01
 -2.2020081e-01
 -4.8036367e-01
 -6.3714206e-02
  1.3786666e-01
 -9.4028634e-01
 -8.4431380e-02
  1.8129547e-01
 -6.7550778e-01
  5.1524383e-03
 -1.3557191e-01
  8.6792403e-01
 -5.2319497e-01
  1.1866905e-01
  7.8296453e-01
  2.9557565e-01
  1.0768995e+00
  1.1718830e-01
  7.4878597e-01
 -4.5141748e-01
  6.2176937e-01
  1.0201146e-01
 -3.9376748e-01
 -8.7478423e-01
  7.1162611e-02
  1.4394603e+00
 -9.1014147e-02
 -2.9864898e-01
  1.5704356e-02
 -8.0763471e-01
  9.4823174e-02
 -3.0912230e-02
  2.4041173e-01
 -7.1391895e-02
  1.0549685e+00
 -5.3103161e-01
  1.6402452e+00
 -7.3611498e-01
  9.0595174e-01
 -3.5756555e-01
  1.5473571e-01
  1.1369767e+00
  9.2278117e-01
 -2.7792010e-01
 -6.0807317e-01
  4.4263497e-02
  6.9074333e-01
 -3.7502387e-01
  5.9431565e-01
 -3.6037117e-01
  3.6765513e-01
 -1.1180910e-01
 -1.0968156e-01
 -4.2599732e-01
 -2.0310298e-01
 -2.8655115e-01
 -8.5020661e-01
 -6.9634652e-01
  7.8959858e-01
  5.7803513e-03
 -6.4521599e-01
 -3.8615993e-01
  3.8836548e-01
 -2.0600958e+00
 -9.8114848e-01
  4.3757686e-01
  1.6718466e-02
 -8.2447499e-01
  1.4163594e-01
 -3.0997154e-01
  4.0764502e-01
 -3.5826039e-01
 -8.7687129e-01
  1.2946866e+00
 -2.8214014e-01
  7.6925337e-01
 -1.4929945e+00
  1.1126508e-01
  9.5316327e-01
 -5.2720845e-01
  5.3227963e-03
 -4.2725086e-01
  1.6870868e+00
 -1.7809382e-02
  3.8876492e-01
 -2.6503935e-01
 -2.9077837e-01
  2.8739429e-01
 -2.8044969e-01
 -1.9041324e-01
  1.2216394e+00
  2.2090483e-01
 -1.2506142e+00
 -2.2966590e+00
  5.9008354e-01
  3.9816880e-01
  6.6266382e-01
  5.5330932e-01
  4.9676925e-01
  1.8392876e-01
  2.3286488e+00
  1.2741275e+00
 -1.6912701e+00
  1.2422767e+00
 -1.8243657e-01
  2.6125625e-01
 -6.0985576e-02
 -7.6500666e-01
 -1.6216025e+00
  8.3268344e-01
  1.7434846e+00
 -3.5462713e-01
 -7.8798717e-01
 -4.2811739e-01
  2.5741887e-01
 -1.4513454e-01
 -3.5455499e-02
 -7.5446773e-01
 -1.9994936e+00
  6.0721600e-01
 -6.5464544e-01
 -2.5358956e+00
  5.0088918e-01
  5.8009976e-01
 -3.6439124e-02
 -2.9548898e-01
  6.8115127e-01
 -1.1353631e-01
 -9.7056609e-01
  5.8085030e-01
  9.1747653e-01
 -6.9937110e-01
 -2.1302633e-01
 -4.7633496e-01
  1.3396779e+00
  2.1525146e-02
  5.8983916e-01
 -1.3695031e+00
 -5.8569402e-01
  1.2226696e+00
  2.9231346e-01
  5.2773368e-01
  2.7446577e-01
 -3.8037822e-01
  7.4733299e-01
  4.2559782e-01
  1.8026731e+00
 -1.4872620e+00
 -4.5772681e-01
  1.1969241e+00
  5.8144027e-01
  1.6629313e-01
  2.9770204e-01
  7.3689598e-01
  2.4146333e-01
 -8.3953016e-02
  4.7369283e-02
  3.6024573e-01
 -1.6877128e-01
 -8.6028323e-02
 -8.0774939e-01
  4.7748250e-01
  9.1553159e-02
 -9.6242499e-01
  1.3293619e+00
 -1.7280114e+00
 -3.5010976e-01
 -6.5894645e-01
  1.0589403e-01
  3.9666781e-01
  1.4709518e+00
  1.8438090e+00
 -1.1372780e+00
 -5.0153721e-02
  1.8692546e-01
 -1.3516071e-01
 -3.3821929e-01
 -6.0561562e-01
  2.8623453e-01
  1.0760224e+00
  1.0871711e+00
 -1.1147821e-01
 -4.7596920e-01
 -4.0187249e-01
  3.4676397e-01
  4.0570641e-01
 -9.6528965e-01
  3.9810383e-01
 -5.0796127e-01
 -3.5377079e-01
 -1.7524432e-01
  1.8688180e-01
 -9.6200645e-02
  1.2586865e+00
 -2.8977288e-02
  2.5377420e-01
  6.8081282e-02
 -1.5446590e-01
  3.0990955e-01
 -2.2119412e-01
  7.0952457e-01
 -3.5299342e+00
  9.8232490e-01
 -7.4749911e-01
  8.1589156e-01
  2.9153076e-01
 -6.8878460e-01
 -1.4568354e+00
  9.9928483e-02
 -2.7969465e-01
  1.0811898e+00
  6.9416201e-01
 -1.5752585e+00
  6.2368459e-01
  3.7293322e-02
 -4.4737581e-02
  2.6561886e-01
  1.1802609e+00
 -1.0045350e+00
  2.5271205e-02
  7.5880212e-01
  6.4808357e-01
  3.3174158e-04
  1.1619133e+00
 -4.9032086e-01
 -1.3216831e-01
 -2.7823859e-01
  1.2414882e+00
  2.1730235e-01
 -2.3224097e-01
 -5.0232148e-01
 -9.8559171e-01
 -9.3863308e-01
  5.5552357e-01
  1.2782793e+00
  1.4298035e-01
 -8.4266448e-01
  7.9657042e-01
  5.9797162e-01
  1.6799242e+00
  3.7369096e-01
  2.3341542e-01
 -6.8382257e-01
  1.3878045e+00
  4.5616531e-01
 -9.7227472e-01
  3.6689430e-01
  5.7502800e-01
 -9.5661335e-02
  1.8985977e-02
  4.5811838e-01
 -1.0819559e+00
  5.4459411e-01
 -3.2478985e-01
  1.0410807e+00
 -4.6337503e-01
  4.9609748e-01
 -3.7537739e-01
 -1.8741636e-01
 -1.5329072e-01
 -8.0712700e-01
  8.4053546e-01
 -6.9742709e-01
  4.0170968e-01
  3.3344644e-01
  1.2072056e-01
 -8.1781238e-01
 -2.2995504e-02
  5.2385908e-01
 -9.6629560e-01
 -1.1616913e-01
  3.4474528e-01
  3.9925352e-02
 -3.5914358e-01
  1.4159124e-01
  2.5413680e-01
  4.6171039e-01
  6.3210154e-01
  5.6731367e-01
 -3.1470165e-01
  7.5717014e-01
  6.4376730e-01
 -1.1080332e+00
 -2.2147864e-01
 -3.7470046e-01
 -3.1990502e-02
  2.2920568e-01
  1.1477206e+00
 -1.3210864e-01
 -4.3503055e-01
 -9.5123136e-01
 -5.6064003e-03
  5.4214710e-01
  4.8962724e-01
 -8.5508162e-01
  6.2929705e-02
 -6.9095701e-01
 -1.7585598e+00
  3.1258798e-01
  4.0331909e-01
 -1.2343292e+00
  3.4422421e-01
  1.0870217e-01
 -1.2587449e-01
 -2.1234404e-01
 -1.3859688e-02
  9.3578026e-02
 -2.0645317e-01
  8.1261665e-01
  2.2020781e-02
 -7.2967313e-02
 -3.7187466e-01
 -5.7147205e-01
 -1.1120406e+00
  8.6908591e-01
  1.4962499e-01
 -2.1826960e-01
 -9.0034056e-01
  3.2886267e-01
 -1.6100462e-01
  1.0712322e-01
 -9.3393004e-01
 -2.3363863e-01
  7.4270487e-01
 -4.8138475e-01
  2.1969458e-02
  1.3677090e-01
 -1.0899046e-01
 -1.9452237e-01
  2.3115176e-01
 -2.6211185e-02
  9.1095871e-01
 -5.8744597e-01
  2.5001532e-01
 -7.6075631e-01
  7.9807168e-01
  8.1039679e-01
  4.0634742e-01
 -3.5603526e-01
 -1.9019374e-01
  3.4676600e-01
 -8.1668246e-01
 -3.1271601e-01
 -3.1014109e-01
  1.9046886e-02
 -1.2653910e-01
 -2.4822024e-01
  1.7294087e-02
 -5.6379807e-01
  7.8055936e-01
  3.4822038e-01
 -1.4585736e-01
 -2.7076882e-01
 -1.0047983e+00
  7.4136519e-01
  4.8932191e-02
  8.7103939e-01
 -7.8329158e-01
  3.6758092e-01
 -1.5347871e-03
  7.1936278e-03
 -1.1089369e+00
  5.9126300e-01
  1.7681211e+00
 -9.4651151e-01
 -2.4105453e-01
  1.6549038e+00
 -1.7977630e+00
 -4.7488582e-01
  3.4212679e-01
 -1.8250483e+00
 -5.9081823e-01
  8.2710344e-01
  1.1455058e+00
  5.0693458e-01
  5.2954566e-01
  4.7256818e-01
 -5.4559523e-01
 -3.3806145e-01
 -9.5599914e-01
 -5.5587214e-01
 -4.4579902e-01
 -1.6046542e-01
 -3.8198403e-01
 -9.5355612e-01
  2.5858748e-01
  4.6426998e-03
 -5.4898018e-01
 -4.7979254e-01
 -5.6378150e-01
  2.6613939e-01
 -1.5936635e+00
  7.0979583e-01
  4.2954394e-01
  1.2557425e-01
 -6.5839458e-01
 -9.1676742e-01
 -8.8118577e-01
  1.0403478e+00
  1.8845906e+00
 -8.5145280e-02
 -1.3050209e-01
  1.7156763e+00
 -2.7760938e-01
  2.8022850e-01
  8.5445642e-02
 -2.5370726e-01
 -1.2266361e+00
  2.9251820e-01
  1.3355054e-01
 -1.5617819e+00
  4.6402165e-01
  8.5214293e-01
  1.7418747e+00
  5.4611051e-01
  7.3485816e-01
 -2.0808406e+00
  4.1012162e-01
  9.6764964e-01
  1.7611465e+00
  7.2633225e-01
  1.2228975e-01
  1.5856918e+00
  2.6900050e-01
 -1.3015608e+00
  8.4373668e-02
  3.2564348e-01
 -9.7009309e-02
 -4.4940032e-02
  5.2621818e-01
  4.1088774e-03
 -8.0141360e-01
 -3.3492476e-02
 -1.7455651e+00
  4.9867317e-01
 -1.1496838e+00
  8.0709708e-01
 -1.3207233e+00
  5.8158183e-01
  1.1771663e-02
 -5.0085759e-01
  6.5302080e-01
 -3.1677133e-01
  1.8242298e+00
  6.6052526e-01
 -9.8580848e-03
  4.4696040e-02
  1.0257571e+00
 -9.2338604e-01
 -3.2974976e-01
 -9.7732350e-02
 -8.6645228e-01
  3.0111384e-01
  2.0093314e-01
  1.2686363e+00
  9.9358678e-01
  1.9759981e-02
  2.8760561e-01
  5.1422590e-01
 -6.3624901e-01
  1.2213429e+00
 -5.6081682e-02
 -8.2708859e-01
  3.2871160e-01
  5.8417219e-01
  4.2232722e-01
  8.2752305e-01
  1.2828048e-01
 -1.6040930e-01
  4.4767413e-02
 -2.9423356e-01
 -2.2087258e-01
 -1.5020275e-01
 -1.0722284e+00
  1.7133657e+00
  4.2716122e-01
  1.7499361e-02
 -7.2417259e-03
 -9.9526209e-01
 -1.3790257e-01
  1.7524440e+00
 -3.3672509e-01
 -8.8613242e-01
 -5.5352372e-01
 -4.9683207e-01
  3.2381698e-01
 -3.0073836e-01
 -2.0776798e-01
 -4.8206201e-01
 -6.4712578e-01
  9.3665004e-01
 -6.8749917e-01
 -4.1036552e-01
  4.7608900e-01
  8.3787507e-01
  1.1791828e+00
 -2.5513539e-01
 -1.0858967e+00
 -1.1740577e-01
  9.0484667e-01
  4.1866383e-01
 -9.9376255e-01
  7.3950151e-03
  1.3456092e+00
  3.5070434e-01
 -4.2173803e-01
 -8.0045599e-01
 -3.8828492e-02
  6.8528318e-01
 -7.1657610e-01
  7.3385376e-01
 -6.2374616e-01
  4.8431528e-01
  5.1708996e-01
  1.6571666e-01
  9.9987501e-01
 -9.2381877e-01
 -5.7888132e-01
 -3.1632856e-01
  9.8299879e-01
  3.3811063e-01
  7.5850715e-03
 -4.7553107e-03
  4.6819448e-01
  2.5395464e-02
  4.6150226e-02
 -1.2686291e-01
 -2.5772348e-01
  5.7957582e-02
 -1.1083070e-01
 -2.1747158e-01
  6.8938947e-01
  2.6500934e-01
  7.9035312e-02
 -2.6927325e-01
 -5.1998043e-01
 -6.8659462e-02
  9.8820291e-02
 -1.5992552e-01
 -2.4769348e-01
  2.2250371e+00
 -4.2571598e-01
  2.2423989e-01
  9.6090853e-01
 -8.4110834e-02
 -5.4685122e-01
  2.5641286e-01
 -5.5936843e-01
 -3.7654412e-01
  8.6751002e-01
 -5.5322063e-01
  4.3229249e-01
 -8.0353642e-01
  2.2318508e-02
  1.3039135e+00
 -9.1152668e-02
 -3.9899814e-01
  8.7338108e-01
  1.0996302e+00
 -2.6316467e-01
 -1.4984404e-01
  1.6652069e+00
 -1.1119568e+00
  6.0382819e-01
 -7.0469606e-01
  2.2112146e-01
  4.4797134e-01
  4.2510480e-01
 -8.8209912e-02
  1.6233571e-01
  4.7683951e-01
  2.2125334e-01
 -4.4925329e-01
  3.3132767e-04
  4.6423864e-01
 -3.1571126e-01
  7.2067899e-01
 -2.9930732e-01
  1.1700981e+00
 -4.8955807e-01
  4.8997939e-01
  1.6452111e-02
 -5.0970137e-01
 -5.7938707e-01
  6.1167753e-01
  1.3875220e+00
 -1.7880085e-01
  5.8770698e-01
 -6.2752658e-01
 -1.2485047e-01
  2.9558885e-01
 -7.8088325e-01
  8.0589861e-01
  1.0036769e+00
  3.2234424e-01
  1.8077111e-01
 -5.9289223e-01
  8.9478672e-01
 -6.3872105e-01
 -6.7194730e-01
 -1.8810940e-01
 -1.5292700e-01
  9.3938422e-01
 -2.9392943e-01
 -1.2420838e-01
 -6.3733198e-02
  1.3579906e+00
  8.4866419e-02
 -8.0517697e-01
 -2.2350375e-01
  2.3269294e-01
  4.6596202e-01
  2.2530431e-01
  1.7112362e+00
 -1.0333792e+00
 -1.9745730e-01
 -1.0010340e-01
  4.0434119e-01
 -6.0461557e-01
 -1.1070786e-01
  1.2427019e+00
 -3.7775418e-01
  5.1900393e-01
 -5.0642818e-01
  7.8205198e-01
 -2.5556991e-01
  2.6335314e-01
 -6.9906610e-01
 -4.3912402e-01
  7.3959358e-02
  2.0378768e+00
 -7.9058743e-01
 -1.1399642e-01
 -2.2324710e-01
  1.2074954e-02
 -1.6293564e-01
 -1.5743136e-02
 -1.8647913e+00
 -5.1347089e-01
 -4.9747834e-01
 -8.5045874e-01
 -9.4339478e-01
  7.3277724e-01
  1.7778342e+00
  1.2407113e+00
  7.4811554e-01
 -1.5841153e+00
  3.0484203e-01
  2.4728280e-01
  1.5883645e+00
 -8.2083994e-01
 -4.7539797e-02
 -3.2973462e-01
 -1.1393263e+00
  1.2676315e-01
 -5.8877504e-01
 -1.6433109e+00
  5.4247475e-01
 -1.3363911e+00
  1.1595181e-01
 -8.5333240e-01
  1.6461273e-01
  1.4803098e-01
 -4.2856786e-01
 -1.3722782e-01
 -3.2697743e-01
  4.1911149e-01
  3.0381498e-01
  2.8447333e-01
 -1.2576129e-01
  1.4007202e-01
 -3.1249422e-01
 -1.8483135e-01
 -8.9821167e-02
 -4.0698829e-01
 -3.3618495e-01
  6.5866256e-01
 -7.5818968e-01
 -9.5239389e-01
 -1.0652363e-01
  9.6224114e-02
 -5.3099322e-01
  1.7712574e-01
  2.0198539e-01
  1.3958293e-01
  1.2991509e+00
  3.0216426e-01
 -8.5931444e-01
  2.2209521e-01
 -1.2074802e+00
 -2.1268318e+00
 -2.7070758e-01
  3.7620587e+00
  4.3154562e-01
  3.6131449e-02
 -2.3655136e+00
 -1.6320033e+00
  5.3616453e-02
 -3.0340095e+00
 -1.0809000e+00
  9.5832586e-01
  8.5910392e-04
  2.2606172e-02
  2.1806133e+00
 -5.9691453e-01
 -2.5457388e-01
  3.3378574e-01
  2.9388824e-01
  8.8701701e-01
 -5.7455827e-02
 -4.2824608e-01
 -1.7425060e+00
 -2.0010598e-01
  6.0610974e-01
  4.9578264e-01
 -1.1343408e+00
  1.6537001e-02
  2.6145196e+00
 -1.1186025e+00
 -1.0471153e+00
 -1.1782794e+00
  1.1814080e+00
  5.6331342e-01
 -3.0965647e-01
  1.7093246e-01
 -3.0729121e-01
  2.7786660e-01
  6.4179271e-01
  7.8193921e-01
 -2.2506161e+00
  1.3746166e+00
  9.0175003e-01
 -1.5985838e+00
 -5.7605618e-01
 -9.2862839e-01
  2.0033641e+00
 -3.8773969e-01
  6.7120516e-01
  1.1837328e-01
  4.4356379e-01
 -8.5399693e-01
 -1.8931533e-01
 -1.6037532e+00
  7.0791525e-01
  1.1899149e-01
  6.3745993e-01
 -5.4480934e-01
 -3.0751905e-01
 -1.4461462e+00
  8.1496459e-01
  6.4995334e-02
 -2.2476968e-01
  8.0062717e-02
 -7.3302925e-01
  5.8766490e-01
  8.7885249e-01
 -7.5677866e-01
 -7.1462460e-02
 -3.9300285e-02
 -1.5424271e-01
  5.3048247e-01
 -1.5164839e-01
 -6.3893342e-01
  1.5318100e-01
 -1.3179382e+00
  4.2302984e-01
  3.7447274e-01
  2.2753325e-01
 -4.2229038e-01
  8.7027639e-01
  2.6602736e-01
  1.4602537e+00
 -1.4334965e+00
 -1.0981021e+00
  2.1499188e+00
  1.6333458e+00
  4.6248794e-01
  1.4250466e-01
 -9.8715878e-01
  6.7062002e-01
 -7.5204045e-01
 -6.6444701e-01
 -5.4636359e-01
 -2.3637363e-01
  6.8094105e-01
 -1.9317422e+00
  2.1131086e-01
 -6.4572625e-02
 -1.2938485e+00
 -1.6631465e-01
 -8.1268269e-01
 -6.3758010e-01
 -1.9361269e-01
 -4.1040757e-01
 -1.5767652e+00
 -1.7542517e-02
  1.4410275e+00
  2.0341246e-01
 -1.5821871e+00
 -5.8853322e-01
  1.3769425e+00
 -2.0165358e+00
 -1.9830295e-01
 -1.1682057e+00
  5.5194873e-01
 -1.8896462e+00
 -6.5306181e-01
  1.5094842e+00
 -4.7063496e-02
  3.9621183e-01
 -2.6115701e-01
  3.0668688e-01
  1.7507505e+00
  4.7402505e-02
  4.2752150e-01
  2.2132058e+00
  2.1846017e-01
 -1.7191846e+00
 -5.5255783e-01
  4.9300034e-02
 -5.9800684e-02
  9.0318918e-01
 -3.1001630e-01
  2.7968544e-01
 -7.9906464e-02
  2.1984053e+00
  8.5746688e-01
 -7.3349345e-01
  2.8161815e-01
  1.5121031e+00
  2.4501292e-01
 -1.8357042e-02
 -3.9821252e-01
 -6.2646472e-04
  1.9779431e+00
  1.1116728e+00
  1.5931115e+00
 -3.8607636e-01
 -6.4968729e-01
  1.1183138e+00
 -7.7917385e-01
 -9.3629521e-01
  4.5317641e-01
  2.9364800e-01
  1.6184138e+00
  8.9436760e-03
 -1.0930182e+00
  7.6756769e-01
  8.1708252e-01
 -5.3993499e-01
  1.2648371e+00
 -1.9157568e-01
  5.0466692e-01
  1.7872973e-01
 -6.3102573e-01
  2.2982428e+00
  5.9757882e-01
 -2.9950577e-01
 -3.6657560e-01
  3.2037014e-01
  3.8172165e-01
  2.7104142e-01
  1.5207841e-01
 -1.5070237e-01
  7.5061715e-01
 -9.4473106e-01
  1.9352362e+00
  4.8946318e-01
  4.2594475e-01
 -1.3122787e+00
  2.4793148e-01
  6.1627114e-01
 -1.2587062e+00
 -1.0384288e+00
  8.2574522e-01
  1.3476108e-01
  2.4117397e-01
  4.9082434e-01
  6.5125030e-01
  1.2263204e+00
 -3.1500813e-01
 -3.9990196e-01
  5.6402969e-01
 -6.5970796e-01
  5.5833471e-01
 -4.2001200e-01
 -3.7986469e-01
 -3.1924179e-01
 -4.2641917e-01
  1.8447343e-01
  1.7115846e-01
 -4.4474199e-01
  8.0843335e-01
 -3.1467199e-01
 -2.8029990e-01
  5.1746911e-01
 -7.6962471e-01
  4.2720670e-01
 -8.1187850e-01
 -1.3430059e+00
 -7.4372940e-02
 -1.4729668e-01
 -1.9547342e+00
 -3.7158075e-01
  1.1422391e+00
  4.6740434e-01
 -1.6600925e-02
 -1.6092832e-01
  2.8726566e-01
  6.5014744e-01
 -2.8162196e-01
 -5.5748753e-02
  1.4618562e-02
 -7.1756884e-02
  7.1562797e-01
 -2.1011598e-01
 -2.8362958e-02
  8.7729029e-02
 -5.2359569e-01
 -3.7138562e-03
 -4.4678903e-01
 -3.7305892e-01
 -1.0899506e+00
 -9.1665894e-01
 -1.5947293e-03
  4.3080932e-01
  6.2432289e-02
 -3.0552748e-01
  2.6105186e-01
 -4.2160496e-01
  3.9200488e-02
  1.9108437e-01
 -1.5880086e+00
  1.1498239e+00
  5.2156615e-01
 -1.0753933e-01
 -6.2349665e-01
 -1.0795788e-01
  1.0472649e-01
 -5.9305394e-01
  2.4005570e+00
 -1.0393367e+00
  1.2493370e-01
  1.5976472e+00
  1.2874344e-01
 -5.0135743e-02
  1.3101985e+00
 -8.7614465e-01
 -1.4531258e-02
  2.2276074e-01
 -2.5824159e-01
  1.6777275e+00
  4.3843830e-01
 -9.8538786e-01
  4.3764267e-02
  3.7366360e-01
 -1.6309789e+00
  4.4230342e+00
 -3.6254910e-01
 -2.2777329e-01
 -1.7898762e+00
  9.1342384e-01
  1.8505037e-01
  1.9609660e-01
  7.1060133e-01
 -8.8809723e-01
 -4.6028826e-01
 -1.1157143e-02
  4.2103395e-01
 -1.0359859e+00
  1.2258765e+00
 -2.0216655e-03
 -1.2304193e-01
 -1.3369574e-01
  2.5296029e-01
 -1.0682473e-01
 -4.8053181e-01
  1.4046486e-01
 -6.6705227e-01
 -9.5444798e-02
 -8.2272194e-02
 -1.5504636e+00
  1.2429751e+00
  2.6024964e-02
 -2.0554447e+00
  2.1827226e+00
  5.1892841e-01
 -4.9777684e-01
  2.8112713e-01
  1.0805932e-01
  1.0097699e+00
 -7.4501264e-01
  7.4881929e-01
 -9.2919809e-01
 -2.8814003e-01
  5.3346688e-01
 -2.7253215e+00
 -1.0534532e-02
  1.6330945e-01
  1.6952288e-01
 -5.3269190e-01
 -3.3495873e-01
  9.9716090e-02
  1.3206414e+00
  1.4381825e+00
  3.9868915e-01
  1.2724142e+00
  8.3910916e-03
 -4.4608337e-01
  1.9896082e+00
 -6.5583843e-01
 -2.0766582e-01
  2.4428051e+00
  8.1328595e-01
 -3.2526590e-02
  2.0029063e+00
 -5.5538960e-02
 -1.0569116e-01
  1.1152490e+00
  3.7227502e-01
  1.8010237e+00
  1.6707065e+00
 -1.1136631e+00
  2.6883739e-01
  3.9090490e-01
  9.1101807e-01
  1.0839874e+00
  8.0110088e-02
  1.2467220e-01
  1.5730704e+00
  8.2549065e-01
 -3.3549676e+00
  6.2187523e-01
 -2.7606022e-01
  1.1746271e+00
 -1.1486712e+00
 -4.8527429e-03
  3.3702528e-01
 -1.3081437e+00
  1.4648519e+00
  7.3529810e-01
  2.9916160e+00
 -7.7477580e-01
  1.5632629e+00
 -1.2437670e+00
 -2.3097995e-01
  2.1865830e-01
  1.5765660e-01
 -1.8080282e-01
 -1.0568094e+00
  1.5297861e-01
  1.6797121e-01
  9.9110311e-01
  4.5716852e-01
 -1.5253135e+00
  4.4985792e-01
 -2.7202022e+00
  3.7409163e-01
  4.0741807e-01
 -1.8197864e+00
 -6.8723196e-01
  2.8252473e-01
  4.9881241e-01
 -3.1849405e-01
 -6.1272699e-01
  2.8200015e-01
  1.6754301e+00
 -5.9790045e-01
 -8.0781907e-01
 -7.7050900e-01
 -6.7179281e-01
  3.4855065e-01
  4.9613479e-01
  1.8751514e-01
  1.3737538e+00
  2.0183008e+00
 -2.2284435e-02
  6.0767692e-01
  2.6319867e-01
 -4.3875286e-03
 -4.4947624e-02
  1.2962112e-01
  1.1050955e-02
 -1.0395271e-01
 -2.7932620e-01
 -1.5883164e+00
 -4.2376739e-01
  1.1717616e+00
 -6.6023260e-01
 -2.4996963e+00
  5.7073510e-01
  1.9683029e-01
  2.4651966e+00
 -2.6058757e-01
 -1.1047949e+00
 -1.3107531e+00
  1.6664474e-01
  1.1282734e+00
  2.4524853e+00
  1.9438019e-02
 -3.6496076e-01
  1.2578638e+00
  1.9030444e-01
  9.6356481e-01
  2.3287657e-01
 -5.3247547e-01
 -5.6489259e-01
 -5.5083577e-02
 -1.6272310e+00
  2.9688296e-01
 -1.9642771e+00
 -2.5253960e-01
  6.5220832e-03
  1.1071833e+00
 -9.0526396e-01
  2.8385609e-01
 -9.1428146e-02
 -1.2500305e+00
  6.2536597e-01
 -1.8397945e-01
 -1.6683206e-01
 -1.0479010e+00
  8.1284559e-01
  1.4032284e+00
  1.0365185e-01
  1.1962018e+00
  1.3057107e+00
 -2.8976417e-01
  1.5945873e-01
 -7.8234351e-01
 -1.6169968e+00
 -1.2030313e+00
 -7.9289997e-01
 -4.9383613e-01
  1.4233005e+00
  1.3907553e-01
  4.0194866e-01
 -6.1530060e-01
  1.4848407e-01
  8.7205060e-02
  7.3856091e-01
 -3.2888830e+00
 -2.0985033e-01
  4.1698590e-02
  1.2228891e-01
  1.0862448e+00
 -5.2367437e-01
  7.3810107e-01
 -1.3516042e-01
 -2.0368929e+00
 -9.2492682e-01
  2.7488983e-01
  3.9275258e+00
 -4.2645221e+00
  5.3753853e-01
 -3.7636557e-01
 -1.1891966e-01
  5.7725924e-01
  8.5817307e-02
  2.7067956e-01
  2.1151700e+00
  2.1843991e+00
  2.6791370e-01
 -6.9516605e-01
 -2.6110032e+00
  1.4815529e-01
 -3.8905671e-01
 -7.1879470e-01
 -5.5204439e-01
 -8.0043888e-01
  2.1432534e-02
  6.1072379e-01
  6.0328398e-02
 -2.3921418e+00
 -1.0280236e+00
  5.5291247e-01
 -8.1525639e-02
  1.8906890e-01
  1.1724997e+00
 -1.9253030e-01
  1.1518696e-01
  2.6994604e-01
 -4.0579963e-01
  4.8137441e-01
  5.4954356e-01
  4.2211238e-01
 -6.3841456e-01
 -4.7816572e-01
 -7.9814529e-01
  6.5009445e-02
  1.3205960e-01
 -2.7209511e-01
 -4.0002633e-02
  8.5505933e-02
 -3.9164084e-01
 -1.7731936e-01
 -3.5823826e-02
 -5.6241754e-02
 -1.5273249e-02
 -2.2401964e-02
 -5.4952357e-02
 -2.1684535e+00
  2.8918535e-01
  8.1858605e-01
  2.0485827e-01
  3.3432522e-01
 -2.9316932e-01
 -1.0224536e-01
  3.2262996e-01
  1.7704976e+00
 -3.7614909e-01
  1.7414162e-01
  6.6929109e-02
  1.2385370e+00
  6.0662758e-01
 -2.5957167e-01
  1.1127791e+00
  7.8192657e-01
  7.0905685e-01
 -2.4577912e-02
 -4.7842897e-02
  2.6776239e-01
 -5.2699775e-01
  5.1161651e-02
 -6.2897295e-01
  3.2136250e-01
  7.0784077e-02
  1.1202272e-01
  4.8144701e-01
  4.9635738e-01
 -1.0249071e+00
  1.4444165e+00
 -1.3332900e+00
  6.0264832e-01
  1.2416822e+00
 -4.5875004e-01
 -7.2368560e-03
  2.8953764e-01
 -8.1306493e-01
  4.8081499e-01
 -7.7548429e-02
  9.9095702e-01
 -2.2704544e-02
  9.9295193e-01
  3.0383724e-01
  2.9988578e-01
  1.9030865e+00
 -1.0873884e-02
  2.9091282e-02
 -3.1713456e-01
 -1.0753982e-01
  1.5843193e-01
 -3.4729302e-01
  9.9395859e-01
  1.1920460e+00
  1.2757181e-01
  1.3037813e+00
 -8.7260224e-02
 -1.8908568e-01
 -7.4359733e-01
 -8.6160994e-01
 -4.3872705e-01
  2.4423993e-01
 -3.9289755e-01
  4.5741695e-01
  6.3143903e-01
  1.7909302e+00
  2.0924382e-01
  1.5213736e+00
  2.5884349e+00
  1.6652805e+00
  1.7111282e+00
  3.6404433e+00
 -1.8348497e+00
 -1.0671939e+00
  2.4606006e+00
  2.9164848e-01
  1.8242218e+00
 -7.2696489e-01
 -1.6333364e+00
  3.9269209e-01
 -7.0031202e-01
  2.5838616e-01
 -9.4734335e-01
 -1.2318448e+00
 -9.9190056e-01
 -1.2063206e-01
 -6.3409799e-01
 -6.0037732e-01
  1.1100918e+00
  8.6285895e-01
 -7.4347943e-01
 -3.6432508e-01
  8.0779403e-01
 -1.1228911e+00
 -9.2424667e-01
  1.0364074e+00
  5.1299983e-01
  7.5534177e-01
  3.8838518e-01
 -3.9695773e-01
  1.6436496e+00
 -2.2159159e-01
 -1.8211267e+00
  1.3711128e+00
  1.5169661e+00
 -5.3782123e-01
  8.0971062e-02
 -9.9269718e-01
  1.6223025e+00
 -7.1461725e-01
  4.5485339e-01
  1.2444315e+00
 -1.0734951e-01
 -1.6968924e-01
  1.0282899e+00
  8.9126027e-01
 -5.4406399e-01
 -7.7865350e-01
 -3.0115304e+00
 -2.1145494e+00
  3.8833866e-01
 -1.7721026e+00
 -1.1511811e+00
 -2.6122389e+00
  8.9365339e-01
  5.2960172e-02
  8.8859832e-01
 -2.4022205e+00
  1.1845547e-02
  7.2870010e-01
  1.3472864e-01
  3.0623659e-01
 -9.6250778e-01
  2.6069107e+00
 -1.0000925e+00
  1.0096926e-01
 -1.1318895e+00
  6.8838483e-01
 -1.3868856e-01
  6.1287671e-01
 -7.6938230e-01
 -2.7286501e-03
  2.6948890e-02
  9.7551443e-02
 -1.3812972e+00
 -5.0531977e-01
 -1.1773252e+00
 -1.2465695e+00
 -1.8775235e+00
 -2.7663589e-01
  6.0615247e-01
 -4.5298804e-02
  1.2752832e+00
 -4.1593841e-01
 -2.7521212e-02
 -3.4327251e-01
 -1.0756100e+00
  1.6587354e-02
 -4.2856431e-01
  6.8498528e-01
  2.0984751e-01
 -1.3207175e+00
  1.5293335e+00
 -6.6875350e-01
  4.0933728e-02
 -1.1715360e+00
  7.6656258e-01
  1.8236475e-02
 -1.4848629e-02
  9.7025204e-01
  3.4584627e-01
  1.1830698e+00
  1.1858417e+00
 -5.6595260e-01
  7.6196951e-01
 -1.6642918e-01
 -1.8148147e+00
  1.6721056e+00
 -5.2223790e-01
 -1.6543669e-01
 -1.4053904e+00
  7.0204788e-01
 -7.6306176e-01
 -8.1351316e-01
 -3.9772373e-01
 -8.8220984e-01
 -5.8136755e-01
 -6.1975551e-01
 -1.9584849e+00
  2.4209586e-01
 -1.3186715e+00
  7.6309577e-02
  9.5449400e-01
 -6.2754250e-01
  1.2011657e+00
  3.0269712e-01
  6.9696352e-02
 -2.4122413e-01
 -3.5250539e-01
  2.8503007e-01
  5.4958638e-02
  3.3090748e-02
 -9.8132983e-02
 -1.4072920e-01
 -5.9672728e-02
 -4.4586983e-01
 -7.6681167e-01
 -1.1187171e-01
 -7.4076443e-03
  8.5832514e-02
 -1.1408069e+00
 -1.2970068e-01
 -1.9039646e-01
 -3.1214279e-01
  1.1893635e+00
 -4.7695097e-01
 -5.9972894e-01
 -1.6780810e+00
 -2.5551255e+00
 -9.7923422e-01
 -2.7444828e-01
  2.6920571e+00
  2.2769445e-01
 -1.3019989e+00
 -2.3295635e-01
 -5.5269957e-01
 -4.7151053e-01
  3.2883868e-01
  3.1487841e-02
 -4.2048231e-01
 -8.7123460e-01
  5.9833848e-01
  3.8959306e-01
 -3.7897903e-01
 -1.3965006e-01
 -3.7171316e-01
  6.7203991e-02
 -1.0622644e-01
 -2.9913148e-01
  4.2460984e-01
 -7.1495098e-01
  5.0481278e-01
 -4.1964525e-01
 -4.2947835e-01
 -1.5118629e+00
  1.7267549e+00
  2.5356035e+00
  1.3498451e-01
 -5.2143818e-01
  1.6540809e+00
 -1.8595108e+00
  2.7952180e+00
  1.0728514e+00
 -1.6091474e+00
  2.1860956e-01
  7.9173881e-01
 -2.7132155e-02
 -2.8500533e-01
  5.1534510e-01
 -2.5103346e-01
 -4.3080720e-01
  2.2757328e+00
 -1.3400004e+00
 -2.4495263e-01
 -1.6407483e+00
 -2.4015072e-01
 -4.4600350e-01
  3.7549732e+00
 -2.6294595e-01
 -1.5273014e-01
  1.7672540e-01
  3.8867336e-02
  6.4696836e-01
  1.6487759e-01
 -8.7255663e-01
 -6.4655823e-01
  1.9698991e+00
 -1.2347111e+00
 -1.2074353e+00
 -1.0914472e+00
 -7.2000790e-01
 -1.6552594e+00
  5.0550073e-01
  8.5053658e-01
  2.6335061e-02
  1.3774574e+00
  1.5625416e+00
  5.7625747e-01
  3.5334176e-01
 -1.0646163e-02
  7.4527466e-01
 -6.5518278e-01
  1.9135035e+00
 -5.8523941e-01
  1.2331343e+00
 -7.1154046e-01
  3.4742156e-01
  2.2766195e-01
  1.2806330e+00
 -1.6291622e+00
 -1.7257303e-01
 -5.3929663e-01
  5.5195886e-01
  1.6066897e-01
  5.3705561e-01
  2.9369110e-01
 -1.3290482e+00
 -9.0666234e-01
 -2.3986857e+00
 -1.1170465e-01
 -1.3409359e+00
  8.1855524e-01
 -8.3673453e-01
 -3.6236382e-01
  1.3252819e+00
 -1.6896061e+00
  5.2355599e-01
 -1.9896789e-01
  7.1904290e-01
  3.6365431e-02
 -2.4973157e-01
 -1.3680936e+00
  1.8381718e-01
  4.8741587e-02
 -1.5562162e+00
 -1.5418757e-01
  4.7824547e-01
 -1.2252003e+00
 -2.2332552e-01
 -1.6917515e+00
 -8.5118479e-01
 -7.7074748e-01
  2.7488676e-01
 -1.5254606e-01
  3.4144670e-01
 -7.3959070e-01
  8.6680996e-01
  1.3464355e-01
 -1.1610077e-01
  2.2461122e-01
  4.7662652e-01
 -1.3479100e+00
 -4.1722780e-01
 -1.0401305e+00
 -1.7558786e-01
  3.1891024e-01
 -4.0448427e-01
  4.6390301e-01
  5.2763098e-01
 -1.1864819e-01
  4.6461776e-01
 -4.3872112e-01
 -2.6787150e-01
  9.1965687e-01
 -7.1527427e-01
  1.2796729e+00
  4.6047387e-01
  6.2158495e-02
  8.3417386e-01
  8.2137007e-01
  1.6482984e+00
  1.0695044e+00
 -1.8160053e-01
 -7.5139713e-01
 -1.2503797e-01
 -2.3224390e-01
 -7.8525072e-01
  1.0024579e+00
  1.1559169e+00
 -2.2161599e-01
  3.5643259e-01
 -1.1800110e+00
 -5.9312207e-01
 -1.3759313e+00
 -1.6213639e-02
 -2.2479954e+00
  5.2664393e-01
  3.7423739e-01
 -1.5378866e+00
 -1.4253455e-01
 -9.7635072e-01
 -9.6356940e-01
  3.4983504e-01
 -7.2360885e-01
  3.8573956e-01
  3.3004719e-03
 -1.5154169e+00
 -5.8937643e-02
 -2.7919763e-01
 -8.0014855e-02
 -1.5461145e-02
  5.8917636e-01
  2.8320235e-01
 -6.0378981e-01
  3.9720684e-01
  2.8375244e-01
 -5.8474326e-01
 -4.9268657e-01
 -1.4566581e-02
 -1.1090938e-01
 -9.0729266e-01
 -1.0978464e+00
  7.6206073e-02
  7.0458376e-01
 -1.3436408e+00
  1.5677847e+00
 -5.9171557e-01
 -7.8314126e-01
 -1.0496584e-01
  3.1800956e-01
  8.5309994e-01
  1.6435850e-01
 -3.3540538e-01
 -2.2515923e-01
  3.8958246e-01
 -1.2240398e+00
 -6.8527855e-02
  6.8810469e-01
  2.7694246e-01
  1.3395132e+00
  1.0337884e+00
 -1.6546649e+00
  3.9902737e+00
 -4.6120244e-01
  3.0074198e+00
 -8.8313878e-01
 -9.0817142e-01
 -5.9857631e-01
 -2.3592150e-01
 -8.2503349e-01
  1.0160977e+00
  9.0987188e-01
 -5.9838110e-01
 -1.0853703e-01
 -1.6244605e+00
  9.2692631e-01
  1.8707687e-01
  8.9351550e-02
  2.1628614e-03
  1.4863521e+00
 -4.7446978e-01
 -1.7306006e+00
  1.5993631e+00
 -9.2865688e-01
  1.2886447e-01
 -1.1812074e-01
  4.4315654e-01
  3.2285279e-01
 -1.5910651e-01
  1.6410647e-01
  1.7305590e-01
  2.0977767e-01
 -3.6226299e-01
  4.9193823e-01
 -1.3744717e+00
 -2.5920582e-01
  3.0861810e-01
 -4.5426109e-01
 -6.5444708e-02
  1.3550751e+00
 -1.8665898e+00
 -3.6899549e-01
  8.2738906e-01
 -2.1787522e-02
  2.3671900e-01
  1.2590669e+00
 -1.8408772e-01
 -9.4816262e-01
 -2.5022069e-01
 -4.2674330e-01
  1.2896744e+00
  2.6869470e-01
  2.0567198e+00
  8.2913905e-01
 -7.4718952e-02
 -1.2263928e-01
  1.3167755e-01
 -1.2233332e+00
  4.1199604e-01
 -1.8211595e+00
 -4.5387268e-02
  7.0514476e-01
 -1.1667873e+00
 -1.8979391e-01
  1.4772989e-01
 -1.9253930e-01
 -6.8381017e-01
 -6.0649502e-01
  4.3268073e-02
  3.6141258e-01
  2.1498781e-01
 -5.9285045e-01
  5.7061905e-01
 -3.4793773e-01
  9.1159731e-01
  6.1360669e-01
  7.9239719e-03
 -1.8454520e+00
  4.0242386e-01
  9.3418878e-01
 -2.6951673e-02
  4.1434318e-01
  1.2368103e+00
 -9.2974901e-01
 -6.5403050e-01
  1.6119907e+00
 -6.4153504e-03
  4.0280151e-01
 -1.0670278e+00
 -6.8733501e-01
  1.1610653e+00
 -8.2172871e-01
 -7.3160702e-01
 -9.7289450e-02
 -1.8318455e-01
 -7.3506433e-01
 -1.6063545e+00
 -8.4406650e-01
 -4.4167396e-01
 -7.5715113e-01
  6.5811598e-01
 -2.6850116e-01
 -1.7302995e+00
  1.2384760e+00
 -1.1020999e+00
 -1.0142221e+00
  4.7853842e-01
 -3.8097195e-02
  1.3937886e-01
  9.0584761e-01
 -4.5369674e-02
 -2.2123632e-01
 -3.4340986e-03
 -2.0980840e+00
 -6.2177401e-02
 -2.5023048e+00
 -3.8712522e-01
  6.0927141e-01
 -1.1269983e+00
  1.6506565e-01
 -1.6578211e+00
  1.5749441e+00
 -1.8858054e+00
 -3.7576178e-01
  5.7649159e-01
  2.9620579e-01
 -5.7807994e-01
 -1.0301168e-01
 -8.0692552e-02
  4.4677660e-01
  1.1471928e+00
  6.0917772e-02
 -1.2261872e-02
  7.7972615e-01
 -2.9551414e-01
 -9.2786536e-02
 -3.4428620e-01
  1.3325299e+00
 -1.4464907e-01
 -1.0440985e+00
 -3.4286720e-01
 -2.0052497e+00
 -1.5502920e-02
  1.3780824e+00
 -1.0323746e+00
  1.1987029e+00
 -8.3503574e-01
 -4.0213940e-01
  9.5452833e-01
  7.8257734e-01
 -4.5248577e-01
 -2.4332662e-01
  3.6602125e-01
 -2.5811470e-01
  8.5821323e-02
  1.2999048e+00
  1.1058918e-01
  8.2189286e-01
  9.2924839e-01
  2.6054278e-01
 -2.3487426e-01
  8.6597532e-01
 -5.8554960e-03
  4.5859832e-01
  1.3637277e-02
  2.0070677e+00
  4.5714590e-01
  8.0341709e-01
  2.9803258e-01
 -6.0135484e-01
 -4.7086167e-01
 -5.6608123e-01
  1.4669403e+00
  1.1502267e-01
  1.4234582e-01
  1.7441805e-01
  4.9775416e-01
 -4.6869403e-01
  8.9928740e-01
 -7.1447277e-01
  3.6590955e-01
  6.8204844e-01
 -8.6081707e-01
 -1.1243358e+00
  1.6191201e-01
 -2.9815516e-01
 -3.6153504e-01
 -1.3152660e-01
 -1.3657068e+00
 -1.7878816e+00
 -1.7341113e+00
 -1.7499272e+00
  1.7711715e+00
  1.0516492e+00
 -1.6781030e+00
 -1.5438164e+00
  2.1565573e+00
  1.1073189e+00
  1.7474498e+00
 -5.8747071e-01
 -6.5901071e-01
  4.4831452e-01
  2.1614797e-01
  2.8081360e-01
 -9.7956419e-01
 -2.4183832e-02
 -5.1980537e-01
 -7.7029109e-02
 -2.3991487e+00
 -1.0201409e-01
 -2.1847998e-01
  6.5720744e-02
 -1.4592835e-01
  5.8207083e-01
 -3.8880774e-01
  6.6218543e-01
  3.8338703e-01
  4.1054025e-01
 -1.7058686e+00
 -6.0157531e-01
  1.1399903e+00
 -1.6295347e-02
 -2.5199166e-01
  5.0040659e-02
  4.8344350e-01
 -1.1338819e+00
 -2.8425212e+00
  1.2253927e+00
  4.5692900e-01
 -2.0902196e-01
  1.4289234e+00
 -9.3014252e-01
  1.2765559e+00
  1.6723431e+00
  3.7509531e-01
  1.9698555e+00
  7.7570999e-01
 -6.7928523e-01
 -3.8525808e-01
  8.6171582e-02
  5.8194423e-01
 -7.4322176e-01
 -2.4097575e-01
 -9.2643195e-01
  2.8774371e+00
 -6.9428468e-01
  7.5375058e-02
  8.9259022e-01
  1.3143997e-01
  1.0607946e+00
 -7.0811808e-01
 -1.9358586e+00
  8.1960946e-02
  5.7360291e-02
  7.1910012e-01
 -1.6776475e-01
  3.0005902e-01
 -4.1906193e-01
 -2.6208511e-01
  3.7851334e-01
  3.8510987e-01
  3.4312606e-01
  2.2996447e+00
 -1.1900798e-01
 -1.2899486e+00
  8.6694586e-01
  1.2145875e-01
 -1.6885291e+00
  1.0015057e+00
  3.7648208e-03
  6.3363171e-01
 -1.1669318e-01
 -5.4968223e-02
 -6.0998720e-01
  8.4857486e-02
  2.0538984e-01
  9.1624171e-01
  2.9396003e-01
 -1.1546533e+00
  2.9548600e-01
  2.7952296e-01
 -2.0905940e-01
 -5.3227220e-02
 -7.3634619e-01
  1.1002370e-01
 -5.0725162e-01
 -9.4298679e-01
  9.5519111e-02
 -1.2522589e-01
  9.3043745e-02
 -6.1892879e-01
  4.4556877e-01
  1.6141798e-02
 -1.9480042e+00
 -7.0548989e-02
 -6.9656652e-01
 -8.1547570e-01
 -1.2868159e-01
  8.5870272e-01
  2.6181769e-01
 -9.3200400e-02
 -1.3563577e+00
  4.5991907e-01
 -2.1891654e+00
 -1.4301175e+00
 -4.4679213e-02
  1.4837284e-01
 -4.2054704e-01
  4.4276130e-01
  6.7275661e-01
  1.7072330e+00
 -1.1035113e+00
  6.1835873e-01
 -5.3074265e-01
  7.8656125e-01
 -1.4606516e-01
 -8.4729195e-02
  1.7219522e+00
 -3.5348788e-01
  1.0160655e+00
  4.6896446e-02
 -1.4573340e-01
  1.8665890e+00
 -4.5447838e-01
 -1.2658150e-01
  5.5596435e-01
  1.8775094e-01
 -5.0458789e-01
  3.7805587e-01
  2.0167451e-02
  7.5218394e-02
 -2.6637539e-01
 -8.6088985e-01
 -3.4936127e-01
  3.7733096e-01
 -3.0441004e-01
  6.3157278e-01
 -5.7404313e-02
  1.1153181e+00
 -5.8149710e-02
  4.1893986e-01
  1.5758911e-01
  1.7790455e+00
 -5.8093965e-03
  1.0641323e-02
 -5.5431497e-01
  1.9705784e-01
  5.6798518e-01
  2.8049606e-01
  6.3006508e-01
 -9.0037370e-01
  1.8140326e-01
  9.4913423e-02
 -8.4074819e-01
  1.0010481e+00
 -3.7547997e-01
  2.1181483e+00
  1.1011087e+00
  1.2566951e-01
 -1.2405217e-01
 -5.6305271e-01
 -2.1100281e-01
 -5.3079784e-01
  9.3293643e-01
  3.2062274e-03
  3.8403405e-03
 -4.1389000e-01
 -9.6243046e-02
  2.0957321e-01
  1.4826529e-01
  1.0030721e+00
 -1.5865366e+00
 -4.4520143e-01
  1.9355676e-01
  1.1542666e+00
  3.6483559e-01
  1.5641532e+00
  3.0844942e-01
  2.3203123e-02
  4.7545952e-01
  5.2224481e-01
  4.8161048e-01
  3.9496347e-02
  2.5579619e-01
 -1.6178961e+00
  1.7806385e-01
 -8.7913567e-01
  4.0012929e-01
  8.7676060e-01
 -3.5240605e-01
 -4.5911994e-02
  1.1445654e-01
  3.4948489e-01
  9.3784446e-01
  1.2281501e+00
 -6.5692359e-01
  5.1822889e-01
 -1.0924312e+00
  6.2800878e-01
  2.5991224e-02
 -5.4101545e-01
  1.0219751e-01
 -1.3540314e-01
 -2.8695893e-01
 -2.2585754e-01
  2.2687392e-01
 -7.0778483e-01
  2.6859060e-01
 -8.2465911e-01
 -4.0711415e-01
 -1.5537930e+00
  8.1264359e-01
 -8.6342084e-01
 -1.0644169e-01
  1.2134600e-01
  7.0115906e-01
 -5.1146597e-01
  5.7556003e-02
  5.4509997e-01
 -3.9693975e-01
 -3.9621574e-01
  1.9192042e+00
  9.6267238e-02
 -2.9248884e-01
  3.0566959e+00
 -4.2049882e-01
 -1.1786267e+00
 -1.9291608e+00
 -6.1524040e-01
 -2.5551736e-01
 -1.2112201e+00
  6.4277756e-01
  9.7038800e-01
 -1.5980871e+00
  8.7197101e-01
 -1.0261104e+00
  5.2385744e-02
 -4.8139602e-01
  9.0300971e-01
  1.9937127e+00
 -2.7686873e-01
  5.9590399e-01
  2.6405799e+00
 -6.9589835e-01
  1.0392353e-02
  3.7075642e-01
 -6.8022573e-01
  4.2095989e-01
  9.1050893e-01
  1.2279704e+00
 -7.2294682e-01
  6.7401648e-01
 -5.3283310e-01
 -8.9446664e-01
  9.5631456e-01
 -4.7156283e-01
 -6.2053490e-01
  2.6325674e+00
 -7.7274477e-01
 -1.3518165e+00
 -7.4016839e-01
  1.9382016e-01
  5.2408493e-01
  2.3324308e-01
  3.3704755e-01
 -1.8882078e+00
  6.3407767e-01
  4.1152176e-01
  2.1833247e-01
 -5.8416641e-01
 -7.3528832e-01
 -5.6673741e-01
  1.1048151e+00
  6.8200797e-01
 -1.3332579e+00
 -1.0317456e-01
 -1.3366514e-01
 -1.1549959e+00
  7.6722217e-01
 -4.3405142e-02
 -2.6829609e-01
 -4.6241677e-01
 -1.3529485e+00
  2.5978571e-01
 -7.9106814e-01
  4.9618614e-01
 -6.5666455e-01
 -1.6057806e-01
  1.3940591e-01
 -1.3620768e-01
  5.7061428e-01
  1.1852902e+00
 -7.1553826e-02
 -1.4395891e-01
  1.5006406e+00
 -1.6225313e-01
  4.1298288e-01
 -3.5326990e-01
 -5.9214091e-01
  1.2100432e+00
  2.5555730e-01
  1.4693336e+00
 -3.6575463e-01
 -6.1516756e-01
  1.5094719e+00
 -2.5580708e-02
  2.1334276e-01
  6.0116649e-01
 -9.8311710e-01
 -1.5243530e+00
  8.5164970e-01
 -1.1635311e+00
  4.0563200e-02
  2.1388507e+00
  7.7681935e-01
 -8.5305446e-01
  1.0570807e+00
 -4.8960382e-01
 -9.5653288e-02
 -5.2425152e-01
  1.5058962e+00
  6.4746326e-01
  5.3418517e-02
  2.0433121e+00
  1.4784827e+00
 -1.0254478e+00
  9.8508310e-01
 -9.5256907e-01
 -8.7865239e-01
 -3.3061124e-02
  1.1172751e+00
 -2.3608485e-01
  6.5722817e-01
  1.3192962e+00
  3.7141648e-01
  4.2177927e-01
 -1.2774233e+00
 -7.5581765e-01
  9.0150759e-02
 -8.1694740e-01
 -3.1268999e-01
  1.0793312e-02
 -4.4568952e-02
 -2.4903686e-01
  2.1174472e-02
 -5.3718653e-02
  7.6010817e-01
 -1.3246990e+00
 -1.0560837e+00
 -3.0177144e-02
  9.0430260e-01
 -1.1983783e+00
  1.5094850e+00
  2.3899041e-01
 -8.9202839e-01
 -4.8907477e-01
  2.6608968e-01
  7.8882021e-01
 -2.4569315e-01
 -1.7053197e-01
  3.9321072e-02
  4.9317643e-01
 -5.6436408e-01
  6.1232280e-02
  1.8918481e+00
 -1.1047769e+00
 -6.1579663e-02
 -8.7715256e-01
 -3.0092680e-01
  8.0272359e-01
 -3.7997285e-01
  5.2806419e-01
  1.8634586e+00
 -5.6556731e-01
  1.3940574e+00
  7.4212067e-03
 -5.2934480e-01
  2.3789926e+00
  1.2641053e+00
  1.2541766e+00
  2.2303204e-01
 -7.7264893e-01
 -1.1491257e-01
  3.0868044e-01
 -1.2950528e-01
  2.6902905e-01
  1.3935494e+00
  2.0780712e-01
 -9.6224123e-01
 -6.2872624e-01
  5.0484765e-01
 -1.2479947e+00
  2.2931578e+00
  1.3145743e-01
 -4.7089195e-01
  1.4809021e-01
  2.9994172e-01
 -8.9078355e-01
  4.5456421e-01
 -7.5168592e-01
  1.5456316e-01
  8.7033398e-02
 -5.9046859e-01
 -6.7285106e-02
 -2.5854197e-01
  6.4384162e-02
  2.6132396e-01
 -1.3373945e+00
  7.9521894e-01
 -1.3790989e+00
 -1.4294754e-01
 -9.9608278e-01
  1.0255491e-01
  2.5616470e-01
  3.9784366e-01
  7.2918750e-02
 -3.1672314e-01
 -4.7421092e-01
  2.0207837e+00
 -4.4966313e-01
 -6.2078810e-01
 -1.0837986e+00
 -7.7732660e-02
  1.1634725e+00
 -4.4631270e-01
  1.1853843e+00
  2.4103140e-04
  2.2254325e-02
 -2.6472417e-01
 -2.1154550e-01
  1.1237181e-01
  5.9728686e-02
  2.4330600e-01
  7.4173790e-01
  4.3114353e-02
  1.4771873e+00
  3.3628276e-01
  3.0539778e-01
  2.2825164e-01
  5.7925320e-01
  9.8660076e-01
  7.5493872e-01
 -2.6437275e+00
  7.5201726e-01
  8.0050744e-02
 -9.6225031e-02
  1.5979293e-01
  7.2861856e-01
 -1.2182399e+00
  2.2224655e-02
 -3.1775579e-01
  1.0021778e+00
 -9.6544981e-01
 -9.8559207e-01
  1.6102349e+00
 -4.7050241e-02
  3.4814723e-02
 -4.4504634e-01
  6.6836298e-01
 -4.8165947e-02
  1.2960021e-01
 -1.9624898e+00
 -4.9798009e-01
  1.6717342e-01
  4.7718003e-01
 -3.2560483e-01
 -9.1756982e-01
 -8.0942556e-02
 -7.5999796e-01
 -1.0635179e-01
 -1.2210838e+00
 -2.5685410e+00
  1.8190155e+00
 -1.9121641e+00
 -8.9988910e-02
  8.0524987e-01
 -1.3400903e+00
  1.0211949e+00
 -7.9308861e-01
  2.0963520e-01
 -5.2905536e-01
  9.2398506e-01
 -1.4807632e+00
  1.6220819e+00
 -1.3361137e-01
  1.0024772e+00
  5.6935745e-01
 -6.5486245e-02
  1.2219017e+00
 -1.4038488e-01
  3.2409775e-01
  7.0731884e-01
 -7.3989016e-01
  9.7416174e-01
  5.1509666e-01
  1.1904351e+00
  1.8157086e-01
 -9.5125997e-01
 -1.1928067e+00
  2.4602737e+00
 -7.3900974e-01
  6.8281162e-01
  9.1814917e-01
  2.1933329e+00
  6.9253218e-01
  9.1851282e-01
 -5.2152479e-01
  7.9823899e-01
  2.0553231e+00
 -8.8167584e-01
 -3.7327085e-02
 -8.4277296e-01
  3.5604134e-01
  4.5977941e-01
 -6.8230182e-01
  1.4869264e+00
  3.3592045e-01
  1.1703718e+00
 -1.3609041e+00
  1.6245397e+00
 -2.4775105e+00
  5.4503661e-01
 -2.8467865e+00
 -2.6267791e-02
 -1.2499317e+00
  1.0088544e-01
 -2.6182494e+00
 -2.6587626e-02
  3.8890284e-01
  3.6945585e-02
 -3.9842349e-02
  1.8739966e-01
  7.7372962e-01
 -3.3201978e-01
  9.5642149e-01
  3.5779905e-01
 -9.0882637e-02
 -1.1404762e+00
  2.9161448e-02
  1.9778955e-01
 -5.3171533e-01
  2.8832567e-01
 -3.6177196e-02
  5.5021179e-01
  4.5493122e-02
 -6.5890104e-02
 -3.4475580e-01
  1.0229965e-01
 -6.8361861e-01
 -3.1868950e-01
 -2.3468041e-01
 -5.3663665e-01
 -5.6422079e-01
 -2.0960328e-01
 -1.2107757e+00
 -2.5165439e-02
 -8.1287599e-01
  2.9303566e-01
 -6.3452083e-01
  8.3414906e-01
 -1.1066038e-01
  1.4060374e-01
  6.3925344e-01
  8.6295176e-03
  1.1162922e+00
  1.6974759e+00
 -1.5156497e+00
  2.3508107e-02
 -3.3339018e-01
 -5.5955613e-01
  6.5165263e-01
 -2.0126924e-01
 -1.6583859e+00
  1.2026305e-01
 -2.5205977e+00
  4.9534822e-01
 -6.8044949e-01
 -1.1740559e+00
 -7.0579714e-01
 -1.2766607e+00
  1.6762874e-01
  1.8905158e+00
  8.9798689e-01
  1.0111875e-01
  9.0242392e-01
  6.0769342e-02
  2.0666371e-01
  9.4757691e-02
  9.0001333e-01
 -4.9987596e-01
  6.6223240e-01
  3.6541474e-01
 -2.7914068e-01
  3.2514775e-01
  4.7506702e-01
 -7.6200759e-01
  2.3376963e-01
  1.9159579e-01
  2.6513624e-01
  9.5397606e-02
 -1.9821259e-01
  3.9411271e-01
  7.6613963e-01
  4.0699747e-01
  1.2297343e-01
  4.2333984e-01
  1.7689244e-01
  7.5909019e-01
  2.9300829e-02
 -1.1382318e-01
  2.6205406e-01
  1.0571177e-01
  5.1925170e-01
  6.6280603e-02
 -1.1924783e-01
 -1.3091402e-01
 -1.3053662e+00
 -1.4914638e+00
  9.4936627e-01
 -5.1943284e-01
 -6.8805861e-01
 -3.9505804e-01
  1.9600388e-02
 -3.3871526e-01
 -9.6705949e-01
  8.3652329e-01
  1.8125233e-01
  6.6325033e-01
  1.3962733e+00
  5.5634612e-03
  8.0422366e-01
  1.7819338e-01
  3.5558769e-01
  5.8778860e-02
 -4.2090344e-01
  1.5946166e-01
  1.4884714e+00
 -9.5903265e-01
 -5.6419247e-01
  4.0072337e-01
  2.3119428e+00
 -6.6716576e-01
 -8.6966030e-02
  1.1459678e-01
 -4.2310718e-01
 -1.1647015e-01
  8.8245457e-01
 -2.4987434e-01
 -1.6158007e+00
  2.6921245e-01
  2.0093782e-04
  1.0606468e+00
  1.7262790e-01
 -1.4380877e-01
 -4.3683282e-01
 -3.6615118e-01
 -2.3489910e-01
  9.3201619e-01
 -2.0084314e+00
 -4.5894739e-01
  1.4108270e+00
  9.1755852e-02
  1.1555659e-01
 -1.1718799e+00
 -1.8011911e-01
 -5.6254447e-01
  2.4014324e-01
 -8.5162652e-01
 -1.3403501e-01
 -4.8735350e-01
 -1.4251043e+00
 -5.4707491e-01
  7.5621307e-01
  3.5321173e-01
  1.1003034e+00
  3.2034144e-01
  1.3775767e+00
  1.8744289e-03
 -2.9367805e-01
 -7.6570487e-01
 -7.4008900e-01
  3.5937646e-01
 -2.2824807e-02
  6.3061243e-01
  1.7710918e+00
  5.8400434e-01
  1.7609428e+00
 -3.9338693e-01
 -9.9427566e-02
 -7.0133156e-01
  1.2182609e+00
 -1.1356945e+00
  1.0826823e+00
  1.4383340e+00
  4.3420884e-01
  2.2082607e-01
 -1.2396302e+00
  2.6297358e-01
 -8.4832937e-01
  1.1420416e-01
  2.0156667e-01
 -8.5461855e-01
  1.2630702e+00
 -9.5823783e-01
 -1.9080358e+00
 -7.9417819e-01
 -3.6722198e-01
  7.7436060e-01
 -7.7503347e-01
  1.0244485e+00
  2.3581079e-01
  6.1539459e-01
 -1.7631925e+00
 -2.0776518e-01
 -9.8366790e-02
 -5.2043602e-02
 -1.2780466e+00
  3.8881531e-01
  1.5632555e-01
  5.9967393e-01
 -1.1135391e+00
 -1.7243470e+00
 -5.7221544e-01
  1.2293575e+00
  1.5195680e+00
  1.0324296e+00
 -1.4554708e+00
 -1.5571839e+00
  4.3511409e-01
 -2.3045411e-02
  1.6922901e+00
  1.2077977e-01
 -2.0645189e+00
 -4.7081840e-01
  7.8677905e-01
 -4.7291845e-01
 -1.6035429e-01
  1.2023568e-01
  1.5366287e+00
 -6.5964371e-01
 -6.4596134e-01
 -1.5378519e+00
 -1.2758920e-01
  6.8624049e-01
  1.4591694e+00
  3.2051671e-01
  1.2994044e+00
  5.9589371e-02
  8.2792711e-01
 -1.1580547e+00
  3.0470753e-01
  2.4078441e+00
  6.5761650e-01
  2.1138832e-01
  8.6162373e-02
 -8.4882194e-01
  3.8641009e-01
 -5.5022854e-01
 -6.0700858e-01
 -7.0992792e-01
 -8.9980148e-02
 -1.2030560e+00
  1.0042970e+00
  7.2891480e-01
 -5.0246155e-01
 -1.3026818e+00
  1.8053351e-02
  1.1005030e-01
 -5.5441457e-01
 -3.2351591e-02
 -9.9719308e-02
  5.2100772e-01
  1.2823794e+00
 -1.2846847e+00
 -1.7450612e+00
  8.3591461e-02
  2.4099572e-01
 -4.5973584e-02
  6.0631245e-01
 -2.0967741e+00
 -2.8963634e-01
 -5.4852784e-01
 -3.0293068e-01
 -5.7606286e-01
  9.5744473e-01
 -9.2495286e-01
 -7.6048243e-01
 -4.9267685e-01
  1.6854827e-01
  2.2826848e+00
  5.7032847e-01
  3.7229535e-01
 -7.8854072e-01
 -9.5013279e-01
  6.0608643e-01
 -2.1332173e-04
  1.4503077e+00
  2.2757030e-01
  2.2051971e+00
  2.8247279e-01
 -8.0577523e-01
 -3.9802060e-01
 -7.4794549e-01
 -1.3248140e-02
  7.3167902e-01
 -3.3323541e-01
 -1.8206969e+00
 -2.0268774e-02
  4.4892418e-01
 -8.6328709e-01
  5.1990741e-01
 -3.6437026e-01
 -2.0695966e-01
  9.1454387e-02
  1.0686716e-01
  1.2086499e+00
  8.1166856e-02
  4.9518633e-01
  8.7684608e-01
  2.6146027e-01
  1.1743200e-02
 -7.1760517e-01
  3.3823428e-01
 -1.3193122e-01
  1.1448750e+00
 -4.1094918e+00
 -3.5079589e-01
 -6.9177651e-01
 -4.4802272e-01
  7.8400123e-01
 -8.5057604e-01
 -4.5993683e-01
  6.1966259e-02
  3.7494591e-01
 -1.4511855e+00
 -1.7868140e-01
  1.3810319e+00
  2.1335056e-02
  8.6790061e-01
 -4.0457342e-03
  1.9989890e-01
  1.8849105e-01
 -8.1871647e-01
  3.1366047e-01
  3.1191090e-02
 -2.3770900e-01
  1.0049485e+00
  3.1682816e-01
 -5.1012427e-01
 -2.2419896e+00
 -3.3101916e-01
  9.5390475e-01
 -3.3712050e-01
 -2.2113544e-01
  1.9974554e-01
 -1.0583467e+00
 -2.8024843e-01
  3.7543559e-01
 -7.3241788e-01
 -3.9477131e-01
  1.6423784e-01
  1.9602610e-01
  3.8470719e-02
  1.4264189e-01
  2.7249197e-02
  2.0403799e-01
  1.1609389e+00
 -1.2820728e+00
  3.0985203e-01
 -3.1216258e-01
 -1.5664960e-01
  1.0280244e-01
 -5.1271844e-01
  6.5102762e-01
  1.7029613e-01
 -1.0610425e-01
  9.3255885e-02
 -3.9131457e-01
  8.0912203e-01
 -1.7024444e-01
 -2.1875471e-01
  6.3773938e-02
 -9.5026779e-01
  8.1538689e-01
 -3.6102962e-01
 -1.3966078e+00
  9.7737205e-01
  7.5940055e-01
  2.5121430e-01
 -2.3252950e+00
  7.2679269e-01
  8.7105590e-01
  3.8015000e-03
  2.3067705e-01
 -2.7574718e-01
  6.1561817e-01
 -6.4353213e-02
 -1.1894398e+00
 -1.2307490e-03
  5.2543169e-01
  2.4231125e-01
 -1.0614558e-01
  7.1767497e-01
  4.3514428e-01
 -6.4741886e-01
 -2.0202525e-01
  2.8323469e-01
 -7.7518284e-01
  2.6674722e-03
  1.1406584e+00
  2.1373804e-03
 -1.2732558e+00
  1.0316752e+00
  6.0983711e-01
  1.5254967e-01
  2.9229483e-01
  8.0604422e-01
 -7.2880393e-01
  1.4254341e+00
  1.1302521e+00
 -1.1448808e+00
 -3.6010700e-01
 -4.5872054e-01
  1.2489667e+00
  9.2073828e-01
  3.3364937e-01
 -6.9170111e-01
 -8.8832945e-01
 -1.1322609e-01
  1.4286752e-01
  1.1649776e+00
 -2.6690102e-01
 -4.6425724e-01
  2.7195874e-01
  2.8096747e-01
  4.1829642e-02
 -1.2963912e+00
 -9.0682977e-01
  1.7411698e-01
 -2.9447839e-02
  1.3095969e+00
  5.3373355e-01
  1.4468486e+00
  2.1861697e-02
 -1.5394263e+00
  4.3149957e-01
 -1.2112621e+00
  2.4012300e-01
 -4.3513503e-02
 -6.0892951e-01
  5.3673309e-01
  2.5635409e-01
  5.7491738e-01
 -1.0753030e+00
 -7.8719878e-01
  2.3464959e+00
  8.2115263e-02
 -2.0778415e+00
  6.7506784e-01
  8.2564406e-02
  5.5319514e-02
 -8.7729537e-01
  2.7112153e-01
 -5.5906278e-01
 -1.7189384e-01
 -1.9295157e-01
 -8.2945257e-01
 -7.2909355e-02
 -3.1147736e-01
  4.8955600e-03
 -5.3038400e-01
  1.2880986e+00
 -6.3145109e-03
  3.2594746e-01
  8.4566396e-01
 -3.3671740e-01
  8.1056625e-01
  1.2552148e+00
  3.7591610e-02
 -6.2364215e-01
 -8.8187522e-01
  4.3784323e-01
  5.1622128e-01
  3.2715017e-01
 -4.0043259e-01
 -3.7187859e-02
 -1.3725622e+00
 -3.0199859e-01
 -1.2247859e+00
 -1.3405490e+00
 -7.7781570e-01
 -9.4426841e-02
  6.9794245e-02
  2.1291721e+00
 -6.3562316e-01
 -1.6100216e+00
  1.2088731e-02
  1.2183465e+00
  1.0333611e+00
  3.2027087e-01
 -4.1939378e-01
 -1.4904121e-01
 -6.0656238e-01
  7.9806820e-02
 -1.2051132e+00
  4.4214702e-01
  1.3667521e+00
  4.1945258e-01
  1.8057707e-01
  2.3855703e-01
  4.3693942e-01
 -7.6518482e-01
 -4.9937573e-01
  1.1369013e-01
 -4.4672987e-01
 -2.6208368e-01
  7.7598631e-01
  6.7678519e-02
 -9.5673250e-03
  2.0082566e-01
 -5.0472181e-02
 -2.2804882e-02
 -1.4381990e+00
  1.1414040e+00
 -2.9099774e-01
 -5.1854730e-01
 -3.9606491e-01
 -7.9895508e-01
  1.9653353e-01
 -4.0132352e-03
  4.4085244e-03
 -4.9012554e-01
  5.3184293e-02
  9.8056197e-01
  1.9371408e+00
 -8.3879966e-01
 -3.6373153e-01
 -2.8514400e-01
 -6.4302093e-01
 -3.8713676e-01
  7.0047891e-01
 -7.3939465e-02
  1.0398206e+00
  9.1150254e-01
  1.3023077e-01
 -4.2497456e-01
 -3.8739018e-02
 -6.8179570e-02
 -8.4807682e-01
  2.2446728e+00
  3.1708753e-01
 -1.6159092e+00
  1.0333307e+00
 -5.0486255e-01
 -9.2176878e-01
 -1.2284793e+00
  2.6395696e-01
 -3.5864446e-01
  4.2357397e-01
 -1.1141751e+00
  5.5717045e-01
 -3.2651243e-03
 -2.0953557e+00
  9.5666713e-01
 -1.2932043e-01
 -5.3390229e-01
  2.4758813e-01
 -3.2282457e-02
 -5.2592098e-03
 -3.4297556e-01
  7.1308565e-01
 -1.5463036e+00
  4.0935564e-01
 -1.9839560e-03
 -5.0365079e-02
 -1.4659131e-01
 -1.2919183e+00
 -6.2073582e-01
  1.2105598e+00
 -1.6585808e+00
  6.9660318e-01
 -3.5472822e-01
  1.8038264e-01
 -3.3790156e-01
 -5.3495854e-01
  4.9755427e-01
 -3.4595293e-01
  5.8231676e-01
 -2.9799858e-01
  8.5475075e-01
 -3.1669179e-01
  1.5082130e+00
  1.7382184e-01
 -1.4373201e+00
  9.0212709e-01
 -1.5889215e-01
 -4.3918896e-02
  8.1548280e-01
 -7.6180899e-01
  9.6614748e-01
 -7.3589283e-01
  4.9266425e-01
 -3.8968933e-01
  2.3107746e-01
  7.2399043e-02
  5.8329326e-01
  4.0996429e-01
 -5.3558153e-01
  9.3912065e-02
 -9.2879340e-02
  4.9009368e-01
 -4.2931546e-02
  1.5880896e-01
 -2.3240516e-02
  6.4792407e-01
 -4.4152483e-01
  8.8099450e-02
  9.7503990e-01
  5.1635110e-01
  1.6602789e-01
 -1.0183440e+00
 -7.8406012e-01
 -2.3106432e+00
 -1.6630188e+00
  7.9250932e-02
  1.7109587e-04
 -6.4466220e-01
 -2.1189950e+00
  1.1238890e+00
 -8.1975245e-01
  1.0332470e+00
 -1.6777867e+00
  1.1505793e+00
  7.1177161e-01
 -7.7579290e-01
  2.8381771e-01
  1.3291944e+00
  1.5956792e+00
 -1.0537934e+00
 -1.9821231e-01
  1.6034089e+00
 -8.2072741e-01
  1.3065268e+00
 -8.4957689e-02
  7.7385885e-01
  2.6157340e-01
  2.0387545e-01
  2.4343474e-02
  8.1656295e-01
  5.1853418e-01
 -5.6684870e-01
 -1.0248405e+00
  5.5429995e-01
 -1.4570996e-01
 -1.3385882e+00
 -5.1213962e-01
  6.6621804e-01
 -1.2349532e-03
 -3.6544231e-01
 -1.3753030e-02
 -1.9287778e+00
 -6.3380784e-01
 -3.6987212e-01
 -4.9168620e-01
  1.2087522e+00
  1.6230729e-01
  3.9695531e-02
  5.2522486e-01
 -1.8800978e-01
 -4.1761473e-01
  1.1218325e+00
 -1.2130337e+00
  1.2234895e+00
  3.6180109e-01
 -4.2350617e-01
 -3.6361083e-01
 -1.3932555e+00
 -6.5703911e-01
 -7.4036956e-02
 -6.4454240e-01
  1.0272809e+00
 -2.1201102e-01
 -1.7998741e+00
 -9.4114971e-01
 -1.4944628e+00
  2.9711306e-01
  2.6900622e-01
 -3.4631300e-01
  9.0010577e-01
 -1.9211814e+00
  2.3002827e+00
  1.3626891e-01
  6.2486421e-02
 -1.4334457e+00
  1.1705141e+00
 -2.5571448e-01
  1.6881962e+00
  1.9017093e-01
 -8.8901210e-01
  4.2102721e-01
  4.0056646e-01
 -2.0512590e-01
  2.8746930e-01
  1.7944884e-02
  3.2395303e-01
  1.6820630e-01
  3.9809868e-02
 -4.6294410e-02
 -7.9137065e-02
 -3.7720948e-01
  5.2552158e-01
 -2.6319858e-02
  1.4152925e+00
  1.7275179e-02
  9.5030658e-02
 -1.5851639e-01
  8.6251581e-01
 -1.8583747e+00
  1.6932830e-01
  9.8912440e-02
 -2.0323963e-01
 -3.6612189e-01
  2.6842836e-01
 -1.7376639e-01
 -2.1633416e-01
 -9.5901221e-02
  3.6112881e-01
  6.4432096e-01
 -3.2283492e-02
 -2.3232239e-01
  2.7173737e-01
  6.8070811e-01
 -2.1362871e-01
  1.4832814e+00
 -7.9161412e-01
 -6.5647143e-01
 -9.4620246e-01
  1.2901037e+00
 -7.7301389e-01
 -6.9301075e-01
 -2.2333287e-01
  7.9743043e-02
 -7.6528955e-01
  1.4034097e+00
 -2.8049771e-03
  1.5952767e+00
  6.7210078e-01
 -7.1743071e-01
 -2.1133300e-02
  4.0298638e-01
  4.3197975e-02
 -4.5546833e-02
  4.0291277e-01
  2.2020938e-01
  1.1456562e-01
 -6.0417587e-01
 -7.4352622e-02
 -6.6487610e-01
  4.4268540e-01
  5.6580245e-01
 -1.2147740e+00
  3.5871804e-01
  1.2915151e+00
  4.7284746e-01
  2.4325956e-02
 -2.3152676e-01
 -9.9943113e-01
 -1.4034715e-01
 -6.1714768e-01
 -1.1344005e+00
  5.3945667e-01
  1.5204917e+00
  3.4889397e-01
  7.6211560e-01
 -3.8752609e-01
 -1.1736757e+00
 -1.2138830e+00
  2.6808280e-01
 -3.7235782e-01
  1.0340258e+00
  9.3424141e-01
  1.5861259e-01
  6.5004021e-01
  1.3243967e+00
  1.3312875e-01
  4.2964965e-01
  1.7559890e-01
  3.3443350e-01
 -1.8512568e-01
  3.4450594e-02
  1.7690977e-01
  2.6945625e-03
 -7.8982741e-01
  1.1095213e-01
  2.0426087e+00
 -6.5763913e-02
  2.1306865e-01
 -3.1216198e-01
  3.1464409e-02
  2.3559003e+00
 -3.5883802e-01
  4.7618082e-01
  1.7656304e-01
 -1.5875253e-01
  2.8423494e-01
 -1.1226099e+00
 -4.5070449e-01
 -6.2222987e-01
  4.1363794e-01
  8.9985782e-01
 -5.9359354e-01
  2.0346159e-02
  3.9215714e-01
 -5.7495666e-01
  9.3991347e-02
  6.3169621e-02
 -1.1615480e+00
  9.5098317e-01
  1.2038550e-02
  1.7038823e+00
 -1.3324187e-02
 -3.2250768e-01
 -1.6390294e+00
  3.9953065e-01
 -1.7610066e-01
  8.5739702e-01
  5.3000808e-01
  5.9372181e-01
 -5.4219060e-02
  4.8518425e-01
  1.3166782e-01
 -3.7948692e-01
 -8.7694269e-01
 -2.3342049e+00
 -1.3689078e+00
 -2.6465112e-01
 -4.6838030e-01
 -2.4942453e-01
 -9.9877089e-02
  8.9682955e-01
  5.0655317e-01
  1.5391660e+00
  3.8711914e-01
  3.9661962e-01
  5.6388283e-01
  6.3154382e-01
 -2.1032486e+00
  1.6236801e-01
  2.8524587e-01
  1.6751291e-01
  8.7650245e-01
 -4.4850919e-01
 -4.0057185e-01
 -7.3203027e-01
 -4.7519088e-01
  1.3877016e+00
 -3.7463295e-01
 -1.9880351e-01
  2.4268299e-01
  5.9221917e-01
  5.6293976e-01
  1.0620874e+00
  8.2745010e-01
  1.3990785e+00
  2.1668774e-01
 -1.1286352e+00
 -3.3188406e-01
  8.6846220e-01
  4.5625035e-02
 -6.6873503e-01
  1.9503210e+00
 -1.9893362e-03
  4.6482190e-01
  1.2962459e+00
  8.0805726e-02
 -1.4699910e+00
 -2.4170318e+00
 -6.2038645e-02
 -6.6068310e-01
  2.1418335e+00
  9.7000194e-01
 -5.5055458e-02
 -5.5095613e-01
  1.2303159e-01
  1.2618045e-02
  3.8429552e-01
 -1.3432999e+00
  1.2564973e+00
 -2.3812320e+00
  9.5243327e-02
  1.1280611e+00
 -2.2713170e+00
  5.4272823e+00
 -4.0257412e-01
  1.0880651e-01
 -1.2351768e+00
 -6.0479622e-02
 -9.8383892e-01
  1.2724556e+00
  2.8098851e-01
 -1.2271293e+00
 -1.8167292e+00
  3.4610847e-01
  2.9133353e-01
 -2.1091156e-01
 -2.0173396e-01
 -1.9288604e-01
  1.2711103e-01
 -7.1433204e-01
  1.7302546e-01
  1.6073341e+00
 -7.1224028e-01
 -5.5121905e-01
 -2.3990831e-01
 -1.4625840e+00
  1.1614211e+00
  1.9030571e-01
  1.1458473e-01
  1.9448148e-01
 -1.7943619e+00
  3.8558751e-01
  6.5539646e-01
 -2.3349194e-01
  4.6435258e-01
  1.2150334e+00
 -8.7908627e-03
 -2.3185785e-01
 -1.0305107e-01
 -1.4338226e+00
 -5.8746564e-01
  6.4323825e-01
 -4.7963881e-01
  2.3432000e-01
  2.7174938e-01
 -1.6556299e-01
 -3.6785236e-01
 -1.9648442e-01
  9.3535030e-01
 -1.5251157e+00
 -1.0689847e+00
  1.1548460e+00
 -3.3737290e-01
  2.3053059e-01
  1.8705430e+00
  2.3582627e-01
  1.1781669e-01
 -2.6729193e-01
  1.4601588e+00
  5.3658497e-01
  2.7561504e-01
 -2.6791957e-01
 -6.1870825e-01
  9.1003889e-01
 -2.9292348e-01
 -4.3575785e-01
 -4.8854485e-01
  9.4875574e-02
  8.7537307e-01
  1.3022909e+00
  3.1945536e-01
  2.8192198e-01
 -1.3902807e-01
  1.3778058e-01
  1.1003765e-01
 -1.1646434e-01
 -1.1207082e-01
  9.6198928e-01
 -2.0850480e-01
  1.1625475e-01
 -2.3195885e-01
 -2.8041896e-01
  1.6007462e-01
 -2.9669574e-01
  7.3659104e-01
 -1.7245947e-01
 -1.5886395e-01
  9.5164455e-02
  3.4741890e-01
  1.3191236e+00
  1.2203157e+00
 -6.1891478e-01
 -1.6604524e-02
 -1.9896047e+00
  5.9986401e-01
  3.3498165e-01
  6.5470034e-01
  7.0992094e-01
  8.0341727e-01
 -5.7303524e-01
  6.5990682e-03
  1.8227729e+00
 -1.1256213e-01
  1.6209619e-01
 -9.2805517e-01
  1.0526195e-01
 -3.0604175e-01
 -2.0442604e-01
  3.2282779e-01
 -2.4291809e-01
 -8.0992407e-01
 -7.9385169e-02
 -1.0142992e-01
 -1.0157627e+00
  5.9358144e-01
  7.2172534e-01
  5.1985073e-01
  1.1733962e+00
  2.1044073e-01
 -6.8648058e-01
  8.3946288e-01
  4.7734526e-01
 -1.0245801e+00
  4.2071179e-01
  2.4094234e-01
  3.6957469e-02
 -1.2039388e+00
 -2.6405123e-01
 -7.5961906e-01
 -1.1951180e-01
 -7.2391653e-01
 -6.5464866e-01
  2.7883616e-01
 -1.4917029e+00
  4.1879031e-01
 -3.6609414e-01
  1.3567705e-01
 -3.9068457e-02
 -3.1006393e-01
 -8.6365417e-03
 -8.5309684e-01
 -6.6631176e-02
  5.9162891e-01
  8.4850099e-03
 -1.2503485e-03
 -3.6850024e-03
  6.8415101e-03
  4.0965721e-02
 -1.7708063e-02
  1.8098125e-02
 -2.1831938e-03
  1.5057937e-02
  3.3525419e-03
  2.3253141e-02
 -9.6249627e-03
 -2.8238005e-03
 -2.3099212e-02
 -1.9649593e-02
 -4.7080275e-03
 -3.7357444e-03
  1.0413210e-02
 -7.7805644e-01
 -5.0505027e-02
  6.7528654e-03
 -9.0135215e-03
  8.9075777e-04
 -5.2350111e-02
 -3.5571005e-02
 -3.2248970e-02
 -2.8751567e-02
  5.2575397e-01
  1.1706807e-01
 -4.4835511e-01
 -4.0796205e-01
 -1.1674283e+00
 -1.0405896e+00
 -8.5064256e-01
 -1.0352427e+00
 -6.5880734e-01
  1.4931142e+00
  4.2882152e-02
 -7.8445786e-01
  1.3347443e+00
 -6.0665649e-01
  8.6846709e-01
  4.0931413e-01
 -4.4594876e-02
  4.8693293e-01
 -2.5095832e-01
 -9.6763593e-01
 -2.1629214e-01
 -5.6977117e-01
 -7.3835731e-01
  6.4464815e-02
 -1.8089126e-01
 -2.6927286e-01
 -5.1012027e-01
  4.2837099e-03
  2.0248382e-01
  3.0444080e-03
 -4.9342789e-02
  3.2751584e-01
  2.0832837e-01
  1.3167265e-01
  7.8293718e-03
 -2.6022207e-02
  3.5059662e-03
 -1.6629454e-02
  2.9966398e-04
 -9.1546811e-03
  4.7653033e-03
 -5.6190207e-03
 -1.1892878e-02
 -2.3659011e-02
  2.0996103e-02
  1.1400324e+00
  4.4992462e-02
 -4.2251340e-01
  7.0484382e-01
 -6.3448600e-03
 -7.6798004e-01
 -2.5053611e-01
 -4.1828719e-03
 -3.5830345e-02
  4.5254180e-01
  6.6797608e-01
 -1.1592704e+00
  5.4151401e-02
 -3.7603751e-01
  9.3320304e-01
  7.1052223e-01
  2.7339773e-02
 -5.7967526e-01
  3.7462640e-01
  6.2199455e-02
  1.3396132e-01
 -1.1851981e-02
 -2.2558527e-01
  6.9575763e-01
 -4.3636608e-01
 -1.1545397e-01
 -1.5608776e-01
 -4.2400575e-01
  2.4471016e-01
  3.1792527e-01
  1.1863826e-01
  2.2415440e-01
 -2.4183269e-03
 -2.7725641e-02
  3.2743141e-01
  1.9169047e-01
  3.3061522e-01
  2.5305831e-01
  5.0923068e-02
 -1.5094897e-02
  2.4465928e-02
  1.0646988e-01
  4.3843880e-01
  3.2844171e-01
 -7.1198374e-01
 -4.3615749e-01
 -2.5736490e-01
  1.1141779e-01
  1.9762543e-01
 -2.4288139e-01
 -1.2459219e+00
 -1.3833931e-01
  2.2780278e-01
 -4.1524464e-01
  2.5504783e-01
 -2.5340712e-03
 -5.4757077e-02
 -3.5617694e-01
  6.2470078e-01
 -1.6039963e-01
 -2.4801956e-02
 -3.1937319e-01
  5.4851815e-02
 -1.0613486e+00
  1.3272229e-01
 -2.3461133e-02
  2.0171849e-01
  2.4904703e-01
 -7.2127408e-01
  1.1086906e-01
  1.9202210e-01
  3.4396774e-01
 -2.3911649e-03
 -1.4255863e-01
  6.6586679e-01
 -2.4265170e-03
  1.2045106e+00
 -1.3651285e+00
  1.9568099e-01
 -6.4229780e-01
  4.6481449e-02
  7.6475281e-01
 -8.4122473e-01
 -3.5157385e-01
 -1.2429456e+00
  1.2668768e-01
  6.3828140e-01
 -1.1817025e+00
 -1.0064789e+00
  1.8100930e+00
  2.1106066e-01
  9.2355931e-01
  5.9116650e-01
 -4.7667167e-01
  1.3768903e+00
 -1.3985558e-03
  4.3838885e-01
  5.5328727e-01
 -7.3778158e-01
  6.5472835e-01
  2.2907740e-02
 -4.3294215e-04
  3.0358529e-01
 -4.3586698e-01
 -9.7078621e-01
  2.8053379e-01
 -1.1287235e+00
  2.6681818e-02
 -8.1750169e-02
  5.0172031e-01
  9.4335872e-01
  3.0771485e-01
  5.3069327e-02
 -6.7374909e-01
  6.8603964e-03
 -8.5581160e-01
  8.2387561e-01
 -4.4033247e-01
  1.2465818e-01
 -2.0281786e-01
 -9.4962853e-01
  1.1218370e-01
  2.2038364e-01
  6.1535573e-01
 -2.5991276e-01
 -9.8032720e-02
  3.9421998e-02
 -9.4089621e-01
  1.1909220e-01
 -1.1090868e+00
 -3.9593500e-01
 -1.1158577e-01
  3.3965658e-02
  1.6384761e+00
 -4.4091535e-01
  3.8721579e-01
  4.3391980e-02
 -1.1680233e-01
 -1.2881742e+00
 -3.2156023e-01
  8.2445449e-01
 -3.4678996e-01
 -5.9479292e-02
 -9.2331368e-01
  2.3381040e-01
  6.2575167e-01
  1.0632631e+00
 -3.3554703e-01
 -5.3718007e-01
 -9.7219020e-01
  9.3684536e-01
  3.3329532e-01
 -2.4236137e-01
 -1.8724059e-01
  5.4633081e-02
 -1.2395080e-01
  2.9983649e-01
  2.9587889e-02
 -2.8719059e-01
 -3.4373835e-01
 -1.0853541e+00
  1.7923614e-01
  1.8310964e-01
 -3.1257179e-01
 -4.0825576e-01
 -7.4238479e-01
  2.0705187e-01
  5.2053299e-02
 -8.0009429e-03
 -4.7406766e-01
  4.7579259e-02
 -1.1170433e-01
 -8.8300091e-01
  9.4688189e-01
 -5.7625556e-01
  4.6486361e-03
 -7.2643358e-01
 -9.7673982e-02
  1.3047278e-01
  1.6726294e-01
  1.5652159e-01
  1.2927195e-01
  1.4703800e-02
  1.1619459e+00
  1.3165872e-01
 -2.0235841e+00
 -2.7542555e-01
 -1.0527860e+00
  7.8848231e-01
  2.2228377e-02
  9.0150040e-01
 -3.6233419e-01
 -1.1707122e+00
  2.5327143e-01
 -5.5503213e-01
  8.3078289e-01
 -4.1199949e-01
  7.0798613e-02
 -6.0358912e-01
  6.4185433e-02
  8.0418428e-03
  9.2856455e-01
  1.8976009e-01
 -2.8065351e-01
 -6.1885566e-01
 -2.2719717e-01
 -6.5841985e-01
  1.8326443e-01
  8.8545457e-02
  1.3741815e-01
 -2.3507059e-01
 -2.1014571e-02
  3.6682716e-01
  2.3283282e-01
 -1.8612166e-01
 -1.3814838e-01
  6.2706673e-01
 -4.2712384e-01
  1.1436240e-02
 -1.0921317e-01
 -5.9044912e-02
  1.0002898e-01
  1.8879387e-01
  1.3294015e-02
  1.4664856e-01
  1.1272734e+00
  1.3034061e+00
  1.8854828e+00
  1.9902128e-01
 -6.1856851e-02
 -3.6634538e-01
  9.8759764e-01
 -1.2682954e+00
  2.9329833e-01
 -1.2282284e-01
  5.8180076e-01
 -3.3057949e-03
  8.4777069e-01
 -2.4041277e-01
 -7.1459383e-01
  1.2508337e-01
 -7.2309977e-01
 -1.0144333e+00
  2.0286223e-01
 -1.3156444e+00
  9.2620212e-01
  1.6238984e-01
 -3.2034749e-01
  6.2334351e-02
 -6.7895925e-01
 -2.4002397e-01
  3.1720542e-03
  3.7518185e-01
 -3.4698260e-03
  2.3245989e-01
 -3.2509241e-01
  1.9684328e-01
 -1.2145243e+00
  1.5741369e-01
  1.3853244e-01
  2.1396208e-01
  7.3765546e-01
 -5.1447529e-01
 -1.2526755e-01
  2.1351767e-01
  1.5088346e+00
 -8.4081747e-02
  2.4087378e-01
 -5.5456233e-01
 -6.0656810e-01
 -3.4310782e-01
  7.6836246e-01
  1.2724055e+00
 -3.2528967e-01
  1.5151476e-02
 -7.5902623e-01
 -8.3635372e-01
  5.7745278e-01
  7.4608874e-01
  1.8006105e+00
  1.5142666e-01
  1.0937841e+00
  4.5265440e-02
 -1.0894404e-01
 -2.8490657e-01
  6.4321816e-01
  2.8630587e-01
 -6.8328828e-01
 -1.0449980e+00
 -5.4777032e-01
 -8.0817789e-01
  1.0476570e+00
  9.1200724e-02
 -1.7494980e-01
 -3.9120898e-01
 -9.9232785e-02
  9.8730457e-01
  5.6284809e-01
 -9.7868145e-01
  9.6157569e-01
 -1.1543683e+00
 -4.1353676e-02
  8.1401056e-01
  2.5862879e-01
 -4.0228707e-01
 -3.0148078e-02
  1.2153544e-01
  4.3683860e-01
 -7.0241904e-01
 -3.0115879e-01
 -9.4274896e-01
  2.9158413e-01
  1.0260940e+00
  9.0655878e-02
  5.5739630e-02
 -3.6649802e-01
  3.4080580e-01
  9.5527017e-01
  1.4892482e+00
  2.6016152e-01
  2.9123694e-01
 -6.6890574e-01
 -9.7563595e-01
  1.3844432e-01
 -3.9072022e-01
 -2.1857424e-01
  2.2534758e-01
  2.2008763e-01
 -1.5005280e+00
 -9.3617880e-01
  3.6749774e-01
  7.4013658e-02
 -2.4785233e-01
 -7.2961563e-01
 -2.2657715e-01
 -7.0247692e-01
  8.7789071e-01
  4.7387534e-01
 -6.7290813e-02
 -2.1718748e-01
  4.6246655e-02
 -1.5006018e-01
  8.3698297e-01
 -2.5223263e-02
  1.3898808e-01
  2.8374773e-01
 -3.1651026e-01
 -8.1963146e-01
 -8.9071028e-02
 -1.1738753e-01
 -1.4668876e-01
 -1.1369190e-01
  2.8262052e-01
  1.6467394e-01
  4.4981297e-03
 -1.3212323e-01
 -4.5157117e-01
  1.9063132e-01
 -4.7933453e-01
  6.9460577e-01
 -7.4015312e-02
 -4.5461065e-01
 -2.1939567e-01
  7.4928805e-02
 -3.1313828e-01
  1.1350159e-01
 -4.5925435e-01
 -1.7569238e-01
 -2.1165162e-01
  1.6417995e-01
  5.0066621e-03
  1.3690838e-01
 -4.8178192e-03
  7.1737692e-02
 -4.2644694e-01
 -2.7088144e-01
  1.0138491e-01
 -3.1818259e-01
  5.9225488e-01
 -1.6249907e-01
 -1.7004251e-01
 -3.9345148e-01
 -1.0025621e-02
 -5.9737094e-02
 -7.5323284e-01
 -5.3880340e-01
 -9.3857914e-02
  1.1389543e+00
 -1.5029670e-02
 -8.3678449e-03
 -7.6056439e-01
  1.7219801e-01
  1.5206502e-01
 -1.0161134e+00
 -2.7608880e-01
  6.7912228e-02
 -1.5296088e+00
  1.2483656e-01
  2.5251400e-02
 -1.2522750e-01
  1.7228230e+00
 -8.2281148e-01
  3.1758443e-01
 -1.7615572e-01
  6.7053378e-01
  1.4633191e-01
 -1.1684731e+00
  5.4104960e-01
 -1.9254269e-02
 -5.7175314e-01
 -3.4266907e-01
 -2.3998832e-03
 -6.6773489e-02
 -3.9272418e-04
  4.6841809e-01
  5.8748692e-01
 -1.6045834e-01
  2.9386747e-01
  1.2135158e-02
  1.4199588e-02
 -4.1325134e-01
  7.3397189e-02
 -5.8747101e-01
 -1.9944236e-01
 -2.5084864e-02
 -1.5383185e+00
 -3.3538703e-02
 -4.6317706e-01
 -6.3157624e-01
  2.7956560e-01
 -6.5315473e-01
  9.3988782e-01
  5.3247976e-01
 -1.6519490e-01
  1.2403976e+00
 -1.0545008e+00
 -2.2298196e-01
  1.0461447e+00
 -3.0371565e-01
  1.0381010e+00
  3.5930699e-01
 -1.0448967e-01
  1.2858604e-01
  4.1234910e-02
 -5.1694274e-02
  3.5598335e-01
 -3.2685152e-01
 -8.4360622e-02
 -8.7668514e-01
  5.6648749e-01
 -3.9247360e-02
 -6.9834572e-01
 -1.0746932e+00
 -3.4020117e-01
 -3.4082586e-01
 -7.6311618e-02
 -3.9317438e-01
 -1.2429491e-01
 -5.1660937e-01
  1.4796170e+00
  6.0678452e-01
 -9.4190371e-01
 -1.0388786e-01
 -9.0491094e-02
 -1.0358013e+00
 -5.7306275e-04
 -4.3281236e-01
  1.0787614e-01
 -6.0542196e-01
  5.4236531e-01
  4.2466432e-01
 -3.4489762e-02
 -1.1967914e+00
  1.0361265e+00
  4.3089440e-01
  5.1637518e-01
  5.4047354e-03
 -9.8174335e-03
  5.9257723e-02
  4.2652029e-01
  6.9995716e-02
 -1.3934185e-02
 -4.5914069e-01
  6.1879271e-01
 -9.9389516e-03
  1.1191646e-01
 -1.0687002e+00
 -3.2551593e-01
 -1.1550208e+00
 -3.8503113e-01
  3.8917249e-01
  7.8101456e-01
 -5.0866570e-02
 -6.0501769e-02
 -2.9622379e-01
  8.6087383e-02
  6.2530285e-01
  3.4040254e-01
 -1.8212487e-01
  3.2775152e-01
 -5.0780976e-01
  7.9883926e-02
  3.9420310e-02
 -1.2321911e-01
 -1.8830767e-01
 -9.4463599e-01
 -8.0107398e-02
 -9.5663506e-01
 -1.1395073e+00
  5.0957245e-01
  1.7946397e-01
  4.1611174e-01
  1.6366148e-01
  2.0066384e-02
 -1.2096868e+00
 -1.0841976e-01
  1.7804937e+00
  1.2692357e+00
  7.7220887e-01
  1.5894942e-01
  6.4382887e-01
 -2.3861597e-01
  1.6015173e-01
  2.5398993e-01
  2.6397240e-01
 -6.4053037e-03
 -1.7686997e-01
 -2.5719312e-01
  9.6484289e-02
  3.3065077e-02
 -5.4969466e-01
 -3.9656135e-01
  2.1234085e-01
  3.0443570e-01
  5.6104529e-01
  1.3571741e-01
  2.3399302e-01
  4.9102759e-01
  5.7152193e-02
 -1.9389145e-01
 -2.6088580e-01
 -1.7190434e-02
  1.4830279e-02
 -4.7779143e-01
 -2.6758893e-03
 -1.3243826e-01
  3.9319664e-01
  2.2671936e-01
 -3.0392900e-01
 -1.0624841e+00
  2.8704975e-02
 -1.2046530e+00
  1.7770252e-01
 -3.9955413e-01
 -1.2684894e+00
  6.3484311e-01
 -2.0746733e-01
  4.8783371e-01
 -7.6631367e-01
 -1.1841168e-01
 -3.6135906e-01
 -8.5149902e-01
 -5.8312613e-01
  2.2157774e+00
  9.1721374e-01
  2.3194121e-01
  2.0484164e-01
  9.2410278e-03
 -5.3714845e-02
 -4.6562061e-02
 -3.8142830e-01
  9.4600415e-01
 -3.5103157e-01
  1.0427511e+00
  4.4443306e-01
 -1.0416865e-01
 -1.1294380e-01
  1.1723939e+00
 -5.8786744e-01
 -7.3115885e-01
 -1.5525103e-01
 -4.4116428e-01
 -9.5638114e-01
  6.6090417e-01
  6.4800173e-01
  6.1236739e-01
 -1.1778447e-01
 -5.8438897e-01
 -7.9652256e-01
  9.5272774e-01
 -5.3839904e-01
 -3.0388007e-01
 -2.2135821e-01
  5.4274333e-01
 -1.6712463e-02
 -1.6539624e+00
  3.3511254e-01
  1.3725621e+00
  4.4777793e-01
 -2.7854654e-01
 -1.0051798e+00
 -4.5213422e-01
  8.1815004e-02
  6.1081341e-03
  2.2790099e-03
 -1.2282951e-02
  1.0254999e-02
  2.2571990e-02
 -4.1222945e-02
 -8.1832178e-02
  8.3277505e-03
 -1.5439915e-03
  3.5230524e-03
  2.2414627e-03
 -5.3981943e-03
 -1.3499219e-02
  7.7796238e-03
  2.5366345e-01
  5.7797250e-03
 -6.2673041e-03
 -1.1493226e-02
 -5.1353097e-01
 -3.9008104e-03
 -7.7258120e-04
 -6.9276333e-02
 -6.3882722e-03
  3.5823873e-01
  4.1275406e-03
  4.6102111e-03
 -9.2819087e-02
  5.1307954e-02
 -6.2912673e-01
  3.8173664e-01
 -1.9049878e+00
 -1.8026361e-01
 -7.6758718e-01
  1.7867181e+00
 -6.6995709e-03
  6.1016113e-02
 -1.3606895e+00
  1.1111393e+00
 -1.1808097e-01
 -9.0514457e-01
 -1.2315472e+00
  9.0394264e-01
  7.8252846e-01
 -1.1390041e+00
  6.8871659e-01
 -5.7748675e-01
  1.0054579e+00
 -3.7574261e-01
  1.3881291e-02
 -2.6533356e-01
 -7.3437369e-01
  9.6721202e-01
  2.5574011e-01
 -4.7766194e-01
 -1.7466754e-02
  1.6131568e-01
  9.3966343e-02
 -6.9546157e-01
  7.3752975e-01
  5.8429348e-01
  2.3699466e-02
 -7.3559843e-02
  4.5078734e-01
 -3.5342565e-01
  6.2628210e-01
 -2.4218430e-01
 -4.7250220e-01
  6.2905455e-01
 -1.3344800e-02
 -1.8503870e+00
 -6.9093001e-01
  4.8133823e-01
  8.7211329e-01
 -6.6837192e-01
  9.1973084e-01
 -7.1677220e-01
  2.4298567e-02
 -4.1387773e-01
  1.2749623e-01
  1.9244852e-02
  1.1815584e+00
 -4.2537114e-01
  6.6326785e-01
  5.8484785e-02
  4.2454618e-01
  1.2032972e-01
  3.3109209e-01
 -8.4333754e-01
  5.0191152e-01
  6.9744503e-01
  9.2774443e-02
  1.5837285e-01
  1.7025144e+00
  3.2488805e-01
  4.9068680e-01
  7.0375524e-02
  5.4007429e-01
  7.5854495e-02
 -8.9982933e-01
  4.0807433e-02
  1.4153993e+00
  1.2058083e+00
  1.2443104e+00
  7.6521796e-01
 -1.5703164e+00
 -2.5156933e-01
  5.4623836e-01
 -1.2080849e+00
 -9.0149594e-03
 -1.6193650e+00
 -1.1238687e-01
  4.4598407e-01
 -2.5966001e-01
 -6.2180442e-01
 -6.5796703e-01
 -1.6684903e-01
  5.4595447e-01
 -4.7462228e-01
  5.7102311e-01
 -3.1920388e-01
 -7.3899007e-01
 -8.6365616e-01
 -7.2377539e-01
 -3.5859573e-01
  2.6152340e-01
 -1.5291823e-01
  1.0974891e+00
 -9.2292273e-01
  6.9508892e-01
  1.0281444e+00
 -2.7956724e-01
 -3.9444819e-01
 -1.3613760e-01
 -4.4741988e-01
 -3.2300901e-01
  2.9805669e-01
  3.5307983e-01
  1.5315090e-01
  9.2849411e-02
  2.0517935e-01
 -1.0946443e+00
  8.0655253e-01
  5.3323328e-01
 -5.4593825e-01
  3.6151743e-01
 -4.7158143e-01
 -4.2255098e-01
  2.2018555e-01
 -5.1630344e-02
 -4.4458397e-03
  2.7017608e-01
 -1.4711040e-01
 -4.6903175e-01
 -1.2015404e-02
 -6.2869929e-02
  4.8317486e-01
  3.4094861e-01
  7.5362134e-01
  1.8551880e-02
  4.3333131e-01
 -9.1573529e-02
 -2.0561753e-02
 -3.9420594e-02
  5.7744682e-02
  3.2930201e-01
  3.2054266e-01
 -1.1226995e-01
  2.0790081e-01
  9.8462552e-01
  2.6371163e-01
 -7.5498408e-01
  1.6576657e+00
  3.6734837e-01
  2.0446901e-01
 -5.7409710e-01
 -3.4411645e-01
 -8.0727744e-01
 -1.3089788e-01
  1.4029478e-02
  1.0187599e-01
  6.0829498e-02
  2.1343023e-01
 -2.4125116e-01
  4.7578558e-02
 -4.4672981e-01
 -4.3874672e-01
 -1.1029572e-01
  4.9658018e-01
 -3.7633979e-01
 -5.2782834e-01
 -7.0755663e-03
  1.4732065e-02
 -2.0205865e-02
 -6.1525267e-01
 -6.6304374e-01
 -7.4406856e-01
  2.4179034e-01
 -4.9283844e-01
 -2.5502723e-01
  3.7821728e-01
 -7.4345976e-01
 -3.0232650e-01
 -2.2404125e-02
 -2.0856509e-02
  2.0589861e-01
  7.2792985e-02
  1.5375450e-01
  1.0650038e+00
 -1.2849841e+00
  3.9622402e-01
 -2.3348536e-03
  2.7925050e-01
  4.8526159e-01
  1.8327989e-03
  1.0076319e+00
  8.2284135e-01
 -1.6591866e-01
 -4.9454607e-02
 -1.5933418e-01
 -2.9821432e-01
  7.2986847e-01
  5.9141666e-01
  1.4003909e+00
  1.9187124e-02
 -2.0240343e-01
  4.7474161e-01
  4.8451933e-01
 -1.7392761e+00
 -1.7725803e+00
 -3.3163765e-01
 -1.4831755e-01
 -1.0692666e-01
 -2.4638034e-01
  1.8600811e-01
 -3.3259806e-01
  1.4375733e-01
 -7.5652605e-01
 -7.1321851e-01
  5.3402150e-01
 -4.4439751e-01
 -1.2962357e-02
 -2.3386648e-01
 -2.3480918e-01
 -5.2220833e-01
 -4.9532276e-01
 -4.8705775e-02
  3.1565332e-01
 -4.9142066e-01
 -6.2317550e-01
  1.4071997e+00
 -4.7187421e-01
 -1.1354597e-01
 -1.5467855e+00
 -2.6070666e-01
 -7.6413411e-01
  1.0665082e+00
  1.2315634e-01
 -1.9773382e-01
 -2.2888060e-01
  4.9209332e-01
  3.1987939e-02
 -2.0274492e-01
 -6.5518951e-01
 -6.4553475e-01
 -3.9337006e-01
 -3.2588932e-01
 -5.4699832e-01
 -7.1480811e-01
  7.8294784e-01
  4.9236748e-01
 -9.0218443e-01
 -1.1205993e-01
 -2.2331674e-01
  9.4459975e-01
 -5.3558224e-01
 -3.7417965e-04
  8.5353814e-03
 -1.0880239e+00
  3.0167511e-01
 -6.7744881e-01
 -5.5683893e-01
  7.3523146e-01
  2.1419835e-01
 -7.7154189e-01
  2.1731633e-01
 -1.4629360e-01
  1.8147789e-02
 -1.3671270e-01
  1.2440007e-02
 -3.0550060e-01
  1.1922998e-01
  3.9102796e-01
 -1.5053241e+00
 -2.9537407e-01
  5.5559349e-01
 -9.5260936e-01
  5.6061703e-01
 -2.6697844e-01
  3.1157681e-01
 -1.0098992e-02
  3.9768609e-01
 -4.9467906e-01
 -4.3252200e-01
 -2.7970880e-01
  8.0783093e-01
 -2.9206825e-02
 -1.2373173e+00
  1.5755905e-02
  1.1698880e-01
 -1.2431085e-01
  6.5035306e-02
  8.0335148e-02
  3.8415876e-01
  8.0870944e-01
 -4.3105903e-01
  1.5557943e-01
 -1.7804413e-01
  1.5455452e-01
 -2.2017211e-01
  1.0633524e-01
 -8.1087601e-01
  2.9392689e-01
  7.3888499e-01
  9.0027612e-04
 -2.0763981e-01
  3.0614609e-01
 -5.1628701e-02
 -5.2624899e-03
  4.9844801e-02
 -2.3591818e-01
 -1.9115945e-02
 -1.2401801e+00
  2.1257909e-01
 -2.9634789e-01
  1.3153742e-01
  6.4141160e-01
  1.3595194e+00
  2.1691620e-01
 -5.8149986e-02
  4.1728485e-02
  1.4119109e-02
 -2.2535914e-01
  4.0167341e-01
 -7.9308897e-01
  5.1869047e-01
 -3.3461523e-01
  2.3343267e-01
  2.1469307e-01
  3.0304352e-02
 -3.1998974e-01
  4.9983287e-01
 -9.5222623e-04
  9.9097110e-02
 -5.4856676e-01
 -3.4104866e-01
  9.1923362e-01
  4.1553012e-01
 -1.7457010e-02
 -2.7122161e-01
 -3.5009570e-02
  2.0729315e-01
 -4.4254562e-01
  5.4584098e-01
  6.1889973e-02
 -2.0071124e-01
 -2.3582828e-01
 -6.8864834e-01
 -2.1926492e-01
 -2.6577881e-01
 -2.3641929e-02
 -6.4592254e-01
  1.0204348e-02
 -5.8246177e-01
 -7.2072022e-02
  8.6269587e-02
  2.4737452e-01
 -8.5670501e-02
 -5.7727611e-01
 -9.4394095e-02
 -4.8468895e-02
 -3.9595270e-01
  4.4895059e-01
 -6.7919475e-01
  1.6093215e-01
  3.6778456e-01
 -1.6809928e+00
 -1.4831860e-02
  5.0251454e-01
 -2.5569448e-01
  1.7648247e-01
 -9.9779516e-02
  1.7093435e-01
 -2.7240542e-01
  6.5374352e-02
 -9.3626618e-02
  2.9184374e-01
  9.0582870e-02
 -4.6134565e-02
 -1.8835072e-01
  9.4302511e-04
  1.5471975e+00
  1.1470624e+00
 -3.3285338e-01
  6.2673236e-03
 -4.3416601e-02
  6.0704654e-01
  5.6281644e-01
  4.5750692e-01
 -1.2857881e-01
  3.5279071e-01
  1.3978320e+00
 -3.6419037e-01
  5.1651454e-01
 -1.7492907e-01
 -4.9592832e-01
  4.6067171e-02
 -1.3103564e+00
 -1.2985253e-01
  5.0372285e-01
 -7.8882146e-01
  4.7096989e-01
 -1.6682357e-01
 -1.5745516e-01
 -1.7593704e-01
  1.0775838e+00
 -1.2016808e+00
  5.9984084e-03
  1.0037302e-02
 -2.4195179e-01
  6.6771078e-01
 -7.9146433e-01
  2.7025434e-01
 -3.4186390e-01
 -2.5679001e-01
  4.5642242e-02
  1.0055082e+00
 -4.5836884e-01
 -2.3794855e-01
  6.6857624e-01
 -9.1679394e-02
 -1.8522930e-01
  2.9803553e-01
  1.3710476e+00
  8.4010661e-02
  2.5942193e-02
  3.3137682e-01
 -2.7726892e-01
 -9.0444028e-02
 -6.6007249e-02
  1.5438491e-01
 -1.0131216e-01
  4.7967082e-01
  3.5806724e-01
  3.5644490e-01
 -3.6853182e-01
  1.0885506e-01
 -9.4870180e-02
 -2.0274479e-02
  4.4969831e-02
  6.7464548e-01
  3.6487654e-01
  5.3981966e-01
 -1.0759612e-01
  1.0409728e-01
 -1.9262545e-01
 -1.8102965e-01
  7.6596934e-01
 -6.0301775e-01
  3.0431753e-01
 -7.2816318e-01
 -2.3803329e-01
 -4.1646478e-01
 -5.8095878e-01
  3.4765802e-02
  7.8556216e-01
  8.1585161e-02
 -8.3703101e-03
  8.0276912e-01
 -2.5367942e-02
  8.5090733e-01
  5.1867563e-01
  1.0127822e-01
  2.5172561e-01
  1.8590435e-01
 -3.9173210e-01
 -5.0002056e-01
  7.2083634e-01
  1.9208027e-02
  2.3728374e-01
  1.8599817e-01
 -1.1832145e-01
 -5.4005265e-01
 -8.2540792e-01
  4.1046616e-01
 -8.9599496e-01
  9.2883170e-01
 -1.0787216e-01
  2.4584596e-01
  6.3562369e-01
 -2.8136629e-01
  6.5293795e-01
  2.8554529e-02
 -2.4569045e-01
  4.3658978e-01
  5.2264398e-01
 -2.0288863e+00
 -2.3373631e-01
 -6.7495906e-01
 -3.7890378e-01
  2.1326321e-01
  3.5163742e-01
 -6.6485643e-01
 -2.0146152e-02
 -5.4587811e-01
  7.3989493e-01
 -3.2886142e-01
  1.5741955e-02
  6.4139092e-01
 -6.5166312e-01
  6.7199647e-01
  1.4750081e+00
 -6.2197423e-01
  1.5067388e+00
  5.7893646e-01
 -1.4303664e+00
 -2.4632929e-01
 -3.7514570e-03
 -1.0388750e+00
 -5.5657387e-01
 -7.3679847e-01
  1.3468243e-01
 -3.2519221e-01
 -3.1426129e-01
 -2.3220250e-01
  5.8323512e-04
  3.5891220e-01
 -9.4799763e-03
 -2.5301635e-01
  1.1152996e-02
 -7.4245656e-01
 -3.3896255e-01
 -8.6756611e-01
  2.2785603e-01
  1.8473904e-01
 -1.4895482e-01
  6.6392273e-03
  1.3166072e+00
 -4.1872162e-01
  4.9598002e-01
 -5.5852759e-01
 -4.6353900e-01
 -3.5471350e-02
 -1.0086840e+00
 -7.7908152e-01
 -3.2142852e-02
  7.2102445e-01
  5.7686441e-02
  1.1261035e-02
 -4.8528057e-01
  4.6500042e-01
 -1.3346183e-01
 -6.9207951e-02
  6.4354891e-01
  6.0710993e-02
 -2.0375685e-01
  7.7118808e-01
  6.4646661e-01
 -2.9328471e-01
  1.3056500e-01
 -1.1618505e+00
  6.0319215e-01
  7.5942838e-01
  7.5881012e-02
  3.3113772e-01
 -3.1110635e-01
 -1.2979212e-01
 -8.5150570e-01
 -8.2040095e-01
 -3.7740549e-01
  2.1771939e-01
 -4.8590618e-01
  1.0457490e-01
  1.8119311e-01
 -4.3153289e-01
  1.1287305e-01
 -2.8350949e-01
 -6.9554202e-02
 -6.0699498e-03
 -3.1240058e-01
 -6.3721776e-02
 -6.2998134e-01
 -4.8057020e-01
  7.1985587e-02
  4.2348348e-02
  1.5258062e-01
 -3.4453654e-01
  2.7996728e-01
 -4.9904782e-02
  6.2082112e-02
 -3.4342951e-01
  1.0648131e-02
  7.9067618e-02
 -7.1649343e-01
 -5.9415942e-01
  5.7833683e-01
  2.1475875e-03
  1.1563450e+00
 -1.9961314e-01
 -8.7198384e-02
  2.9906687e-01
  7.9964787e-01
  2.5872189e-01
  8.0942470e-01
  6.7377910e-02
 -9.6401095e-02
  2.3475450e-01
 -1.6835223e-01
  3.8168210e-01
  1.2794028e-01
 -2.5250131e-01
  1.1308722e+00
 -5.1471144e-02
  5.9342605e-01
 -1.2645963e-01
 -3.7911810e-02
 -2.5024801e-02
 -1.1840932e-01
 -1.7655963e-01
  2.8220222e-03
  7.2940505e-01
 -5.4331765e-02
  6.1961286e-02
  1.4234927e+00
 -5.3960826e-02
  1.2428347e-01
 -9.7244877e-01
  1.2726168e-01
  1.2593447e-01
  3.1323677e-01
 -2.4860952e-02
  1.2972580e+00
  2.0145585e-01
  1.1360103e+00
 -5.2938454e-02
  2.1654887e-01
 -3.3490621e-02
 -7.1282222e-05
 -1.9637893e-01
  7.0527792e-01
  5.6397915e-01
  5.3726178e-01
  3.1911367e-01
 -1.1362080e-01
  5.9649134e-03
  2.5642139e-01
 -2.9125056e-01
 -1.3310803e-01
  4.5270067e-01
  1.5930696e+00
 -6.1602575e-01
 -2.2862778e+00
  4.0163702e-01
 -9.0578325e-02
 -6.2452650e-01
 -3.5875127e-01
 -4.9410859e-01
 -8.5895634e-01
 -1.4736897e-01
  1.4407065e+00
  1.6885827e-01
  9.5935971e-01
  1.0315361e+00
  7.4512500e-01
  1.2959853e-01
 -1.4617326e+00
  2.1505825e-01
  4.5770779e-02
  9.5492736e-02
 -2.6440646e-02
 -1.9732594e-01
  3.1698117e-01
  1.3525642e-01
 -3.5959435e-01
  1.3834631e+00
  3.9652687e-02
 -4.3919039e-01
  9.5310289e-01
 -2.2032227e-01
 -5.6462377e-01
 -3.4660342e-01
  1.0263832e+00
 -2.0872952e-01
  8.6904831e-02
  6.0946202e-01
 -1.4792705e-01
  3.4256744e-01
  3.1693092e-01
  5.0456923e-01
 -3.4163937e-01
  1.2076967e-01
 -9.3095320e-01
  5.5523795e-01
  5.5197898e-02
  1.2277029e+00
 -5.9491479e-01
 -4.7513759e-01
 -1.6207817e-01
  1.0563896e+00
 -2.8503588e-01
  3.3863980e-01
 -6.0061407e-01
 -8.0223531e-02
  1.2771600e+00
  3.0959290e-01
  2.5662062e-01
  1.6057003e-01
  3.0682283e-02
  3.7363861e-02
 -2.2394449e-01
 -1.0138568e-01
  4.4605106e-01
  2.1358062e-01
  1.3594286e-02
  1.3911502e-02
  1.5310730e-01
  3.9740911e-01
 -6.5444142e-02
 -4.6836969e-01
  4.3629226e-01
  1.1601637e-01
  2.9334369e-01
 -2.4300797e-02
  1.6117191e-01
 -7.0601910e-02
  6.5412253e-02
  1.5528262e+00
 -1.1415908e-01
 -4.1496241e-01
  3.8894704e-01
  1.3451291e+00
 -1.1820840e+00
 -3.0988497e-01
 -1.1096227e+00
 -1.1454505e+00
 -1.5206499e-01
 -3.1764504e-01
 -9.4331408e-01
 -5.1473927e-01
 -1.1178548e+00
 -6.4099059e-02
 -5.1049149e-01
  1.3842496e-01
  2.0352118e-02
 -1.9714734e-01
 -3.0320132e-01
 -9.0526223e-01
 -1.3152172e-02
 -9.4687231e-02
 -3.9949496e-03
  2.8807107e-01
 -2.5368729e-01
 -1.6517431e-01
  1.8943347e-01
  2.0509030e-01
  3.2545611e-01
 -4.4213939e-01
  6.9113243e-01
 -2.8729602e-04
 -4.0886289e-01
  9.3935877e-01
  4.3835855e-01
  1.8668378e-02
  2.5159316e-02
 -8.6353913e-02
  4.8466779e-02
  1.1644004e-01
  1.6495680e+00
 -3.3916754e-01
 -8.4212601e-02
 -4.5205650e-01
  1.3782178e+00
  2.7045712e-01
 -3.5899833e-02
  3.0743894e-01
 -1.3809644e+00
 -1.2161385e-01
  4.8311862e-01
 -7.1563030e-04
  1.2432633e-01
  1.1235924e+00
  8.4782541e-01
  6.4924031e-02
  4.1351250e-01
  6.6623527e-01
 -2.7785516e+00
 -1.9115593e+00
 -2.4095464e-01
 -1.1121924e-02
 -5.3266309e-02
 -7.0519340e-01
  3.5880846e-01
  3.0120033e-01
  3.0932137e-01
 -7.8988671e-02
 -8.3155298e-01
 -2.4540681e-02
 -2.9525220e-01
 -2.5478160e-02
  4.6698609e-01
 -7.2742736e-01
  3.0768320e-01
 -5.4759246e-01
 -3.9847668e-02
  5.2984244e-01
 -3.5484922e-01
  1.7199317e-01
 -7.3373091e-01
 -4.6636653e-01
 -1.7496965e+00
 -4.1139129e-01
  5.9210020e-01
 -2.5044158e+00
 -6.0645753e-01
 -3.8439345e-01
  1.4476757e-01
 -1.6504516e-01
  1.3841039e-01
  5.0773889e-02
 -2.8075439e-01
 -5.6031168e-01
  3.2685021e-01
  1.9388725e-01
 -5.8876537e-02
 -2.9822046e-01
 -9.9040616e-01
  1.2323810e+00
  6.8145806e-01
 -4.4988371e-03
  1.3871686e-01
 -6.7630309e-01
  1.2781646e+00
 -1.3364485e-01
 -1.2612148e-03
  8.2732609e-04
  2.7687468e-03
  1.2337264e-01
 -4.0091476e-01
  2.9693991e-01
  8.5239306e-05
  1.1297992e-01
  5.9503615e-01
 -1.2231965e-03
  4.0069899e-01
  1.7446922e-01
  4.0066772e-04
 -5.9887558e-01
  2.2669719e-01
  5.3509392e-02
  8.8765126e-01
 -4.2678481e-01
 -3.4415704e-01
  1.1859970e+00
  1.0370084e+00
 -1.2324141e+00
  8.8814664e-01
 -9.3026003e-03
 -5.0688230e-02
  3.4026453e-01
  5.0314695e-01
  4.9935049e-01
 -9.8044481e-03
  1.3770245e-01
  1.1756665e+00
  1.1395995e-01
 -3.1282631e-01
  4.9792641e-01
  1.3076198e+00
  2.9944837e-01
 -6.2830973e-01
  1.6650045e-01
  1.0903785e-01
  4.8256728e-01
  1.0970943e+00
 -3.8764098e-01
 -8.8104749e-01
  8.2182556e-01
  1.0271951e+00
  2.4364835e-01
 -9.3389100e-01
 -1.1203996e-01
  2.3974620e-01
  5.6149472e-02
  4.4209597e-01
 -9.9172562e-02
 -1.0441554e+00
  7.7286923e-01
  1.3869362e-01
 -3.8576129e-01
 -5.3807664e-01
 -3.3645451e-01
 -4.6994191e-01
 -3.3619395e-01
  4.4527012e-01
  6.8636560e-01
  7.6093197e-01
 -4.5676836e-01
 -9.8106101e-02
  4.0014341e-01
 -4.7060814e-02
 -3.3177489e-01
  3.8069376e-01
  5.2054143e-01
 -8.8220440e-02
  1.7739266e-01
  5.1097620e-01
 -6.6478260e-02
  1.9174393e-01
  7.9839987e-01
  1.3634848e-03
 -2.6399142e-01
  6.1969155e-01
 -3.6775061e-01
 -6.4010113e-02
  3.0855518e-02
  6.9959241e-01
  1.2035578e+00
 -3.0360079e-01
  1.0335881e+00
  4.4500270e-01
 -2.6228883e+00
 -4.1477457e-01
  4.6172369e-02
  3.1631026e-01
 -1.7253278e-01
 -6.3554311e-01
  4.7213179e-01
 -5.4912436e-01
 -6.7968309e-01
 -4.1726235e-01
 -4.9617299e-01
  6.5251023e-02
 -4.8521996e-01
 -6.3131773e-01
  5.7696974e-01
 -6.2153417e-01
 -7.0488167e-01
 -2.3199505e-01
 -1.5717275e-01
  1.4053832e-01
 -3.7607512e-01
 -4.1953945e-01
  7.9221472e-02
 -1.1590091e+00
 -7.6487504e-02
 -2.0419254e+00
  2.6417646e-01
 -1.6061984e-01
 -1.2410993e-02
 -3.1338564e-01
  8.7085909e-01
  7.9867192e-02
 -2.3296326e-01
 -1.0973969e+00
 -7.4585259e-01
 -1.6574049e-01
 -8.0935979e-01
  4.7708097e-01
  7.3124272e-01
  7.2523933e-03
 -4.8151302e-01
 -1.3939959e+00
  9.0128309e-01
 -8.2562655e-01
 -9.1033834e-01
  1.1935183e-01
 -1.6321404e+00
  4.6043083e-01
 -3.7369281e-01
  1.4636161e+00
  4.8321902e-04
 -1.1578062e+00
  2.3101535e-01
  3.8631347e-01
  1.7638969e-01
  2.5978133e-01
 -1.2348489e-01
  1.3023746e-01
 -1.7822066e-01
 -1.8233296e-01
 -1.1387429e+00
  4.7381129e-02
 -1.2760577e-01
  1.3502985e+00
  1.1025677e-01
 -8.6217046e-02
  2.1639615e-01
  1.2254523e-01
 -7.6514733e-01
 -3.1937638e-01
 -3.5615817e-01
  9.3221627e-02
  9.3868338e-02
  1.7373916e+00
  3.2252994e-01
  7.2877124e-02
  1.9811040e-01
  7.4581504e-02
  7.3682532e-02
 -7.7847965e-02
 -1.2838839e-01
  3.9284813e-01
  7.8660017e-01
  7.6605964e-01
 -3.7246766e+00
  1.2715788e+00
 -9.8963964e-01
 -6.1146539e-01
  5.7885623e-01
  8.9712518e-01
 -1.8394616e+00
 -6.9256967e-01
  1.4594775e-01
  2.4776421e+00
 -3.0158970e-01
  5.3437632e-01
  7.5811446e-01
  1.2334425e+00
  1.0990278e-01
  1.3665192e+00
  1.7057344e+00
  2.4303927e-01
 -6.6873528e-02
 -2.3009527e-01
 -2.7352065e-01
 -9.2805117e-01
  1.0605649e+00
  2.7984187e-01
 -1.1433196e+00
  1.3621762e+00
 -1.0458659e+00
  1.5597016e+00
  5.6068778e-01
 -8.4684080e-01
 -1.5443096e+00
  2.1994985e-03
 -7.4629061e-02
 -5.0260264e-01
  4.1523260e-01
 -1.0679360e-02
 -7.3603012e-02
  6.0412061e-01
 -1.0554243e+00
 -7.1666807e-02
 -1.0336673e+00
 -1.3612674e-01
 -3.7374988e-01
  1.5571682e-01
  9.7844496e-02
 -6.0628736e-01
  9.9135417e-01
  4.9142659e-01
 -3.1377628e-01
  5.3458613e-01
 -4.2455439e-02
  2.0240942e-01
  3.3207119e-01
 -2.1222916e-02
  1.4466248e-01
  1.4005539e+00
 -1.3828298e+00
 -7.7685267e-01
 -2.0860937e+00
 -1.7168865e-01
 -1.0812126e+00
  3.4741277e-01
 -9.4184172e-01
  3.3320221e-01
 -8.2177263e-01
  7.0528179e-02
  3.5816994e-01
 -7.3368537e-01
 -2.1635669e-01
  9.8602688e-01
 -3.8234904e-02
  4.8131165e-01
  8.1622475e-01
  3.6044145e-01
  1.1419657e+00
 -4.1562319e-01
  6.7811275e-01
 -1.6837479e-01
  8.0547631e-01
  9.2327070e-01
  5.3770852e-01
 -5.4136050e-01
 -2.3084309e+00
  1.0961326e+00
 -2.2802221e-02
  9.4497159e-02
 -1.6587031e-01
  9.5642692e-01
 -8.4062582e-01
  4.0948659e-01
  8.2502359e-01
 -2.9297185e-01
  6.1126210e-02
 -4.9769551e-01
  1.2667892e+00
  7.5914818e-01
  6.3523456e-02
 -6.8559378e-02
 -4.9572207e-02
  1.0906930e+00
  5.3500479e-01
  8.2675777e-02
  3.7542656e-01
  2.8677985e-01
  1.6398841e+00
  6.5879577e-01
  9.1548461e-01
  5.4600590e-01
 -1.0903935e+00
 -2.7883840e-01
 -1.6804719e+00
 -3.2907143e-01
 -9.6051395e-02
 -1.4546026e-01
 -1.0297045e+00
  3.4608799e-01
 -7.7810556e-01
  4.2023890e-02
 -3.3684090e-01
 -3.8543811e-01
 -5.7000387e-01
 -2.4178492e-01
  2.7916355e+00
  4.6525314e-03
  1.1050763e+00
 -6.6469365e-01
  3.6056779e-04
 -5.8015263e-01
  3.8865110e-01
 -6.5970409e-01
 -7.9522926e-01
  5.9686601e-02
 -4.9893594e-01
  2.0460501e+00
 -4.4205919e-01
  1.4116451e-01
 -3.2534130e+00
  9.3740755e-01
  1.3856764e+00
  2.6613309e+00
 -7.9514802e-02
 -4.5913494e-01
 -7.6299506e-01
  7.3264867e-01
 -6.3611895e-01
 -3.1099081e-01
 -5.9583688e-01
 -1.5260490e+00
  5.5110455e-02
  2.5239405e-01
